5690 50
</s> 0.008005 0.008839 -0.007661 -0.006556 0.002733 0.006042 0.001882 0.000423 -0.007207 0.004437 -0.008713 0.002499 -0.001503 -0.001914 -0.006631 -0.003764 0.005159 0.006051 0.005938 0.003195 0.003090 -0.007605 -0.008192 0.009939 0.007603 0.006180 -0.001208 0.008031 -0.000990 0.001469 -0.000298 -0.005966 0.002625 -0.002675 -0.007651 0.009508 0.008759 -0.002190 -0.000452 0.001018 -0.007275 -0.008014 0.009109 0.000126 -0.005165 -0.006084 -0.006153 0.003394 0.000403 0.002662 
， -0.368692 0.144115 -0.047685 0.206355 0.062302 0.221160 0.037746 -0.196037 0.000522 -0.017648 -0.192411 0.166099 -0.140140 -0.389698 0.199777 0.014189 -0.356845 -0.108382 0.292198 -0.157467 -0.153407 0.113732 0.348625 -0.135824 0.054638 -0.376973 -0.013095 -0.072051 0.066398 -0.244941 -0.179542 0.123075 -0.467522 -0.039515 -0.006618 0.322603 0.008918 -0.062458 0.149887 0.081903 -0.038127 -0.088090 0.339118 0.232441 0.510935 -0.047826 -0.166139 0.500491 0.108722 -0.303752 
的 0.100645 -0.056673 0.232345 0.068815 -0.161839 0.649383 -0.212492 -0.093360 0.025313 -0.011171 0.363385 0.351234 -0.216463 -0.319979 -0.214215 0.393992 0.043766 0.311797 0.495462 -0.055337 -0.439733 -0.016302 0.325591 -0.236574 0.228085 0.288694 -0.491843 0.043837 0.013535 0.318531 -0.019684 0.307543 -0.123120 0.651753 -0.189653 0.469434 -0.256169 -0.138342 -0.066932 0.494875 -0.061744 0.042885 0.167629 0.166860 0.432241 -0.031466 -0.182759 0.245199 -0.031186 -0.616718 
。 0.173480 0.040710 0.224263 -0.702851 -0.415434 0.034594 0.109787 -0.666123 0.069933 -0.619322 0.076314 0.227344 -0.702318 -0.753109 0.254764 0.656005 -0.320252 0.404458 0.334353 0.392382 -0.303417 0.046551 -0.606639 0.064002 0.396110 -0.191148 -0.280534 -0.269251 0.139651 0.304684 0.422940 0.036400 -0.371854 0.246527 -0.071628 0.169125 -0.210743 -0.138038 -0.321838 -0.149019 0.208980 -0.631879 0.261676 -0.072447 0.316619 -0.202823 -0.391852 0.182800 0.207456 -0.324042 
一 -0.338314 0.058416 0.349501 0.000933 -0.097007 0.056971 0.264087 -0.656501 0.143767 0.627460 0.615376 0.565086 -0.751242 -0.288582 0.096471 0.389693 -0.043561 0.163112 -0.097141 -0.532630 -0.575780 -0.702365 0.376283 -0.550653 -0.605738 -0.130771 -0.363419 -0.362788 -0.257233 -0.193790 -0.149213 0.310577 -0.823380 -0.211562 0.476962 0.821348 -0.142905 -0.626656 0.379802 0.711584 -0.258914 0.832710 -0.015617 0.732805 0.029167 -0.288716 -0.338036 0.673339 0.134199 0.229981 
、 0.026711 -0.668604 -0.885756 -0.036752 -0.869177 0.403004 -0.545287 0.246909 -0.370339 -0.214905 -0.616959 0.684771 0.168349 0.332574 -0.682303 -0.487496 0.566205 0.035696 -0.218176 -0.194105 0.533269 0.203721 -0.615335 0.881284 0.735325 1.576830 -0.099970 -0.708645 0.680376 0.176856 0.791992 -0.461587 1.471849 0.163579 -1.420036 -0.565823 -0.758310 -0.067309 -0.415262 -0.323058 0.567221 -1.297260 -0.440653 0.203096 -1.660702 0.357041 -0.294880 -0.638543 0.621073 0.274673 
1 0.884251 -0.689920 0.718819 2.507552 1.568459 -2.409015 1.154132 1.507674 0.825868 0.781030 -2.349233 -0.519445 0.237224 -1.192778 -1.032212 0.405887 0.578626 -1.861128 -0.507567 -0.145247 1.213272 -0.544759 0.115160 1.777016 -0.030250 -2.240986 0.629463 0.824579 -0.076934 -1.013530 -0.426527 -1.325442 0.059740 -0.652057 -0.170937 0.098510 0.242699 -0.595691 1.472544 -1.895688 -1.142145 -0.070382 -0.559350 -0.260410 -0.214156 0.993471 -1.076586 -0.194074 -1.780785 1.272423 
人 0.462459 0.040339 0.107869 0.273966 0.259641 0.426383 0.435961 0.633922 0.959652 -0.724016 -0.059061 0.264033 -1.006671 0.222053 -0.328706 0.289273 0.073209 -0.308686 0.041342 0.819385 0.833208 -0.318138 -0.065165 -0.517261 -0.068505 0.487267 0.591392 0.051077 -0.593227 -0.367986 -0.083948 0.337112 -0.035305 -0.777042 -0.703421 0.246758 0.237022 0.575041 0.483372 0.447108 -0.226688 -0.297513 0.815498 -0.547091 0.417374 -0.471198 0.018875 1.056304 0.639749 -0.207919 
在 -0.201481 0.499533 0.060496 0.643606 0.387096 -0.203027 -0.170625 -0.009391 -0.250033 0.266398 -0.204044 0.203283 0.179399 -0.023014 0.082936 -0.146637 0.071562 0.061838 0.368863 -0.505478 -0.288813 -0.785241 0.669541 0.047767 -0.215247 0.248542 -0.043310 0.285591 -0.122313 0.082058 -0.046450 0.001110 -0.481122 -0.627713 0.207867 0.261143 0.444584 -0.250311 0.550928 0.569862 0.111569 0.133473 0.460586 0.621626 0.220825 0.344478 -0.048525 0.733139 0.324402 0.058603 
0 1.521607 -1.553546 0.744705 2.469253 1.238944 -1.641619 1.352843 1.603145 0.528483 0.606728 -1.717567 -0.635045 -0.899809 -1.780332 -0.855974 0.277541 0.343258 -2.212685 0.344659 -0.165701 0.559363 -0.706504 0.140878 1.590730 0.620589 -2.438653 0.133797 0.007849 0.157033 -0.909210 -0.121631 -1.275820 0.052069 -0.608817 0.521110 0.589278 0.260761 -0.774771 0.697864 -2.318551 -0.862678 -0.236910 -0.999562 -0.952345 -0.271952 0.994394 -1.314755 0.631090 -1.916855 1.949166 
是 0.343315 0.265434 0.731359 0.184782 -0.078205 0.800948 0.126849 -0.340042 -0.218808 0.156377 0.683808 0.302517 -1.002135 -0.161701 0.600985 0.106212 -0.438251 -0.305599 0.043822 -0.249578 -0.479742 0.036789 0.303671 -1.162945 -0.320314 0.545416 -0.754195 0.099936 0.225603 0.360938 -0.453758 0.970246 -0.195196 0.735245 0.221489 0.274104 0.016703 -0.075068 0.317669 1.099916 0.068616 0.942250 0.846726 -0.163167 1.184965 -0.588607 0.269293 0.438963 -0.189261 -0.905350 
“ -0.605066 -0.284360 0.656666 -0.129007 -0.000150 0.486049 -0.388468 -0.006060 -0.204004 0.328585 0.857050 0.482780 -0.925065 0.069406 0.505887 -0.372782 0.278107 -0.088457 -0.328410 -0.137641 -0.256013 0.032704 -0.697687 0.042671 -1.263639 0.447216 -0.054089 0.099255 0.254055 0.486846 -0.832764 1.047658 0.034769 -0.177181 0.213268 -0.424596 0.207669 -0.275287 0.476162 0.915359 0.100930 0.759048 0.230407 0.092121 0.277075 -0.516902 0.187360 -0.725107 -0.410236 -0.266307 
” -0.408007 -0.808938 0.381104 -0.266994 -0.211113 0.324957 -0.293278 -0.169863 -0.159920 0.511400 0.746166 0.464714 -0.843589 0.132449 0.311350 -0.184619 0.409652 -0.190260 -0.404036 0.086731 -0.453481 -0.148412 -1.063072 0.209789 -1.090184 0.648118 0.261719 0.075624 0.147435 0.491396 -0.582665 0.848837 0.431042 -0.276962 0.310928 -0.395666 -0.055831 -0.236121 -0.143110 0.704428 0.036309 0.674177 0.287818 -0.003671 -0.020709 -0.498887 0.091345 -0.858219 -0.197021 0.015495 
了 -0.857172 0.475480 -0.006187 -0.034527 -0.168863 0.175575 -0.000746 -0.646638 0.102955 0.181201 0.062412 -0.118726 -1.289471 -0.821858 0.509382 0.108567 -0.159031 0.151384 0.132765 -0.195850 -0.468475 -0.461205 0.305640 -0.116070 -0.723714 -0.589532 -0.291386 -0.060697 -0.082707 -0.220311 -0.071002 0.357920 -0.433184 -0.556877 0.479759 0.309731 0.349438 -0.062630 -0.108911 0.254987 -0.328716 0.240871 0.403213 0.046712 0.509075 -0.010770 -0.458439 0.262416 0.208229 -0.295085 
有 0.525207 0.142969 0.298362 0.527114 -0.186049 0.708312 -0.203315 -0.561825 -0.559315 -0.765622 1.181917 0.067422 -0.674639 -0.655601 0.417758 0.155115 -0.887367 -0.812729 0.505535 0.290191 -0.622562 0.180531 0.416119 -0.373468 0.157531 0.073817 -0.433233 0.265078 0.109495 -0.124219 -0.472187 0.319571 -0.719540 0.375361 -0.004566 0.411039 -0.207385 0.499147 0.375593 0.373780 0.339406 0.766846 0.942269 -0.190803 0.251210 -0.322821 0.328179 0.784437 0.288998 -0.977292 
不 0.437703 1.158043 0.388688 -0.164820 -0.162107 1.088250 0.250201 -0.903326 -0.217289 -0.474324 0.983928 -0.187340 -0.997717 -1.195078 0.905220 0.245634 -0.674008 0.156528 0.334653 1.077330 -0.747301 1.229696 0.168659 -0.927709 -0.192945 -0.544696 -0.430621 -0.407835 0.891629 0.178862 -0.549372 1.264954 -0.315385 -0.096120 0.200214 -0.121451 -0.292138 0.026346 0.171463 0.627596 1.080903 0.638500 1.203759 -0.289158 0.840558 -0.503711 0.183657 0.800258 0.242566 -0.967156 
中 0.107047 -0.908626 -0.059393 -0.040796 0.198209 0.439016 0.021766 0.233099 0.601991 0.576097 -0.371235 0.800706 0.170941 0.399593 -0.540985 -0.878350 0.109792 0.309679 -0.156351 -0.082311 0.719031 -0.995253 0.188827 0.545502 0.662025 0.427958 -0.124704 0.089186 -0.364778 -0.076742 0.081428 -0.912203 0.482402 0.245863 -0.115271 0.497964 0.071113 -0.047324 0.976013 0.227367 -0.958486 -0.135981 0.089228 0.040605 0.037637 0.812322 0.162282 -0.065348 0.320964 -0.570793 
年 1.102243 -0.578540 1.083503 3.141658 1.415900 -0.736458 0.921375 0.555392 1.107458 1.849445 -1.248861 -0.467339 -0.170141 -0.705776 0.049510 -0.670443 0.195991 -0.794593 -0.763169 -0.908108 1.342280 -0.961813 0.248021 0.567956 0.132495 -2.100168 0.910187 0.814172 -0.183683 -1.149767 -0.453069 -0.467759 0.068951 0.216348 0.328282 1.268100 -0.695824 -0.903460 -0.078960 -0.578755 -0.875404 -0.010914 0.628499 0.479089 0.566799 0.395878 -1.273207 -0.044894 -1.018281 0.125957 
2 1.166554 -0.920394 0.757220 2.288099 1.183217 -2.184958 1.382876 1.482899 0.792470 1.089503 -2.108493 -0.341491 0.092012 -1.200723 -1.104426 0.443411 0.281079 -2.115044 -0.442906 -0.414340 1.064022 -0.762840 -0.061736 1.547094 0.134699 -2.343469 0.505558 0.760919 -0.150813 -0.712706 -0.518610 -1.791878 -0.093718 -0.247238 0.066440 0.259789 0.055781 -0.666775 1.055224 -1.956241 -1.046529 0.069538 -0.646075 -0.367422 -0.269505 1.115819 -1.314470 0.030055 -1.697157 1.450750 
大 0.142768 -0.462449 -0.164818 0.355214 0.147300 0.805111 -0.401352 -0.557220 0.170528 0.922793 0.673469 0.946267 -0.272991 -0.140302 0.485584 -0.567293 0.196918 -0.275778 0.164232 -0.803220 0.980200 -1.139536 -0.802366 0.407836 0.234930 0.719216 -0.264435 -0.408294 -0.149901 0.286014 -0.229739 -0.448935 0.164655 0.340952 0.241907 0.830795 -0.284814 0.605761 0.195535 0.387578 0.419531 -0.356460 -0.084603 0.165224 -0.194751 0.379634 0.195298 0.299190 0.313042 -0.174107 
国 0.840338 -0.421167 0.025878 0.179443 0.090795 0.526169 0.676714 0.604844 0.145494 1.267847 -0.261821 -0.470048 1.068225 0.258972 -1.357876 -1.847673 0.829497 0.010942 0.058526 0.159966 1.133600 -0.987931 0.086958 0.729821 1.114120 1.165722 -0.304773 0.299456 -0.721558 1.088189 -0.506431 -1.346118 0.802968 1.659848 0.569296 0.584417 0.745374 -0.006776 1.790612 0.258345 -1.381269 -0.130466 0.467062 -0.224613 0.240007 0.895447 1.201072 0.539145 0.386775 -1.582104 
上 -0.743018 0.124858 -0.004926 0.949925 0.001340 -0.031242 0.388395 -0.173451 -0.569269 0.184913 -0.578936 0.551671 0.286299 -0.287661 -0.098314 -0.019676 0.567075 0.141058 0.318956 -0.198635 -0.560553 -0.319769 0.245405 0.486307 -0.758596 -0.793125 -0.703535 0.274067 -0.351600 -0.504134 -0.452752 0.410707 -0.588262 -0.706723 0.410335 0.719163 -0.000305 -0.367238 0.742864 0.390958 0.565782 0.273195 -0.239803 0.941875 0.330818 0.278265 -0.131764 0.387879 -0.540927 0.255465 
为 -0.117256 -0.516301 0.678016 -0.169964 -0.377060 0.311037 0.490968 0.094133 0.045755 0.033777 0.092915 0.506675 -0.364445 0.234358 -0.249927 -0.404764 -0.224286 -0.535729 -0.035212 0.035977 0.148070 0.122982 -0.248696 -0.479847 1.050808 0.230862 0.061549 0.164001 0.398178 0.442887 -0.460058 0.412311 0.293426 0.701154 -0.052523 0.516658 0.123157 0.016084 0.091540 0.102322 0.140188 0.084185 0.676387 -0.252174 0.284543 -0.220045 0.420155 0.028717 -0.355654 -0.710223 
和 -0.292447 -0.279074 -0.350012 -0.181353 -0.791972 0.654777 -0.415984 -0.103115 0.161650 -0.275379 -0.508503 0.082361 -0.082487 0.150452 -0.864671 0.045754 0.427304 0.332010 0.375610 -0.083296 0.160894 0.081241 -0.170308 0.312236 1.343546 1.179930 0.201431 -0.473033 0.380814 0.125022 0.040048 -0.306067 0.188662 0.702871 -1.037865 0.220029 -0.081839 -0.365720 0.079037 -0.049287 0.030167 -0.993599 -0.330813 -0.247061 -0.409572 0.139425 0.151372 0.496212 0.322500 -0.552726 
会 -0.805977 1.223102 1.024837 0.720451 -0.138846 0.147661 -0.329345 -1.160851 0.404280 -0.551316 -0.915944 0.114361 -0.626640 0.355379 0.722262 -1.600552 0.651594 0.521810 -0.325459 -0.450056 1.003940 -1.005779 -0.650657 -0.098382 -0.235092 0.366065 0.266017 -1.146475 -0.872858 -0.371276 -0.116964 -1.097929 0.401197 0.647610 -0.148814 0.586251 -0.839663 0.097946 0.947036 0.248650 0.027921 -1.099768 0.441541 -0.981364 0.370952 0.867302 0.518560 0.936535 1.764323 -1.618592 
到 -0.740906 1.015207 -0.369875 1.039647 0.302852 -0.500983 -0.031560 0.198182 0.226406 0.140411 -0.178390 0.176608 -0.824214 -1.146054 0.809904 0.554122 -0.647397 -0.610272 0.455011 0.434226 -0.274018 -0.336055 0.273577 -0.366406 -0.730738 -0.521255 -0.118147 0.455939 -0.182637 -0.816270 0.150490 0.871597 -1.211107 -1.294109 0.601884 0.271944 1.054611 0.198225 0.318128 0.477119 0.164529 -0.307819 -0.015609 0.048527 1.073921 -0.364385 -0.189616 0.583757 0.588979 0.024721 
时 -1.113183 0.906422 0.280775 1.169019 1.495101 -0.789861 0.749723 -0.273048 -0.254144 -0.661802 -0.648678 -0.218802 0.032487 -0.693534 0.062169 0.181405 -0.237188 0.421208 0.111106 0.282395 -0.866981 -0.046045 0.910935 -0.519239 -0.452404 -1.349156 -0.133866 0.500754 0.350701 -0.459481 0.122065 0.026551 -1.010898 -0.589339 0.224774 0.204551 -0.012428 0.498002 0.321051 0.688204 0.617063 -0.415180 -0.506304 0.840678 0.985856 0.120474 -0.387101 0.780532 0.159461 0.321812 
日 -0.611080 0.234385 0.850400 2.469966 2.426879 -1.868337 0.781473 1.589783 0.042950 0.468583 -1.909485 -0.432002 1.656430 -0.213782 -0.333194 -0.303307 1.511856 0.117672 -0.885370 0.244697 1.362440 -0.905362 0.327223 1.297310 -0.752352 -1.376596 1.102630 1.236739 -0.336676 -0.160509 -0.286818 -1.272128 0.674115 -0.595710 0.447709 -0.100229 0.407606 0.409792 1.897939 -0.713706 -1.705125 -0.450110 0.150922 0.546740 0.584158 0.820692 0.245157 -0.788248 -0.849628 0.154737 
发 -0.902275 0.516820 -1.068252 -1.339979 -0.049600 0.077195 -0.493660 -0.767228 -0.109703 0.319640 -0.252534 0.762290 0.655307 -0.285439 -0.013949 -0.694602 -0.099102 0.490785 0.733180 -0.738580 0.626566 -1.161945 0.654387 1.363358 1.006312 -0.445772 0.051004 0.223250 -0.869958 0.027915 -0.545613 -0.092216 0.163834 0.009988 -0.782369 0.344907 -0.465847 -0.347656 -0.191974 -0.648972 -1.095108 -0.833435 0.815422 -0.102438 0.264898 0.774774 -0.192751 -0.790656 -0.000067 -1.223433 
出 -1.157001 -0.396591 -0.049082 -0.230498 -0.626199 -0.078714 -0.095135 -0.572927 0.394669 0.109882 0.329069 0.703108 -0.121180 -0.938488 -0.440050 -0.565604 0.241309 -0.043379 0.396769 -0.018167 0.064841 0.372919 0.181149 0.664006 -0.364598 -0.673864 -0.149663 -0.150665 -0.362875 0.177155 -0.161143 -0.403976 -0.558324 -0.043944 0.107297 -0.166439 0.322033 -0.375803 0.055501 0.401639 -0.224936 0.007836 -0.030847 0.443079 0.978085 0.461750 -0.274381 0.613541 -0.149714 0.144354 
生 0.177658 0.277586 -1.072241 -0.135837 0.761111 -0.379562 -0.635011 0.384544 0.245691 0.728874 -0.415475 0.333019 -0.947699 0.290582 -0.441415 0.710767 0.154105 -0.476812 -0.187568 -0.129194 0.271588 -0.446873 0.424957 0.179275 2.141548 0.423433 0.321371 0.358592 0.831673 -0.164250 0.592823 1.420477 -0.150033 0.455532 -1.019110 -0.038844 -1.734134 -0.523352 -0.401439 -0.108727 -0.135931 0.231674 0.379498 0.280834 1.324309 -1.097259 0.044351 0.028157 0.172658 -0.658558 
这 0.282552 0.176426 0.794048 0.163592 -0.161282 0.265227 -0.106843 -0.395792 -0.516110 0.369357 0.575353 1.117755 -1.237132 -0.154542 1.079258 0.723329 -0.606033 -0.573079 0.277934 -0.225245 -0.968016 0.238379 0.655711 -1.224674 -0.473597 0.086148 -1.125728 -0.098273 0.072088 0.304766 -0.993759 1.174568 -0.662049 -0.045678 0.274099 0.251930 -0.026799 -0.180971 0.458421 1.350165 -0.871338 1.392677 0.650702 -0.276237 1.311281 -0.149690 0.108479 0.684497 0.239606 -1.038955 
个 0.058560 -0.293474 1.091504 1.069312 0.093706 0.139253 -0.000776 0.067443 0.340375 0.542143 0.425068 0.086865 -1.530690 -0.304519 -0.275873 0.268096 -0.569173 -0.532206 0.194300 -0.259100 0.062283 -1.451344 0.902432 0.241107 -0.950880 -0.372321 -0.701189 -0.164283 0.084907 -0.467092 0.240397 0.155852 -0.535497 -0.041219 -0.382540 1.052282 -0.422665 -0.732549 0.080352 0.339420 0.098893 0.962086 -0.319143 0.158781 0.373252 -0.782996 -0.560981 1.257761 -0.481622 -0.218300 
行 -1.227337 -0.926840 -0.550744 0.241902 -1.918013 -1.007152 0.669508 -0.419525 0.766522 -0.513518 -0.215107 0.106200 0.167201 0.252467 -1.003096 -1.483169 -1.307679 0.351180 -0.026908 0.526489 -1.119344 -0.107491 0.569186 1.079545 -0.097033 -0.493765 0.508979 -0.254331 0.206887 -0.068693 -0.078418 -1.009081 -0.252849 0.135261 0.145445 -0.635780 -0.393720 -0.501917 -0.457192 -0.815409 1.119265 -2.044763 1.144906 0.833073 -0.975629 0.699261 0.637137 -0.917176 1.165016 -0.741980 
3 1.125180 -1.244362 0.763151 2.043034 1.002131 -1.758048 1.064606 1.641156 0.687916 0.587650 -1.530034 -0.287753 -0.099727 -1.332814 -1.052489 0.607325 0.411725 -2.570849 0.148589 -0.147511 0.788554 -0.638343 -0.007870 1.247107 0.225157 -2.162136 0.085444 0.447304 0.009819 -0.816131 -0.485105 -1.379994 -0.208189 -0.403328 -0.132026 0.337693 0.033751 -0.459545 0.768226 -1.822207 -0.787474 -0.290680 -0.638177 -0.292602 -0.651788 1.060909 -0.950366 0.604123 -2.051092 1.278136 
对 -0.551009 -0.353152 0.051181 -0.496887 -0.661752 0.158885 -0.264538 0.075180 0.387291 -0.731877 0.119990 0.218195 0.753847 0.389598 -0.117288 -0.607534 -0.560492 0.306677 0.517995 0.676455 -0.090491 -0.109000 0.409298 -0.388895 0.493901 0.397576 -0.158599 -0.342387 0.413015 0.737417 -0.856048 -0.235411 -0.629305 0.161909 -0.431750 0.045859 0.412344 -0.006404 0.777970 0.585420 -0.261403 -0.515915 0.666974 -0.305312 1.251874 0.107311 0.281162 0.633361 0.795488 -0.997205 
要 -1.353410 0.492904 -0.937171 -0.128025 -1.956736 0.713703 0.769047 -0.658542 1.023658 -0.479133 0.401905 -0.152943 -1.684199 -0.824564 0.394583 -0.850426 -0.920797 0.518298 0.786002 -0.418558 -0.137846 0.767084 0.340593 -1.333982 0.593598 0.737581 0.053747 -0.764055 1.302169 -0.386953 -0.181633 -0.036975 -0.005401 0.964761 -0.138865 0.467877 -1.275792 -0.628630 0.681978 0.437298 0.238554 0.164591 -0.721267 0.257588 1.026127 0.092105 0.581377 0.168830 1.091294 -0.930831 
家 -0.196929 0.518098 -0.083851 0.586153 0.062172 0.384756 -0.008577 0.738168 0.341526 0.702206 -0.118871 0.176653 -1.095263 0.751499 -0.307344 -0.105574 1.382940 -1.021349 1.084055 -0.398964 0.293443 -0.921553 0.938804 -0.115823 1.070510 0.465574 -0.459109 -0.330346 -0.309588 -0.815130 -0.071273 1.050046 0.163920 -0.732419 -0.279882 -0.284403 0.362554 0.123436 -0.114035 0.638912 0.108400 0.103818 0.836243 0.685981 0.568685 -0.866098 0.102250 1.109915 0.824060 -0.261410 
来 -0.641675 0.706682 -0.604215 0.669339 0.449222 0.490388 -0.006771 -0.124166 0.360502 1.032148 0.839332 -0.237895 -0.334135 -0.942859 1.045835 0.066915 -0.248811 0.037806 0.364478 -0.465829 -0.522347 -0.255009 0.180809 -0.505300 -0.497648 -0.411819 -0.659251 0.034461 -0.154658 -0.896337 -0.582643 0.786723 -0.633222 -0.359862 0.518219 0.545463 0.411492 0.343419 -0.153183 0.894211 -0.616235 -0.054053 0.182257 0.670747 0.926886 -0.196878 0.146033 0.554830 0.288249 -0.637655 
以 0.030909 -0.513666 0.656121 -0.027644 -0.083817 0.038491 0.513654 0.184125 0.299612 -0.586447 0.175615 -0.153837 -0.285327 -1.182833 0.079055 -0.045309 -0.298873 -0.418641 0.291467 0.389447 -0.763318 0.002267 0.059715 -0.226410 0.489944 0.009958 -0.786722 -0.439737 0.445917 0.020640 0.097289 -0.065611 -0.530822 0.667720 0.565834 0.268857 -0.718386 0.435325 0.236547 -0.082139 0.122522 -0.600244 0.524105 0.040176 -0.179917 -0.275063 -0.021549 0.267991 0.098363 -0.037614 
地 -0.348776 0.210710 -0.468447 0.217049 -0.753939 -0.004585 -1.040132 -0.512034 -0.105183 -0.267833 0.660060 -0.139365 0.772310 -0.108037 1.012564 -0.036373 0.370540 -1.061381 1.178635 -0.330285 0.077378 -0.776425 0.210648 1.054107 0.478153 1.004221 -0.711450 0.544626 1.456639 0.431196 0.134303 -0.411699 -0.331679 -0.057803 -0.827437 0.952169 1.298660 -0.402227 0.325969 -0.123284 0.209933 -0.105219 0.016441 0.914102 -0.737846 0.324681 -0.363937 0.506442 0.393674 -0.183954 
公 -0.316280 0.283148 -0.335499 1.804471 -0.867782 -0.218690 0.398187 -0.156048 -1.878542 -1.771998 -0.398400 -0.737360 -0.079691 0.938058 -1.411541 -0.919285 -0.201675 -1.984818 1.511284 0.548625 -0.081584 0.650039 -0.746804 2.090749 0.979713 0.074474 0.526262 0.075897 -0.338654 0.201804 -0.768900 -1.096371 0.218454 -1.461183 -0.543836 -0.999530 -0.193109 -0.700532 -0.110625 -0.446866 0.144832 -1.999013 0.947207 0.418957 -1.376795 0.875801 -0.440340 0.595607 1.008005 0.119659 
市 -0.777687 0.474194 -0.380948 1.216514 -0.722661 -0.454563 -1.213162 0.023685 0.625598 -0.203357 -0.455427 0.956666 1.204845 0.162882 0.282839 -0.892268 0.886849 -2.350066 -0.105413 -1.813289 1.826841 -0.505631 -0.057605 1.471781 0.465609 0.351972 -0.043660 0.628062 0.821596 -0.795980 -0.377679 -1.271012 0.314322 -0.570241 -2.147876 -0.022807 -0.245968 -0.576327 0.029318 -0.808589 -0.010365 -2.544712 -0.149563 1.123140 -1.042026 1.084958 0.344864 0.884209 1.391843 -0.017737 
作 -1.316608 -1.327941 -0.291602 -0.626410 -1.238206 0.418967 0.094650 -0.649888 0.653715 -0.640452 -1.519726 0.162341 -1.130795 1.191220 -0.421050 -0.054245 0.028028 1.768206 0.451068 -1.302196 0.588836 0.344874 -0.621619 0.395510 0.615014 1.338746 -0.082973 -0.423210 0.741621 -0.314098 -0.200912 -1.543335 0.253180 0.470345 -0.682839 0.492659 -0.859969 -0.178784 0.128911 -0.129890 0.029780 -0.893679 -0.491472 -0.154297 -0.032615 -0.332913 -0.372491 -0.020306 1.801122 -2.255975 
后 -1.017820 0.748892 -0.081064 -0.131958 0.205428 -0.265364 0.633517 -0.822412 0.474163 0.005391 -0.091177 -0.809542 -0.061624 -0.284784 0.262100 -0.157500 -0.063637 0.647982 -0.583101 -0.261617 -0.629652 -0.644127 0.135570 -0.314087 -0.046437 -1.205761 0.570786 0.478090 -0.652686 -0.080862 0.355266 0.412642 -0.843344 -1.237073 0.718654 -0.354788 0.429530 0.137746 0.035230 -0.293491 -0.053932 0.321941 0.428004 0.597792 1.029385 -0.165541 -0.722317 0.310354 -0.033270 0.551902 
工 -2.218318 -0.820936 -0.988836 -0.608713 -0.707043 -0.659428 0.535048 -0.809369 1.067514 -0.194414 -1.674935 -0.300200 -1.439052 1.465653 -0.111032 -0.003500 -0.578507 -0.440312 0.570097 -0.987545 1.139960 -0.169452 0.080157 1.591937 1.250789 1.342368 -0.188878 -0.244332 1.573114 -1.356781 0.899364 -0.986860 0.281892 0.058942 -0.623660 0.836135 -0.398329 0.430820 -0.222143 -0.330842 0.175193 -1.328828 0.354883 0.220152 -1.018521 0.314464 -1.031613 0.792227 1.479635 -0.654146 
他 -1.121400 1.032144 0.244379 0.309776 0.416510 0.879147 0.265374 -0.076478 0.444506 0.139978 0.467249 -0.462495 -1.340775 -0.051884 0.644582 0.725044 0.030545 0.242987 0.033285 0.063365 -0.432241 0.132657 0.862981 -1.494456 -0.111378 -0.320328 0.423219 -0.389805 -0.357234 -0.748358 -0.484954 1.520025 -1.336321 -0.706118 0.710894 -0.316242 0.942877 0.354890 0.585424 1.326515 0.039189 0.776571 0.982449 -0.702962 1.345065 -0.761154 -0.327991 0.500899 0.139557 -0.701461 
成 0.575557 -0.981018 0.934658 -0.789336 -0.510631 0.169486 0.239048 -1.681909 -0.576517 0.580707 -0.762023 -0.230387 -0.542114 -0.075396 -0.882596 0.058470 0.294825 -0.596333 -0.172996 -0.987967 0.044958 -0.056616 -0.052415 -0.020279 0.849450 0.078977 -0.527355 0.499386 0.117398 0.260096 -0.154058 -0.198098 0.172254 0.879957 -0.705919 1.002466 -0.300614 0.435582 -1.005515 -0.480315 0.192534 -0.266941 0.358764 0.003261 -0.481259 0.299395 -0.422899 0.044246 -0.670362 -0.833364 
多 1.112660 0.409685 0.016066 0.327978 0.603760 0.274092 0.432469 -0.456796 -0.164040 -0.277173 0.468317 0.906023 -0.197451 -1.292296 0.397872 0.949705 -0.043995 -0.693863 1.023848 0.606055 -0.138008 -0.819086 0.101478 -0.490166 0.510531 -0.308904 -0.647107 -0.093141 0.267062 -1.178123 -0.095221 0.944507 -0.142593 -0.722919 0.086353 1.594071 0.199955 -0.723775 -0.232175 0.571359 -0.167455 0.649605 0.506886 -0.893186 1.159139 0.514649 0.056890 1.051667 0.564218 0.027720 
新 -1.226000 0.184222 -0.234988 0.290746 0.123714 0.027360 -0.411362 0.239161 -0.326243 1.623104 -0.422333 0.274056 0.440947 -0.085878 -0.604272 -0.663696 1.714624 0.409298 0.682313 -1.015491 -0.117495 -0.518600 -1.149814 2.043552 0.845539 0.909319 -0.651604 0.605074 0.202301 0.252944 -0.444080 -0.412807 1.384232 0.995522 0.457556 0.565345 -0.612980 -1.464531 0.021238 -0.031094 -1.442124 -0.948747 -0.804172 0.410429 -0.047334 0.688591 -0.662750 -1.176273 -0.400572 -1.616071 
方 -1.839070 -0.664947 0.503984 -0.868056 -0.552841 -0.989006 -0.372831 -0.692334 -0.961412 -0.887591 0.750276 -1.181493 0.984274 -0.534389 0.128136 -0.810055 -1.224880 -0.840557 0.718604 0.386761 0.065723 -0.583169 0.884101 -0.260328 1.215754 0.320863 -0.169621 -0.417096 -0.530135 0.582402 -0.289663 -1.283766 -0.868558 -0.500120 -0.502068 0.328707 0.057695 -0.612240 0.315081 -0.334608 -0.072193 -0.324751 0.120724 -0.252640 -0.490753 -0.378993 0.278612 0.216622 0.227500 0.188222 
现 -0.470885 -0.006252 -0.384829 -0.590313 0.055839 -0.308916 -0.817662 -0.905710 0.218291 -0.114768 -0.729498 0.971353 0.473061 -0.897214 0.441040 0.290016 -0.553213 0.340469 1.056662 -0.262615 -0.520511 -0.499486 0.747286 -0.108628 -0.247017 -0.465588 -0.543929 0.616578 -0.437234 0.247259 -0.390826 0.593605 -0.594626 -0.080899 -0.039282 0.445472 -0.406978 -0.337476 -0.877304 -0.714338 -0.638179 -0.395173 0.238619 0.055003 1.080960 0.398032 -0.168058 1.038711 0.581506 -0.862050 
部 -0.945437 -1.296558 -1.698522 0.750890 -0.779009 0.034684 -0.117078 0.134460 0.784001 -1.077919 -0.695370 -0.279396 -0.401047 1.464000 0.277708 -0.987419 -1.675090 -0.478884 -0.481030 0.644491 1.078711 -0.741482 0.277902 0.824429 -0.429142 0.949353 0.887666 -0.787792 0.691040 0.977166 -1.009578 -1.890067 0.251401 0.008316 -1.498809 0.308572 0.219993 0.140752 1.151401 0.186975 -1.256058 -0.870024 -0.530246 0.499528 -1.576712 1.672988 0.116240 0.864677 1.626261 -0.230406 
我 -1.365133 1.456275 0.234786 0.465804 0.449422 0.871177 -0.099145 -0.386919 0.272554 1.243082 0.208341 0.081706 -2.581840 -0.426301 1.593016 0.512486 -0.149854 -0.036459 -0.158493 -1.169607 0.246900 0.460419 0.364996 -1.083712 -0.580093 0.111331 -0.178739 -0.376297 0.123284 -0.485646 -1.242880 1.447472 -1.389250 0.389393 0.507813 -0.082504 0.133308 -0.203000 0.814339 1.802462 -0.187869 0.801729 0.448018 -0.901757 1.113855 -0.748210 -0.039614 -0.276560 0.519801 -2.124722 
民 -1.840933 0.543707 -0.901547 -0.051734 -0.871971 -0.356933 -0.817402 0.977709 1.435949 -0.404012 -1.562575 0.273067 -0.357743 -0.688341 -0.498079 0.182147 1.766815 -1.240617 0.366296 0.247127 2.044695 -0.677643 -0.641717 0.044960 1.180064 1.179386 -0.126215 -0.224529 0.030281 -0.316450 0.799149 -1.105609 1.017845 -1.384223 -1.828660 0.620583 0.470729 -0.721976 0.831611 -0.079882 -0.812799 -2.148372 0.350803 -0.586764 0.060900 -1.161569 0.482759 1.119497 0.800276 -0.535522 
月 0.056066 0.054708 1.245107 3.146320 1.953611 -2.339148 1.361567 1.727353 0.309200 1.261920 -2.397202 -1.004948 0.831377 -0.718479 -0.820193 -0.115533 1.354919 -1.028547 -1.363623 -0.122786 1.530939 -0.393361 0.798664 1.729035 -0.520102 -2.647449 1.695462 1.308206 -0.119484 -0.911139 0.054826 -0.974855 0.183551 -1.316362 0.448134 0.302123 -0.130554 -0.031784 1.788509 -1.098816 -0.986179 -0.133071 -0.322283 0.510283 0.182890 0.955729 -1.204998 -0.198457 -1.217715 0.910897 
过 -0.263864 0.380844 0.509345 -0.105562 0.780231 -0.522456 1.075726 -1.037070 0.155954 0.920553 -0.008355 0.104035 -0.654895 -0.874445 0.612862 -0.426889 -0.866279 0.010229 0.040105 0.724905 -0.076884 0.203660 0.331894 -0.159127 0.080647 -1.113037 -0.475496 0.615481 0.196806 -0.801241 0.668617 0.500942 -1.462902 -1.112833 0.434989 0.052869 -0.826924 0.074174 0.097535 0.084574 0.167252 -0.293727 0.003993 -0.245600 -0.078626 -0.109457 0.422487 0.325468 0.625327 -0.285602 
全 -0.811708 -0.217711 0.844817 -0.383718 -1.353273 0.069605 0.114025 -0.514934 -0.045318 -0.011757 -1.856345 0.327375 0.226109 -0.828480 0.311467 -0.651878 0.094972 -0.970573 -0.228521 0.107664 0.510374 -0.723078 -0.546599 1.732400 0.967765 0.462222 0.627679 -0.537309 -0.199312 -0.675172 0.461217 -1.600095 0.702103 1.096419 -0.508658 0.745105 -1.238344 0.098771 0.180069 -0.181218 -0.746657 -0.532030 -0.774506 0.448605 -0.932704 1.363682 -0.242909 0.952138 0.566808 -1.795596 
4 1.135697 -1.318356 0.576829 1.898560 0.991071 -2.045434 1.330742 1.570693 0.620030 0.718023 -1.763917 -0.395298 -0.109269 -1.291077 -1.221930 0.663190 0.405088 -2.151644 0.393221 -0.082351 0.687867 -0.842284 -0.331559 1.176303 -0.007675 -2.321000 0.114698 0.384822 0.053150 -0.708090 -0.185531 -1.646417 -0.171648 -0.197163 -0.221542 0.627599 -0.301866 -0.546474 0.437459 -1.790769 -0.754389 -0.232559 -0.843651 -0.608139 -0.674324 1.218047 -1.007133 0.451757 -1.868697 1.446974 
5 1.883476 -1.401059 0.446281 1.942622 0.814081 -1.574284 1.251968 1.312815 0.792941 0.103135 -1.213622 -0.605466 -0.337922 -1.662795 -1.018812 0.843065 0.545402 -2.413490 0.474299 0.201335 0.173852 -0.667525 -0.381129 0.689483 0.583489 -2.112120 -0.215925 0.108581 0.365694 -1.015277 0.082758 -1.251209 -0.561452 -0.428619 -0.103371 0.394952 0.164666 -0.921276 0.719919 -2.088811 -0.223353 0.051889 -1.317836 -0.946407 -0.542151 1.068516 -0.810775 0.835497 -1.930785 2.192310 
业 -0.100836 -1.739594 -1.155618 0.264583 -1.068188 0.668481 0.576597 -0.476261 -0.143299 0.667532 -0.866990 0.857129 -0.413628 1.551283 -0.651134 -0.771740 -0.116860 -1.297193 2.143184 -0.447643 0.524864 -0.804282 0.533400 3.311629 3.832854 0.777871 -1.413448 -0.104456 0.840024 -1.375061 -0.901083 1.668190 1.921951 1.111422 -0.421304 1.267674 -0.588724 -0.444865 -1.183544 -0.321883 0.655299 -1.662024 0.584240 -0.809145 -0.338483 -0.312921 -1.624273 0.525711 1.454896 -1.060245 
能 0.327277 0.738366 0.008446 -1.045161 -0.540020 1.243264 0.773396 -1.555848 -0.751769 -0.126881 0.490191 -1.060220 -1.471471 -2.282397 0.882708 0.828488 -0.371013 -0.272988 0.150452 0.865810 -1.129071 0.571411 0.346980 0.125338 0.866420 0.784898 -0.965433 0.136754 0.937263 -0.469403 -0.283232 0.671504 -0.934744 1.228406 0.659193 0.251766 -0.682573 0.862945 -0.437135 0.253250 1.440296 -0.088153 -0.052197 -0.845111 0.823365 0.018535 0.635530 0.212005 0.548268 -1.294359 
者 -1.207990 0.732560 0.768366 0.636032 0.322014 -0.817848 -0.183431 0.645436 0.361015 -0.795394 -1.023456 -0.944635 0.675444 0.384530 -0.306583 -0.135128 0.386035 0.514059 -0.498757 1.149222 0.441742 1.306695 0.337316 0.066116 -0.392230 -0.049853 -0.913814 1.460944 -0.092172 -1.218223 0.741221 1.198786 0.069960 -1.805265 -0.372013 -0.781909 0.553822 2.033503 1.079519 -0.221957 -1.405094 -0.006210 0.439723 -0.574901 1.477771 1.329736 0.623773 0.136756 1.612912 0.094418 
开 -2.325994 0.327125 0.263996 0.416500 -0.060094 -0.881452 -0.270251 -1.811846 -0.636288 0.629626 -0.872576 0.536505 -0.029146 -0.457440 1.352719 -1.418254 0.305213 0.302832 -0.446186 -0.549873 0.556318 -1.420522 0.508774 1.523718 1.011416 -1.599300 0.406770 -0.196510 -0.811877 0.078879 -0.296210 0.377550 -0.037809 0.052319 0.905937 0.108736 -0.742105 -0.170357 0.003659 0.535078 -0.433908 -0.920756 0.730289 1.265279 -1.171695 1.183612 -1.204272 0.122172 -0.587963 0.065116 
子 -0.338461 -0.008458 -0.140819 0.176290 -0.163143 0.381466 -0.543620 0.027359 -0.446858 0.733064 1.466908 -0.879155 -0.709419 0.855247 0.476774 1.696863 0.827853 0.571463 -0.564215 0.069973 -0.665850 -0.455183 0.624758 -0.751988 -0.113346 -0.500615 0.897018 -0.345897 -0.827386 -0.574850 0.324320 2.024921 -1.612689 -1.504184 -1.056773 -0.962465 -0.730835 -0.321501 -0.335660 0.953896 -0.740306 2.382047 -0.781987 0.619749 1.295593 -2.111839 -0.862866 1.121630 -1.242450 1.174106 
也 0.115438 0.671112 0.306869 0.114420 0.170269 0.807142 0.253038 -0.796430 -0.258243 0.291384 0.899736 0.495073 -0.410275 -0.488174 0.820118 0.275193 -0.342438 0.179695 0.463262 0.194915 -0.436627 0.627465 0.409188 -0.856733 -0.073975 -0.337320 -0.472184 -0.253234 0.239529 -0.212644 -0.723547 0.957688 -0.505029 0.065070 0.208998 0.324588 0.228972 0.249266 -0.059484 0.982507 0.428830 0.533446 0.772549 -0.615824 1.201632 -0.158247 0.023745 0.434909 0.389657 -0.954956 
车 -0.507510 1.548140 -1.126910 0.039877 -1.017109 -1.107640 3.281459 0.401317 -1.032169 -1.290734 1.177200 0.487010 -0.356355 -0.753846 0.117627 -1.972249 -0.533180 -1.062438 1.302406 1.474624 -2.609529 0.089283 0.287560 1.280824 -1.979946 -0.927499 -1.164318 1.335957 -0.611699 -0.891610 0.484351 0.587686 -0.841648 -1.694459 1.132387 -1.118934 -0.616168 -0.021509 -0.615185 -0.460482 1.259557 -3.164652 -0.277805 2.548415 -1.063079 1.191335 -0.458017 1.407241 -2.023993 1.747375 
前 -0.146660 0.201108 -0.023910 0.193643 0.821240 -0.948790 0.970659 -0.076732 0.033273 0.585404 -0.752536 0.130128 1.032942 -0.136927 0.045981 -0.254452 -0.920128 -0.544241 0.055257 -0.876525 -0.570072 -0.428564 -0.122176 0.300902 0.164329 -0.582991 0.377017 0.382400 -0.578467 -0.745881 0.174493 -0.589107 -0.998851 -0.615237 0.324826 -0.145224 0.302667 -0.440417 0.125827 0.651916 -0.054121 0.576016 0.501651 1.014901 1.110710 0.498641 -0.037228 0.963820 0.097340 -0.140488 
进 -2.412865 -0.851269 -0.594411 -1.488074 -1.794420 -0.912741 -0.130493 -1.797498 0.099374 0.356246 -1.110538 0.402658 -0.098410 -0.142143 0.463978 -0.011046 -0.137014 0.886753 -0.597473 -0.164538 0.047446 -0.650370 0.611775 1.332764 1.237761 0.907787 -0.488910 -0.347405 0.384047 -0.495528 0.269441 -1.072134 -0.481434 0.339296 -0.108421 0.555620 0.229194 -1.306352 -1.207051 -1.362501 0.377988 -1.793224 0.308283 0.546725 -0.936593 0.175353 0.555958 0.146888 0.296136 -1.330563 
经 -0.272294 0.104808 -1.025730 -0.430172 0.058631 0.351048 0.815144 -0.528976 0.338170 1.006498 -1.813192 0.181707 0.508754 0.450035 0.535215 -0.387556 -0.585070 -0.518599 0.256584 -1.262355 0.547320 -0.821146 1.942027 -0.428744 1.504653 -0.526830 -1.628391 -0.439850 -1.391816 0.234402 -0.368673 -0.275285 0.978532 0.045795 -0.493658 0.438287 0.056362 -0.729683 -0.780492 -1.745111 0.217199 -1.133608 1.744618 0.896409 0.281574 -0.185343 1.452007 0.631801 0.169363 -1.624209 
于 0.756278 -0.126058 0.353623 0.812800 0.267612 -0.232311 0.252570 0.137712 0.059263 -0.464684 0.297538 -0.713239 0.394367 0.317050 -0.146484 -0.054099 -0.185265 -0.448688 -0.104432 -0.555933 -0.280022 -0.574677 0.622318 0.008969 0.962459 -0.231073 0.578909 0.993301 0.066562 0.439948 -0.597752 -0.704004 0.058606 0.279499 -0.175860 0.365157 0.188981 -0.260408 0.521214 -0.397412 0.458412 -0.199200 0.664956 0.368027 0.461501 -0.392271 -0.109169 -0.188194 0.877397 0.252890 
就 -0.172688 0.831989 -0.000331 0.740397 0.080589 0.353506 0.203434 -0.801955 -0.319989 0.570700 0.028724 -0.169473 -1.724380 -0.576277 1.020359 0.183617 -0.361124 0.213012 -0.156462 -0.345306 -0.722326 -0.173202 0.306039 -0.582913 -0.650750 -0.536142 -0.815037 -0.354564 0.213612 -0.185851 -0.498596 1.073730 -0.517230 -0.248454 0.284533 0.235438 -0.048738 -0.050846 0.220652 0.643698 0.070412 0.818057 0.047678 0.172759 1.205974 -0.874706 -0.263138 0.475382 -0.201945 -0.706803 
： -0.577761 0.731084 1.115742 -0.095067 1.038999 0.177072 -0.056507 0.579293 0.042286 0.587023 0.545968 0.114861 -0.919001 0.054162 -0.438828 -0.899797 -0.522881 -0.472103 -0.532560 -0.682283 0.098836 0.343088 -1.134679 -0.113973 -1.070143 0.384263 -0.460873 0.259212 0.733734 -0.233210 -0.627552 1.428621 0.236699 -0.299177 -0.705333 -1.060107 -0.246381 -0.667118 0.487533 0.443255 -0.953592 1.385540 -0.657690 -0.354365 0.781314 0.055505 0.773891 -0.833916 0.083132 -0.308013 
下 -0.848416 -0.152457 -0.796986 0.988452 0.267997 0.031238 0.206959 -0.274237 0.378819 -0.429291 -0.287961 -0.347361 -0.319627 -0.262098 0.562650 1.062249 0.177384 0.152345 0.042125 -0.543150 -0.530798 -0.599597 0.800700 0.413486 -1.293285 -1.401518 0.071734 -0.010091 0.727007 -0.107172 -0.186374 -0.035886 -1.005871 -0.379710 0.556313 0.399617 0.589281 -0.097401 0.697659 -0.540576 1.037564 -0.112305 -0.207272 0.973312 0.403050 -0.077316 -0.353672 0.040713 -0.493522 0.337143 
自 -0.745759 0.630427 0.325820 0.148203 -0.638161 0.897779 0.832521 -0.507694 -0.125737 0.562723 -0.027481 -1.063800 -0.486605 0.644364 0.011261 1.210552 0.671588 0.835117 0.488769 0.049319 -0.596407 0.532206 1.343581 -0.038283 0.361940 0.844554 0.497737 -0.285344 0.122056 -0.159216 -1.130332 0.536518 0.220203 -0.106960 0.752321 -0.485195 0.120942 0.207657 0.743790 1.232369 -0.074110 0.445453 1.175728 -0.363905 0.938867 -0.839662 -1.063077 0.744232 -0.362305 -1.313730 
实 -0.955788 -0.880416 -0.220193 -0.534168 -2.232072 -0.203642 0.701637 0.101590 0.874483 0.057291 -0.172387 -0.549025 -0.878204 -0.960996 0.214971 -0.235876 -1.860985 1.302359 -0.349563 -0.185899 0.410861 1.308395 0.338022 0.437965 0.566001 2.107336 0.249034 0.396495 1.368838 -0.077821 0.978663 -0.723999 -0.123522 1.053475 -0.099818 2.628605 -0.470220 -1.499342 -0.159466 -0.574136 -0.346466 -0.450845 1.711651 -0.524119 -0.979869 0.416059 0.997657 -0.177497 0.917981 -1.357720 
用 -0.712263 -0.818506 0.645473 -0.456101 -0.958107 0.316224 0.370520 -1.106360 -1.044575 -1.268610 0.838097 -0.735239 -0.671765 -0.551735 0.189532 0.416142 0.263927 -0.317572 0.729071 1.097777 -1.314158 0.557686 1.155366 1.136818 1.464909 0.526156 -1.954630 -1.140596 0.914266 -0.491408 0.548123 -0.518063 0.412649 0.635627 0.022195 -0.647097 -0.324005 1.597097 0.279397 -0.506082 0.524408 -0.961040 -0.788293 -0.215842 -0.020629 -0.316426 0.181369 -0.347837 0.376284 0.132485 
动 -1.896811 -0.844942 -1.345706 -1.487790 -0.217718 -0.814424 0.368341 -1.151414 0.197453 0.984071 0.391133 1.008209 0.040204 -0.016853 0.290522 0.382081 1.096140 0.650293 0.095631 1.062958 -0.150795 0.295671 -0.077618 1.314587 1.278665 0.735747 -0.087742 0.154703 -0.000620 0.600732 -0.375907 -0.155918 -0.318622 1.106888 0.467413 1.009418 -2.087819 -0.465430 -0.800185 0.393156 0.156390 -2.957331 0.206126 -0.266149 -0.604074 -0.092929 -0.834182 -0.884977 -0.055118 -0.654072 
小 0.104236 0.001223 0.149122 0.413155 -0.062273 -0.101333 -0.216183 0.031447 -0.285250 1.418262 0.539767 -0.702007 -0.160360 0.959631 -0.407751 0.284941 0.286148 0.342289 0.151039 -0.014098 -0.048187 -0.930819 -0.076223 -0.597900 -0.885748 -0.405358 0.334887 0.056697 0.116189 -1.427852 -0.256534 1.379045 -0.265817 -1.410320 -0.915733 -0.180037 -0.244524 -0.119269 -0.537273 0.865530 0.557303 1.492228 -1.180178 0.178330 0.193687 -0.250178 -0.377759 0.945422 -0.164604 1.159624 
法 -0.333333 0.223379 0.643536 -0.723983 -2.328413 -0.516518 0.196769 0.843177 -0.173865 -0.872196 -0.320412 -0.506972 -0.770264 1.182706 -1.068142 -0.358706 -1.795541 0.069375 0.490585 0.291929 1.039851 0.828235 0.080478 -0.297034 1.086175 0.503576 0.682961 0.304407 1.139690 1.330965 -1.059592 -1.690704 0.050953 0.061167 0.115654 -2.890208 -1.268121 -0.859375 1.941676 -0.983434 0.823762 -1.132924 2.209762 0.462254 -0.962902 -0.978913 1.144215 -0.081569 1.022150 -0.739448 
高 0.443196 -0.317899 -0.608759 0.924858 0.206700 0.821955 0.161121 0.052017 0.472433 0.436636 -0.103476 1.171373 0.515058 -1.017905 0.174791 -0.388865 -1.008152 -1.078966 0.067435 -0.298749 -0.366056 0.378661 -1.405575 0.544455 1.810186 0.292584 -1.334612 -0.163231 0.593694 -0.221118 -0.373506 -0.384490 -0.838639 -0.289432 -0.839758 1.090475 -0.860904 0.314937 -0.771768 -1.105633 1.359066 -0.946902 -1.563507 0.318306 0.505450 0.914011 -0.535266 -0.542674 -0.009727 0.329840 
分 0.953816 -0.278735 0.127842 0.569837 -0.421670 0.236526 0.250932 -1.418287 0.574012 -1.131633 -0.696267 0.321210 -0.478263 -0.661072 -1.858259 1.701185 -0.905768 -1.848677 0.199565 -0.921423 0.034942 -1.006255 -0.028131 -0.584069 -0.432718 0.839471 0.167629 -0.011735 -0.189589 0.249914 -0.353768 -1.356869 -0.434808 -0.476905 -0.248531 1.168251 -0.607534 -0.178449 1.598274 -1.237429 0.623972 -0.027742 -1.056709 -0.372686 -0.080136 0.620451 -0.365382 0.159999 1.002792 1.091707 
说 -0.868069 1.206830 0.346374 0.438338 0.775170 1.333796 -0.545413 0.089977 -0.209558 0.821710 -0.241652 -0.096231 -1.125864 0.366897 0.612906 -0.701939 -0.246526 -0.080544 0.215247 -0.531041 -0.264951 1.113722 0.221825 -1.690958 -1.269670 0.418099 -0.079671 0.152188 0.045411 -0.563979 -1.003854 1.624656 -0.661610 -0.740874 -0.122187 -1.222763 0.581236 0.049404 0.810657 0.843091 -0.213463 1.419929 0.698258 -0.497680 1.580436 -0.856910 0.659007 0.041924 0.004840 -0.395171 
学 0.300861 0.125304 -0.505638 0.905484 1.655653 0.054863 -0.432657 0.137407 0.097687 2.043101 0.278672 0.624604 -3.088914 1.767894 -1.044042 -0.708550 -0.958894 0.666109 -1.748605 -1.819826 1.147958 -1.370709 0.324820 0.120613 4.383037 1.858319 -1.208511 -1.111107 0.644104 0.260739 -0.046983 0.772868 -0.598988 -1.552209 -0.334726 0.639784 -1.905586 0.365607 1.127507 0.072460 0.474953 0.992580 0.586001 -0.079871 0.364006 0.998949 0.918317 -0.099822 0.869347 0.969634 
天 0.518136 0.642359 0.839333 2.436744 2.426020 0.098582 0.551606 0.853524 -0.503348 0.096412 -0.268898 -0.149836 0.200160 -0.582067 0.513031 -0.103307 0.658543 0.410490 -0.249906 -1.315123 0.009068 -0.882096 0.116406 0.751172 -2.746183 -1.043369 0.634265 0.891544 0.416100 -0.270403 -1.033574 0.297561 -0.661819 -0.390699 0.381541 0.235023 0.020786 0.666852 0.353245 0.315286 0.815492 0.388564 -0.547802 1.380902 0.978004 -0.365763 -0.234303 -0.652567 0.447787 0.066107 
们 -1.251613 1.686371 0.161634 0.342726 0.270384 1.103990 -0.130086 -0.318192 0.174865 0.168199 0.646006 -0.508037 -2.403747 -0.526544 0.959831 0.823629 0.062030 0.391126 0.356090 -0.216967 -0.190832 0.056062 0.472015 -1.419622 -0.395247 0.543085 -0.076623 -0.532342 -0.592628 -0.694348 -0.857865 1.903509 -0.974090 0.055482 0.549807 0.236519 0.227244 -0.106640 0.486826 2.158660 -0.423176 0.120136 0.615401 -0.593278 1.110302 -0.790310 0.015609 0.578692 0.759127 -1.907522 
将 -0.994400 -0.432692 -0.055415 -0.003576 -0.296350 -0.515237 1.034920 -0.558552 0.223574 0.068157 -0.173936 -0.430717 0.667199 -0.407758 -0.031798 -0.291376 0.243318 -0.260240 -0.013649 -0.626558 -0.458970 -0.357877 0.513807 0.900776 0.350085 -0.914120 0.212197 0.178358 -0.618449 -0.312947 -0.279714 -0.877924 -0.471206 0.351354 0.656098 -0.372503 0.205317 -0.247722 -0.237341 -0.159869 -0.098736 -0.937999 0.342347 1.108249 0.012259 0.187214 -0.403454 -0.035306 0.096988 0.148201 
等 0.221875 -0.873200 0.184570 -0.371124 -0.705690 -0.597973 0.291887 -0.053270 -0.448043 -0.917463 0.110023 0.787256 -0.114163 0.236983 -0.694850 -0.209030 -0.152869 -0.088399 0.777827 0.313553 -0.278213 0.092921 -0.229052 0.906570 1.046196 1.231818 -0.717154 -0.764133 0.089735 0.081063 0.755555 -0.289468 0.718411 -0.024554 -1.090568 0.081393 -0.219160 0.166584 -0.711589 -0.212129 0.362646 -1.181548 -0.338810 0.395913 -0.911925 0.001318 -0.057366 -0.016946 0.905688 0.426727 
可 0.215195 0.332137 0.239647 -0.164925 -0.199565 0.345975 1.043351 -0.915904 -0.782175 -0.778523 0.940225 -0.453525 -0.689379 -1.436953 0.192367 1.412210 -0.375576 -0.528534 -0.241950 0.838768 -1.138383 0.714953 1.039579 -0.270332 0.082086 -0.545954 -0.782334 -0.149384 0.770345 -0.112190 -0.439488 0.692260 -0.259927 0.328271 0.163429 0.060771 -0.270231 0.230726 -0.166754 0.284183 1.067510 0.038868 0.221598 -0.603630 0.744866 -0.434931 0.518146 -0.140631 0.284790 -0.805577 
区 0.277647 -0.173055 -1.295010 0.572833 -0.485685 -0.977744 -1.722510 0.792576 0.556928 0.660341 -1.124167 0.688046 0.856967 -0.140591 -0.192138 -0.821505 0.461329 -1.495957 0.864460 -1.573003 0.945715 -1.847796 -0.202639 1.764993 0.825052 1.773721 -0.348099 -0.039115 1.599239 0.099331 0.158451 -1.202949 0.424257 0.034383 -2.588935 0.174021 0.416411 -0.159584 -0.197034 0.156678 0.432678 -1.545990 -0.102593 2.076546 -2.203881 0.227671 0.196990 1.135867 0.781771 -0.303219 
事 -0.511396 1.085470 0.397179 -1.111625 -0.939470 -0.053205 0.378734 0.304065 -0.497358 -1.174017 -0.655123 -0.657996 -0.783720 1.541674 -0.699389 -1.106578 -1.546313 0.548825 0.966813 0.192018 0.018807 -0.031442 -0.302313 -1.976861 0.251168 0.341280 0.317609 0.843286 -0.041510 0.070125 -0.915067 0.155496 0.748911 -0.592943 -0.917439 0.603600 0.388699 -0.167303 0.444142 -0.069870 -1.766159 -0.994484 1.775575 0.697489 0.092513 -0.359039 -0.097746 0.620026 -0.057838 -1.032728 
关 -1.748813 0.321006 0.562341 -0.677971 -1.751516 -0.689471 1.257272 0.698575 0.271302 -1.351149 0.524800 0.425673 0.040785 2.281679 1.096341 -1.083310 -1.149981 -0.015974 0.482558 -0.004948 -0.538908 1.111170 0.008482 0.077795 1.535496 0.981618 1.196696 -0.665095 -1.176361 0.151121 -0.147758 -1.508031 -0.176061 0.342879 -1.013519 0.674389 1.203011 -0.695417 2.095981 0.054189 -0.608357 -0.301611 -0.955262 -0.305853 -0.869662 -0.040882 0.717159 -0.495809 2.069623 -2.084795 
政 -1.568345 -1.402869 -1.321902 1.645002 -2.021889 0.412987 -0.803868 0.604241 1.152938 -2.358070 -2.504229 -1.706793 -0.388964 1.055420 1.274858 -2.918101 0.222182 0.900814 0.454553 -1.207116 0.892759 -0.175207 -0.503542 -0.798987 1.021359 0.723718 -0.635730 -2.094110 2.144871 -0.832184 -0.689629 -3.865349 0.646914 1.220849 -1.661694 -0.105369 0.573556 -1.517266 2.312511 -0.168249 -1.451705 -2.337939 0.495557 -0.447565 0.021307 -0.787497 -0.084261 1.076871 1.556344 -1.326375 
员 -1.649414 -0.909018 -0.599324 0.151354 -0.111029 0.600403 0.635819 -0.071429 0.511233 -1.867681 -1.971548 0.290339 -0.559879 1.696607 -1.285331 -0.542729 -0.161510 -0.368561 -0.197191 0.664886 1.086792 -0.269527 -1.201293 0.531834 -0.178866 1.188897 1.001765 -0.967659 0.090686 -0.690203 -0.470605 -0.417764 -0.192103 -1.448804 -0.352830 0.084751 -0.183034 0.633983 0.426761 0.476472 0.206368 -0.676508 0.478295 -0.802488 0.269468 0.599844 -0.235404 2.237799 2.165268 0.073784 
长 1.010100 -0.526702 -1.868292 1.442372 0.624028 0.864526 -0.384737 -0.408488 0.032895 0.225640 -1.845764 -0.379037 0.808694 0.342567 -0.449571 -1.568540 -0.014507 -1.650835 -0.434846 -0.378775 0.048176 0.280064 -0.977314 -1.610497 1.524972 -0.336584 0.362492 -0.606350 -0.034808 -0.857309 -0.078620 -0.377977 -0.206518 -0.477868 -1.224204 -0.379916 -1.313481 0.472969 0.540708 0.194024 0.597176 -0.798574 0.043831 0.519786 -0.711110 1.034236 -0.374009 -0.013157 -0.084767 0.527966 
记 -2.604778 0.502837 -0.002121 2.105908 0.850169 -0.023791 -0.822633 1.005593 0.734949 0.111837 -1.879326 0.882832 0.208747 1.003614 -0.685942 -0.836321 0.413697 0.869146 -0.896321 0.572665 0.488655 1.206050 1.895859 0.004928 -1.442106 0.171900 -0.458164 1.222312 0.595890 -2.184772 2.228000 -0.075801 1.223903 -2.330842 0.009749 -1.257559 0.834160 1.386988 1.268374 -0.095547 -1.452285 -0.375470 0.725704 -0.449427 2.380123 1.806297 0.079832 -1.485494 1.359442 -0.660730 
报 -1.961241 -0.445771 -0.967239 0.868428 1.065594 -1.236755 0.226874 0.969355 -0.108010 0.144521 -0.727987 -0.381721 0.995048 0.926052 -1.410443 -0.557519 0.124123 0.605680 -0.060040 0.607050 2.677578 1.390588 0.315139 1.637321 -1.242809 0.556762 -0.847468 1.025140 -0.404614 -0.058314 0.372860 -1.640205 -1.426781 -0.833247 0.244798 -1.187445 0.545320 -0.880641 1.973237 -0.639959 -3.421914 0.070802 1.101218 -0.566672 1.831239 1.024545 1.563334 -1.643520 1.944929 -0.263249 
机 -0.622422 -0.446589 -0.452596 -0.585832 -1.969672 -0.010215 1.921160 -0.809891 -0.717751 -0.716814 0.078859 -0.558755 -0.580076 0.742382 -1.571897 -0.222418 -0.563309 -0.090171 -0.271347 0.816971 -1.518055 -0.557489 1.381692 1.115518 1.037460 0.785851 0.028428 0.445280 -1.244668 0.490505 -0.750301 -1.013430 -0.823500 -0.170760 0.069795 -0.763880 0.866777 0.504677 -0.926534 -1.329206 1.026078 -1.851009 -1.885988 0.292182 -0.404035 -0.052154 -1.500563 -0.174103 0.309922 -1.193589 
6 1.256794 -1.242737 0.457029 1.886357 0.610838 -1.886905 1.345928 1.555477 0.799777 0.390867 -1.942137 0.091973 -0.018492 -1.384445 -1.169489 0.857316 0.741326 -2.281943 0.109080 0.609792 0.517859 -0.844987 -0.048123 1.014098 -0.012007 -1.953976 -0.088459 0.404503 0.165284 -1.016943 -0.099992 -1.122823 -0.068630 -0.613546 -0.318423 0.658168 0.209489 -0.621155 0.582228 -1.615244 -0.238764 -0.098535 -0.783151 -0.696406 -0.473439 1.321514 -0.927072 0.797062 -2.250842 1.689458 
还 -0.017824 0.350584 0.268062 0.240895 0.039293 0.186011 0.435842 -0.538090 -0.058604 -0.079502 0.532977 -0.870245 -0.692064 -0.596245 0.569905 0.088098 -0.522099 -0.468436 0.459324 -0.101148 -0.692006 0.219510 0.538597 -0.772276 -0.185310 -0.137125 -0.668011 -0.489066 0.058702 -0.307070 -0.637145 0.687138 -0.570790 -0.162523 0.205338 -0.283557 0.394146 0.191386 -0.008970 0.815906 0.177777 0.875321 0.811760 -0.213270 0.634834 -0.097640 -0.182784 0.347253 0.563822 -0.362593 
建 -2.223952 1.134342 0.032139 -0.804411 -2.636924 -0.537396 -1.137575 -1.043542 -0.535253 1.152070 -1.390905 -0.562232 -1.287854 0.826186 -1.171999 -1.600346 1.398704 -1.845211 1.235807 -2.332224 -0.257317 -0.567983 -1.432348 1.091809 2.874907 1.522737 0.464638 0.257341 1.455008 -0.109889 0.239392 -1.869777 1.165279 0.688436 -2.170494 1.268015 -0.343705 0.390091 -0.064833 -1.030522 0.351009 -0.314692 -1.022606 1.245028 -3.226502 1.137709 -0.689548 -0.414631 0.008542 -0.860984 
理 0.334563 0.509919 0.092311 0.153594 -1.617704 -0.882370 -0.677212 -1.050827 -0.453118 -0.773373 -1.739874 0.087138 -1.513247 1.231436 -0.880615 -0.808544 -1.085048 -0.129456 1.100799 0.142971 0.346237 1.389464 0.704287 1.208347 1.723244 0.969541 0.381748 -0.574907 1.235355 0.345415 0.288908 -1.006527 0.132903 0.392574 -1.834592 -1.957387 -0.849301 -0.612960 0.334369 -1.003428 0.764296 -0.881106 0.816374 -0.082040 -0.810268 -0.468812 -0.302489 0.200847 2.143249 -1.543578 
主 -0.845784 -0.865565 -0.216830 0.720187 -0.954672 0.879509 -0.032714 -1.356530 0.797751 -0.493419 -0.567496 0.562211 -0.010068 1.128667 -0.578115 -2.049718 0.716143 -0.216630 -0.447118 -0.245120 0.653391 0.443307 -1.122192 -0.992486 1.782452 1.333254 0.266648 -1.653878 -0.503103 -0.196227 -0.119421 -0.157329 0.744021 0.618511 -0.761652 -0.485157 -0.688209 0.355817 0.958514 1.232270 -0.359327 -0.175558 -0.155681 -0.082556 0.148334 0.672322 -0.392441 1.073057 -0.337751 -0.442660 
9 1.571545 -1.362094 0.720586 2.575038 1.191036 -1.993009 1.048409 2.351467 1.156031 1.095447 -2.262733 0.086832 -0.049257 -0.700108 -1.226600 0.727854 0.892884 -2.177742 -0.622458 0.067054 1.096614 -0.666820 -0.370066 0.637218 0.654669 -2.118644 0.877927 0.498644 0.288263 -0.752450 0.270605 -1.055633 -0.065386 -0.453384 -0.380743 0.334846 0.095979 -0.590301 1.131970 -1.455300 -0.315294 0.321790 -0.663397 -0.596860 -0.207330 1.232294 -0.872523 0.470219 -2.609748 1.076707 
体 -0.899205 -0.349697 -1.690035 -0.670425 -0.198270 0.420064 0.345045 -1.105326 -0.422361 -0.841764 -0.023070 0.165794 0.917813 0.470774 -0.838453 0.708162 -0.090013 0.527423 0.574879 0.802847 0.551395 -0.110486 0.834183 1.160382 1.442101 0.892373 -0.262851 -0.121865 -0.151530 0.893724 1.420979 -0.899992 -0.533497 2.008443 -1.201942 1.867907 -1.162066 -0.493131 -0.377490 -0.614370 -1.640022 0.342882 0.626704 -0.763711 0.244853 1.134029 1.032285 0.626920 0.626372 -1.474740 
定 -0.823163 -0.866518 1.879975 -0.542980 -2.159122 -0.388151 0.869335 0.738391 0.719264 -1.636037 0.426710 -1.457662 -0.355915 0.499784 1.005562 -1.494400 -1.617407 -0.009568 -0.047360 -1.355832 -0.423589 1.508888 0.725940 0.020739 0.543796 0.392737 0.511188 -0.410233 1.140264 -0.063675 -0.796206 -1.624755 0.060717 2.377103 -0.416203 -0.320562 -1.034559 -2.458962 0.426820 -0.969253 1.562168 -0.579772 1.434931 0.805526 0.385129 -0.604281 0.791693 0.429239 0.191105 -0.398870 
都 0.107250 0.728061 0.270226 0.850078 0.248849 0.448107 0.090180 -0.273608 -0.176407 0.215722 0.541153 0.298999 -1.058645 -0.380328 0.890515 0.308486 -0.095063 -0.078089 0.571132 -0.285970 -0.118383 0.011898 0.441096 -0.702123 -1.120138 0.155168 -0.715461 -0.425160 0.079019 -0.045906 -0.120207 1.121548 -0.525921 -0.365654 -0.041582 0.426379 -0.105468 0.457383 0.134637 1.018009 0.183224 0.715706 0.190971 -0.019944 0.792993 -0.686188 0.003089 1.039502 0.688276 -0.818398 
面 -1.090297 -0.076542 -0.650343 0.379746 -1.396352 -0.009700 -1.499458 -1.603085 -0.161785 -0.259491 -0.109242 0.066610 0.160480 -0.624013 -0.604508 0.513956 -1.133628 -0.587570 1.774184 -0.261007 -0.248939 -1.486192 0.915987 -0.150549 -0.069773 -0.015349 -0.520704 -0.355400 -0.323773 0.645319 0.035590 -0.891641 -0.046088 0.957041 -0.489509 0.822355 0.218104 -0.247083 0.174705 0.057937 0.294490 0.802287 -0.113678 0.527296 -0.378820 0.669347 -0.485870 -0.006642 0.203970 -0.801389 
安 -0.979292 1.311246 0.085463 0.773956 -0.737881 -0.076696 0.395342 1.057251 0.319283 -0.940676 -1.695121 0.147051 0.432233 0.384319 0.238423 0.591371 -0.756338 -2.487874 0.161296 0.122927 -0.509735 -0.574625 0.080576 0.326699 -0.013480 1.218695 1.613236 0.096006 -0.719664 -0.662465 0.838141 -2.311563 0.735094 0.248772 -2.169852 -1.089063 -1.839435 0.954588 0.223552 0.165739 -0.692661 -2.070396 -1.151967 1.440238 -0.557550 1.123090 0.754024 0.177906 0.445283 -1.049700 
8 1.412708 -1.370772 0.532807 2.415120 0.834347 -1.892094 1.250206 1.747470 0.909559 0.472971 -1.719712 -0.295345 -0.314324 -1.140730 -1.240823 0.738500 0.522121 -2.438152 0.001044 0.307030 0.594350 -0.598000 -0.106856 0.932199 0.403954 -2.078946 0.155905 -0.053735 0.150886 -1.035810 -0.102889 -1.248362 0.351847 -0.484157 -0.369393 0.250454 0.175387 -0.730878 0.836612 -1.736574 -0.318553 0.216352 -0.744102 -0.637918 -0.593004 1.100712 -0.738254 0.715802 -2.274747 1.833162 
网 -3.097267 0.348568 1.495268 -0.732772 1.304094 -1.643630 0.500632 0.397460 -1.343270 0.593694 1.084265 2.491540 0.775220 -1.240610 -0.840522 0.127808 1.252615 -0.476537 1.002326 3.136623 0.584438 1.205264 0.892497 3.044449 -0.828759 -0.010804 -0.344416 1.535674 -1.126089 -0.867416 -2.450393 -0.017606 0.658282 -2.851215 -0.767258 0.274017 0.719683 -0.368703 0.279068 0.461907 -1.031503 -0.884852 0.104173 -1.946079 0.146643 0.590480 0.498101 -2.011441 -0.294134 -0.207839 
同 -0.716245 -0.456813 0.489868 0.560178 0.015477 0.096535 0.430691 -0.891291 0.406835 -0.261884 -0.062432 0.125388 -0.231593 0.161911 -0.559164 0.340903 0.480149 -0.725201 0.842564 0.078496 0.898998 0.083861 0.392552 -1.667558 1.213303 0.226419 0.068757 -0.209207 0.222569 -0.379306 0.062872 -0.439232 -1.199299 0.218286 -0.819204 0.747853 -0.049951 0.071818 0.152007 0.953279 0.558917 -0.051848 -0.330158 -0.908096 -0.019622 0.454147 0.322682 1.054594 -0.137773 -0.647062 
力 -0.543310 -1.013145 -1.041176 -2.095321 -1.014377 2.376754 -0.076869 -1.446179 0.945879 0.500870 -0.817371 -1.464769 0.117906 -1.683242 1.222908 0.847129 0.155350 1.181273 0.469171 0.855817 0.457684 -0.194848 -0.129571 0.891997 2.177566 1.336916 0.294219 0.599473 1.115929 0.482803 -1.051516 -0.411481 0.643850 1.600006 0.522385 1.009558 -0.554637 0.164226 -0.207380 -0.543813 1.130791 -2.882456 -1.156175 -1.098888 -0.176962 1.107834 -0.141544 -0.162218 -0.132557 -2.173139 
表 -1.875899 0.311958 1.232051 0.023295 0.953158 1.578972 -1.217697 0.561830 0.598797 -1.809714 -0.740265 1.121746 0.845518 1.065284 -1.310888 -1.551318 0.044579 0.050246 1.104112 -2.060539 -0.755000 -0.313391 -0.699330 -0.332488 -0.831817 0.449429 1.484705 0.271379 -0.647358 -1.153199 -0.547394 -0.068706 -1.055211 0.378628 0.363321 -0.025070 -0.323966 0.191136 1.184123 -0.518634 0.601597 -0.663808 1.043530 -1.772081 1.760617 0.759910 0.842982 0.906805 0.914576 -0.681423 
名 -0.217538 -1.558748 1.024348 0.204004 0.165624 0.620891 0.521018 1.815156 0.745171 -0.085209 0.451265 0.825041 -0.472959 0.675382 -2.028037 0.541452 -0.092209 -0.701434 -1.110233 1.106207 0.297484 -0.923260 -0.239259 0.880605 -0.897340 0.995684 -0.127723 0.262914 -1.169227 -0.792245 0.401708 -0.031235 -0.289457 -1.518588 -0.330747 0.544207 -0.179962 0.541920 0.292378 0.353090 -0.693121 0.907101 1.057013 -0.035098 0.444592 -0.404015 -0.038287 1.353439 -0.882799 1.083475 
其 0.486908 -0.922438 0.170210 -0.136737 -0.447906 0.420478 0.391885 0.618520 0.164131 -0.694258 0.714570 0.160526 -0.019103 0.440427 -0.594645 0.214529 -0.802003 -0.163091 -0.031155 0.996915 -0.765107 0.114567 0.925857 -0.807714 1.412903 -0.145221 -0.237025 -0.217436 -0.332823 -0.088742 0.008626 0.398655 -0.118449 -0.017421 -0.058424 0.536224 0.242024 0.278420 0.844379 -0.275771 -0.290915 -0.160356 0.695691 -0.134223 0.208847 -0.650374 0.409795 0.429959 0.058590 -0.125686 
加 -0.548431 0.264218 -0.406757 0.204281 -0.984904 0.815516 0.218216 -0.575684 1.261856 1.653700 0.189554 0.645088 0.507381 -0.996593 -0.264353 -0.083380 0.077516 -0.068791 0.211753 -0.103054 0.200040 -0.245220 0.349987 0.265270 1.410665 0.241231 -0.119296 -1.766926 1.191064 -1.112968 0.257054 -0.656388 -0.126739 1.740633 0.472761 0.634662 0.042390 0.267764 -0.857996 -0.951000 0.246233 -2.332790 -1.573058 -0.732820 -0.788716 1.139191 -1.021385 -0.134289 0.615750 -1.607065 
被 -0.061092 -0.395734 -0.057808 -1.144095 -0.729400 0.112549 0.262061 0.714523 -0.233806 -0.425218 0.826348 -0.169809 -0.002571 0.633300 -0.104745 0.690209 -1.096486 0.124524 -0.769421 1.400072 0.179270 -0.697100 0.059681 0.313395 -0.628610 -1.255697 0.965251 0.606240 -0.840420 0.195683 0.329419 0.907597 -0.197224 -1.764247 0.696836 -1.211358 1.096718 0.305948 0.708711 -0.310701 -0.958794 0.287971 1.448181 0.855642 0.855398 -0.923410 -0.108910 0.541051 -0.490007 1.179422 
与 0.081186 -0.207099 0.485093 -0.080218 0.095607 0.491097 -0.097640 -0.484737 0.433387 0.556862 -0.048620 -0.161276 1.060096 0.782458 -1.098975 -0.283475 0.800083 0.111805 0.172821 0.218297 -0.227762 -0.424078 0.600152 -0.279424 0.903439 0.660410 0.597272 0.022261 -0.658768 0.005007 0.074854 0.071697 -0.271083 0.493733 -0.638090 0.016827 0.517857 -0.130239 0.138656 0.650358 0.259323 -0.761853 0.042679 -1.095684 -0.410292 0.137561 0.030635 0.766066 0.640324 -0.871565 
场 -0.285609 0.391844 -0.852350 -0.595528 -0.440527 -0.939550 0.240826 -0.847335 -0.240315 0.053557 0.557257 0.988777 1.467546 -0.224815 -0.330928 -0.410319 0.032608 -0.365673 0.944800 -1.030770 0.498914 -0.224000 -0.420260 0.965985 -0.582023 0.061538 -0.627736 0.185652 -0.706983 0.150253 0.243339 -0.148022 0.344933 -0.351667 0.645606 0.759236 0.298830 0.369726 -0.636534 -0.388803 0.334552 -1.509385 -0.033564 1.166603 0.409303 0.516044 -0.785558 1.693265 1.068454 -0.605594 
通 -1.525862 0.400642 -0.001601 0.295917 0.948859 -0.900806 0.907617 -0.611274 -0.208774 -0.697120 -0.839359 0.198922 0.612330 0.012246 -1.395056 -1.845325 -1.024485 -1.050236 0.374911 1.646778 -0.706316 1.396584 0.510538 1.547306 -0.390782 0.371956 -1.019274 -0.277372 -0.353961 -1.414629 0.666320 -0.741019 -1.415901 -0.773989 -2.192546 -1.220323 -0.232164 -0.520110 0.049276 0.467601 0.407729 -1.827079 0.437677 0.274632 -1.919368 -0.120253 0.695901 -1.484351 1.013721 -1.062312 
重 -0.352790 -0.171256 -0.808281 -0.925308 -1.521936 -0.135305 0.294301 0.598834 1.207442 -0.604020 -0.127529 1.448421 -0.339104 0.369012 1.193618 0.156116 -1.468199 0.466752 0.728352 -0.242154 -0.224641 -0.000478 -1.016901 -0.469722 1.731678 0.486124 0.554193 -1.070636 0.154243 0.049547 0.463124 -1.006682 0.626718 1.727166 -0.657966 1.090888 -0.682328 0.077889 0.643327 -0.395400 0.136326 -0.632683 -0.706491 0.891692 0.730833 1.613817 0.800714 -0.434019 -1.071195 -1.441704 
最 0.898848 -0.128492 1.140429 0.886949 0.696999 0.395033 -0.111435 0.338565 -0.197726 0.861530 0.945206 0.531637 -0.115355 -1.091677 -0.318005 0.602084 -0.853188 0.105368 -1.082800 -0.064537 -0.089679 0.026012 -0.428567 0.195025 0.119156 -0.600280 -0.350158 0.599794 -0.457136 -0.141749 -0.527356 0.040606 0.032180 1.180557 0.912889 1.606376 0.571111 -0.101563 -0.292024 -0.096224 0.884534 -0.503074 -0.095341 0.163526 1.302519 -0.227160 0.107972 -0.237099 0.224691 -0.227945 
女 -0.312594 0.516769 0.096062 0.016372 0.947510 0.581153 -0.070384 0.897079 1.181449 1.382194 2.583009 -1.136060 0.147319 0.831176 -1.399195 1.416181 -0.022512 0.372495 -0.624415 0.630101 -0.323413 -0.834395 0.595208 -1.440041 -0.368317 -0.507260 1.947707 0.452709 -1.450589 -0.003128 -0.224794 2.182231 -0.649701 -0.792867 -1.215202 -0.462074 -0.825835 -0.126946 -0.982390 1.500539 -0.406036 2.161725 0.264634 -0.069786 1.160535 -1.532274 -0.023335 1.957323 -0.772083 1.055161 
当 -0.738279 0.767690 0.189210 0.413487 0.762529 0.034834 0.182171 0.064050 -0.164933 -0.401289 -0.019388 -0.800702 0.224676 0.513295 0.143385 0.008344 -0.504166 -0.201584 0.810355 -0.226568 -0.205166 0.057040 0.152542 -0.562099 -0.343721 -0.170752 0.658236 0.142343 -0.061471 0.109298 -0.510315 0.209057 -0.839253 -0.303825 0.531671 0.088015 0.427066 0.612111 1.027149 0.460031 0.140040 0.255821 0.611933 0.451962 1.223274 -0.277885 -0.101929 0.707778 0.391978 -0.290126 
次 -0.563462 -0.558231 1.798516 0.259399 0.273876 -0.648652 1.102048 0.144868 0.631970 0.099429 -0.350204 0.645755 -0.790661 -0.192180 -0.778454 -1.630902 0.299284 0.163699 -0.946915 -0.302870 0.556831 -1.787720 -0.255275 -0.305810 -1.369855 -1.517495 0.176643 0.013774 -1.009343 -0.783737 0.136304 -0.782006 -0.764229 -0.164832 1.094915 1.422403 -0.204318 0.538206 0.246439 -0.322807 0.426852 -0.705501 -0.248847 -0.015154 1.086613 0.929445 -0.169308 0.577413 -0.039433 -0.283081 
得 0.445457 0.756304 1.032643 0.304500 -0.910569 0.937614 -0.528070 -1.077716 -1.340639 0.455379 0.633133 -0.475107 -1.693746 -1.473121 -0.234317 0.948326 -0.994548 -0.210247 -0.719748 -1.096840 -0.642621 2.154043 -0.559026 -0.527881 -0.226658 -0.806193 -0.327104 -0.688546 0.196421 0.274991 -0.370759 0.957063 -0.194084 0.325220 0.167366 1.123202 0.944631 1.619989 -0.022704 0.994766 0.224129 -1.206610 1.243047 -1.002766 1.351773 -1.006190 0.081617 1.169029 0.294504 -0.542569 
本 -0.399708 -0.324108 0.679685 -0.112679 -0.355460 0.221839 1.107380 1.150926 0.402261 0.019552 -0.982803 -1.035249 0.675465 -0.407426 0.363753 -0.773627 0.694511 -0.062191 -0.018903 -0.485780 0.232961 -0.411696 0.466225 0.699844 0.693245 0.860971 -1.097246 0.384658 -0.056079 0.482675 0.103240 -0.831650 0.609488 1.111213 0.542759 1.044605 -0.124416 0.008502 1.222924 -0.488669 -0.263466 1.462088 0.561747 -0.084055 1.211523 0.251425 0.652432 -0.038540 0.583121 -0.680290 
7 1.646232 -1.093025 0.436558 2.260850 0.977528 -1.913626 1.229922 1.902748 1.110476 0.574778 -1.980046 0.005524 0.079303 -0.850788 -1.141738 0.961856 0.305868 -2.467539 0.098554 0.278742 0.672652 -0.599998 -0.140939 0.713742 0.345479 -1.916951 0.105489 0.285647 0.098980 -0.865864 0.070335 -1.366593 -0.258218 -0.403765 -0.740028 0.475605 0.088164 -0.784501 0.955056 -1.760910 -0.200534 0.043858 -0.890055 -0.811804 -0.310722 1.180072 -0.630745 0.760201 -2.082416 1.218816 
道 -0.692102 1.129016 -1.195127 0.440072 0.935273 -0.780506 0.573699 0.266962 -1.227927 0.943292 0.166410 0.136880 0.415744 -0.188569 -0.117445 -1.593896 -0.455418 -0.631209 0.548713 1.470016 0.429236 1.419405 -0.294909 0.596387 -1.086537 0.574934 -0.224854 0.594006 0.033093 0.381893 1.577816 0.075120 -1.099026 -0.129826 -0.761468 -0.134577 0.773076 0.117733 1.197163 0.803614 -2.128825 0.495329 0.962604 0.828717 -1.119984 -0.318447 1.140245 -1.071397 -0.755258 -0.879895 
好 -0.698306 1.526268 0.119679 -0.316290 -0.805450 0.537840 -0.116322 -1.367352 -0.438959 0.774491 0.170497 0.476602 -1.717572 -1.036624 0.785525 1.173593 -0.413137 0.769173 0.745646 -0.838802 0.221086 1.025087 -0.423469 -0.840672 -0.364557 1.144383 0.099449 -0.798158 0.796099 -0.370532 -1.005726 0.847866 0.026838 0.882132 -0.812222 0.921502 -0.841717 -0.388419 -0.784824 1.165606 0.345619 -0.079398 0.002652 -0.757055 0.704000 -1.194928 -0.195854 0.487140 0.518722 -1.260388 
元 3.732671 -2.433546 0.834978 2.794566 -1.048811 -0.177546 2.212192 1.060158 1.239029 0.493661 -0.313518 -1.632869 -1.559703 -3.503378 -1.324199 -1.288833 1.386015 -2.579837 1.643395 0.072195 0.786144 0.422283 -0.500246 0.640237 0.473556 -3.306972 -0.416646 -1.521972 -0.457118 -0.826856 1.276983 -0.705661 1.042967 -1.088240 0.309430 0.619261 0.822975 -0.061721 -0.165952 -2.876682 -0.736052 0.731140 -0.845479 -1.523832 -0.184874 0.398664 -0.596633 0.978192 -0.349404 2.816307 
目 0.458581 -0.352605 0.883009 -2.118240 -0.505645 -2.142229 0.239791 0.155832 -0.077783 0.881974 0.288843 0.254736 -0.310294 0.134996 -1.531940 -0.948100 -1.368391 -0.219223 0.054245 -1.783686 -1.395326 0.440565 -1.429432 0.682793 1.198182 -1.149479 -0.445643 0.209009 -0.085874 -1.808671 -0.183837 -1.335222 0.534041 1.492507 -0.075478 1.528453 0.274772 -0.602477 -0.245326 0.459416 0.132794 0.058693 0.446107 1.345869 -0.007256 1.724891 0.084427 -0.200732 1.397722 0.051011 
心 -0.001571 1.197351 -0.651952 -0.198759 0.358388 0.893069 -0.689298 0.088660 0.793763 -0.343249 -0.082792 -0.605275 -1.288500 0.198193 0.509800 0.654944 0.136682 0.981076 0.370189 -0.405084 0.194696 -0.183915 -0.055276 -0.192591 -0.177294 1.415770 1.057998 -0.369063 0.296164 0.792391 -0.330217 1.810509 -0.698397 0.494337 -1.046667 0.026852 -0.743615 0.486387 -0.040394 0.700080 0.332981 -1.002599 -0.174856 -1.192176 0.005508 0.439330 -0.268620 -0.358189 0.787848 -1.147308 
化 -0.557807 -0.812305 -0.791198 -0.263081 -0.554488 0.615799 -1.576725 -1.422339 0.061737 0.214861 -0.525246 1.159176 -0.419132 -0.671693 -0.805421 -0.432569 0.122419 1.207412 0.423736 -0.429311 -0.436322 -0.373044 0.721974 1.756154 2.536201 1.691285 -0.512782 -0.027121 1.692650 0.335493 0.855146 -0.172266 2.086421 2.015355 -2.129003 1.658585 -0.881314 -0.862664 -2.093763 -1.304787 -0.278300 -1.002132 0.286232 0.398859 -1.518691 0.911549 -0.112325 -1.374393 -0.596279 -2.039013 
而 1.432227 0.461883 0.070576 -0.088835 0.149683 1.144853 0.706588 -0.938763 0.244847 -0.018024 1.453147 -0.345635 0.865763 -0.478074 0.383796 0.037412 -0.714494 0.658132 0.339635 0.360702 -1.520992 0.256008 0.061461 -1.172639 0.282380 -0.350276 -0.700711 -0.236952 -0.030792 0.534297 0.136082 0.415398 -0.147197 0.318651 0.271623 0.386278 0.043831 0.223531 0.255174 -0.053389 0.517549 -0.046943 0.966146 0.225970 1.103614 -0.640679 0.246498 -0.029905 -0.452396 -0.369358 
务 -2.606877 -0.903698 -1.447780 1.122340 -1.620100 -0.361850 0.488066 -0.138540 0.745728 -1.519281 -2.162874 -1.137136 -0.954726 0.550353 -1.512430 -0.864714 -0.151017 -0.987951 0.830855 1.523021 0.815546 0.136625 0.126068 1.551053 2.540929 1.210783 -0.467822 -2.228958 0.015849 -0.325346 -0.707453 -0.608242 1.029147 0.686222 -1.568447 0.327877 -1.413334 1.007780 -0.949165 0.350385 0.787845 -1.618966 0.446738 -0.347411 -0.648635 1.488723 -0.665399 0.933217 1.554758 -1.215214 
》 -0.322165 -1.151669 1.575327 -0.273067 1.035102 -0.951447 0.925251 1.455457 0.562911 1.727608 0.383258 -0.272641 0.220856 1.944233 -0.580793 0.167494 0.689353 1.802430 0.127797 -1.052111 1.098731 1.656256 -0.770331 0.347258 -2.311703 0.517194 -0.757121 0.903628 -0.693258 1.858968 1.265488 -2.686468 0.559935 1.108137 0.572731 -0.997602 -0.948645 -1.912451 1.045336 0.479638 -2.081391 0.706149 0.042667 0.191684 0.263801 -0.224909 -0.269638 -1.872971 0.838113 -0.656240 
《 0.084920 -0.946482 1.092676 -0.043221 1.549090 -0.456234 0.965567 1.641683 0.586131 2.206420 0.379256 0.208646 -0.362591 1.882400 -0.492472 -0.562376 1.568612 1.437017 -0.313285 -0.783611 1.434178 1.420851 -0.793762 0.433683 -3.178797 0.642123 -0.892604 1.156694 -1.195341 2.197138 0.942396 -2.947097 0.625509 1.121969 0.195452 -1.236918 -0.504199 -1.199818 0.591135 0.801419 -2.608675 0.384917 -0.253645 0.202370 0.983657 -0.061574 -0.102701 -2.115413 1.403504 -0.845474 
度 -0.489809 -0.658746 0.274213 -0.320799 -1.048959 0.332301 0.457964 -0.328449 0.741145 0.134219 -0.234341 1.044684 1.393064 -1.303035 0.256578 0.673122 -1.199698 0.256306 -0.520600 0.857065 0.485504 1.222878 -0.938645 1.106104 1.902065 -0.466295 -0.216458 0.314749 1.461061 0.375993 0.358876 -1.544060 -0.519807 2.080018 0.240189 1.143648 -0.915166 -0.515153 -0.024960 -1.084668 0.964521 0.257324 -0.842119 0.704770 -0.649529 0.254806 -1.535184 -1.161519 0.705949 -0.930982 
之 0.139282 0.256308 0.424975 -0.283306 1.097784 0.577911 0.192204 -0.653830 0.221586 0.045268 0.726637 -0.379368 0.010296 -0.095875 0.250096 -0.618710 0.399082 0.239990 -0.069150 0.095518 -1.112123 -0.288199 -0.677511 -0.740629 0.090341 -0.488996 0.081644 0.090922 -0.202327 1.076324 0.300027 -0.022220 0.032519 0.114783 0.292592 0.684629 0.728246 0.029300 0.061549 0.356885 0.309136 -0.143647 0.709557 0.488241 0.314221 -0.215005 0.220092 -0.419514 -0.239585 -0.104011 
点 -1.122605 0.444389 0.163195 0.026464 -0.573127 -2.197994 -0.760340 0.224261 -0.083309 0.501391 0.431155 0.652340 -1.204281 -0.809485 -0.633385 -0.256976 -0.825372 0.190661 0.358286 -0.042654 0.302377 -0.576673 -0.467292 0.932452 -0.979680 -0.848916 -0.262327 -0.173674 1.277546 -0.008524 -0.275128 0.585525 0.461428 0.441176 -0.373536 2.021359 0.263206 -0.276984 -0.134380 -0.163780 0.900923 -0.623178 -1.813492 1.180972 0.518888 0.283090 -0.958410 -0.028070 -0.128995 0.045904 
合 -0.877880 -1.365763 0.403254 -0.972205 -1.013742 -1.368118 0.628769 -0.052623 -1.308889 1.536397 1.080606 -0.989239 -0.170809 2.263557 0.088215 -1.059384 0.606755 0.616474 -0.180794 -0.138273 1.705930 1.194111 3.325677 1.574803 1.320448 0.231438 -0.983581 1.335091 1.678141 -1.152191 -0.227080 -1.833229 0.803385 2.229950 -1.499683 2.291881 -1.065730 0.144872 -0.030084 -0.046300 1.184265 -1.483447 0.957369 -1.195795 -1.873132 -0.336052 -0.722062 0.398570 0.761438 -0.342598 
提 -3.049870 0.381504 0.478386 -1.187661 -1.282466 -0.263335 0.764304 -0.094077 0.659146 -1.645759 -0.503210 1.271369 -0.310612 -1.652710 -0.651590 -0.626445 0.090925 -0.864585 0.494745 -0.028536 -0.176397 0.039874 -0.053339 0.481412 1.532527 1.629967 -0.089211 -1.067266 0.117047 -1.371081 -1.419247 -0.856133 -1.364504 0.309523 -0.752756 0.816583 -1.330571 -0.596519 -0.597827 -2.122539 0.691648 -0.626629 -0.132176 -0.312584 0.492545 0.660844 1.347295 -0.438909 0.110910 0.377584 
制 -0.710043 -1.971219 0.158972 -0.963452 -2.867136 0.013637 0.497979 -0.474927 -0.230804 0.090511 0.189624 -0.450945 -0.712441 0.838814 0.158569 1.065792 -0.995880 0.949834 0.313105 0.548836 1.078781 2.457013 -0.114435 2.017356 2.276892 0.898527 -0.004254 -0.005619 1.364115 1.014048 0.572334 -2.185330 -0.056521 1.485658 0.274681 -1.207913 -0.255318 0.281054 -0.559152 -2.002707 0.191379 -0.064102 -1.200227 0.690514 -1.288293 -0.075522 -0.937388 -0.162261 1.096500 -2.367039 
外 0.433123 -0.042685 -0.800278 0.003157 0.356866 -0.409675 0.358889 0.069091 -0.617391 0.032116 0.913059 -0.255669 1.298456 0.256591 -1.110743 -0.065757 -0.113589 -0.446435 0.921711 0.330628 -0.598312 -0.720931 0.803859 0.412755 0.472367 0.065592 -0.514096 -0.387807 -0.214799 0.366664 -0.093642 -0.403678 -0.329965 -0.264087 -0.475060 0.970035 0.582034 0.422518 0.435121 0.885319 -0.255901 0.685143 1.707156 0.357667 0.006640 0.424922 0.596938 0.870695 0.484886 -0.108197 
保 0.205908 0.709486 2.239199 0.038487 -2.352428 -1.452817 0.925850 -0.071078 1.607107 -1.322759 -1.590859 -0.453571 0.030791 -1.038751 1.661084 1.357810 0.013129 -2.585843 0.497000 0.585099 -0.073273 1.515184 1.419147 3.327183 1.714313 3.186499 2.227851 -1.145870 0.638357 -0.449552 0.202454 -0.321542 1.158464 2.519307 -2.091382 -2.428417 -0.635832 0.047995 -0.640292 -0.621204 1.286176 -1.060008 0.119745 1.284038 0.070035 0.619019 -0.118254 -0.512415 0.829571 -0.996821 
情 0.149351 1.276653 -0.272268 -1.025630 0.741002 -1.518839 0.314756 0.410634 1.336185 -1.067523 -0.393223 2.044238 1.031462 1.027623 -0.074274 0.982833 -1.142944 0.594101 0.601925 -0.093708 -1.286173 1.347658 0.921682 -1.796152 -0.942530 -0.272685 1.504017 0.563886 -0.319532 1.603796 0.843319 0.645104 -0.935997 1.254747 -0.985605 -0.329850 0.161062 -1.979075 -0.862154 0.606519 0.090701 -0.330854 1.265251 -1.344018 1.520775 -0.968151 -2.296698 -0.777146 2.212497 -2.348019 
起 -0.854232 0.623638 -0.619736 -0.545959 0.067468 -0.424998 0.438686 -0.370676 0.045587 0.165767 0.872959 -0.065661 -0.448311 0.290613 0.500862 0.522653 0.279769 0.404874 0.525189 -0.383561 0.755037 -0.734440 -0.038711 -0.571365 -0.730797 -0.928182 0.220121 0.082993 -0.435582 0.001544 -0.581137 0.645890 -0.916577 -1.213961 0.134598 0.308291 0.665109 -0.226649 0.360747 0.039599 -0.104223 -0.351672 -0.399681 0.136548 0.327063 0.192034 -0.384430 0.065016 -0.960449 -0.474442 
产 0.964931 -0.846379 -0.449107 -0.159554 -2.218940 0.699072 0.185022 -0.062044 -0.168173 0.471452 0.594157 -0.194135 0.337159 0.385628 -0.320623 -0.589007 0.924870 -1.693878 0.887149 -0.313048 0.692941 -0.064203 0.963003 2.661830 3.280080 -0.678435 -1.813542 -0.399411 -0.111223 -0.906931 0.446793 0.685090 2.335672 1.411945 -1.022217 0.968847 -0.449840 0.137640 -0.987170 -2.187835 -0.012751 -0.551371 0.451552 0.956686 -0.313768 0.082209 -0.553748 -0.084510 -0.172627 -2.392931 
据 -0.804274 0.261821 -1.273713 -0.594215 1.285959 0.417991 0.824459 3.001300 -0.519271 0.898907 -0.511743 0.867694 1.226881 -0.251488 -0.241846 -1.789608 -1.283661 -1.123259 0.026225 0.852018 1.534795 1.589939 2.521172 2.601985 -0.360084 1.197520 -0.187107 2.203949 -0.126765 -0.801843 -1.239855 -2.109115 -0.527352 -0.051584 0.652094 1.177975 -1.232378 -0.549940 1.910312 -2.138172 -2.993999 1.583263 2.688473 -0.737484 0.858512 1.136087 0.360052 0.318347 2.209625 0.030402 
间 0.249431 0.756250 -0.035175 1.479380 1.798199 -1.159486 1.827967 -1.000675 -0.507792 -0.849761 -0.427491 -0.558502 0.849260 -0.574138 0.151585 0.502567 0.389901 0.048802 0.137890 0.524868 -1.121776 -0.804489 0.735979 0.270621 -0.102112 -1.266690 -0.377636 0.671395 0.575356 0.415277 0.845579 -0.747388 -0.777768 -0.828347 0.131754 0.553038 -0.202162 -0.424347 0.308431 0.788657 1.732111 0.311404 -0.503669 1.283570 0.395697 0.105316 -0.583859 -0.409297 0.760255 0.029941 
电 -0.795565 -0.010522 0.407477 0.178490 1.575161 -0.189184 0.650552 0.249309 -0.868588 0.495616 0.086935 -0.330314 -0.298746 -0.921710 -0.333287 -0.349752 1.442946 0.658959 0.442250 1.162759 0.172100 3.462468 1.654766 1.953434 -0.372445 1.076628 -1.452647 0.597500 -2.724219 -1.091208 0.172947 -0.926031 0.349955 -2.026023 -0.680713 -0.495934 1.193272 1.322008 1.504469 0.290914 -0.875776 -1.636036 -2.234045 0.622566 0.044631 -0.448886 -2.196831 -1.211679 -1.245092 -0.927857 
所 -0.034103 -0.100536 -0.856127 0.294178 -0.016777 0.362175 -0.316561 -0.036897 -0.213683 -0.791503 0.754354 -0.436137 -0.296228 0.406320 -0.677487 0.525770 -0.516053 -1.129087 0.318346 0.026685 -0.703148 0.382707 0.386950 -0.578999 0.933706 1.147455 -0.133130 -0.576545 -0.095708 0.688282 -0.034912 -0.124801 -0.074834 -0.970586 -0.107245 -0.235002 0.334643 0.032177 0.510131 0.308753 0.128007 -0.014172 1.070108 0.942694 0.499494 -0.910727 0.303459 1.001311 0.928349 -0.315027 
位 -0.712715 -0.635401 0.919572 1.638774 -0.678245 0.700496 0.701290 0.016681 0.814218 -0.704958 0.475953 0.430373 -0.865597 1.654410 -0.728857 -0.427558 -1.012317 -0.595691 -0.342337 0.443431 -0.208471 -1.155175 0.245016 0.986402 -0.167879 1.145907 -0.671118 -0.221197 0.586854 -0.800207 0.377002 -0.466952 -0.463269 -0.268157 -1.200371 1.354551 0.378914 0.431651 -0.152041 0.633799 0.584016 0.476658 -0.080136 0.751274 0.391358 -0.101891 -0.837698 2.182466 -0.001697 0.880496 
内 0.487394 -0.026064 0.019755 -0.076539 0.103498 -0.246174 0.170896 0.057323 -0.349270 -1.509965 0.171170 0.440511 1.331240 -0.528425 -1.082945 -0.255751 0.205070 -0.309918 1.134661 0.176590 -0.307147 -0.672638 -0.086588 0.857121 0.676074 0.445867 -0.328809 -0.651745 0.088879 0.389742 0.649713 -0.575994 -0.294997 -0.797957 -0.895079 0.104696 -0.619718 1.059029 0.523366 -0.156733 0.043101 1.195592 0.696949 1.127029 -1.429857 0.887417 -0.236548 1.049384 -0.235397 -0.711784 
海 0.906201 -1.317946 -1.004983 0.722965 0.083105 -1.062539 -0.569142 1.306664 -0.047330 1.483941 -0.118641 0.696954 1.943680 -1.828578 -0.762276 -0.834400 0.600795 -0.643896 -0.150597 -0.676674 1.243609 -1.461105 0.773214 1.019728 0.227965 1.790402 0.652753 1.713831 0.565674 0.219829 -0.204987 0.047377 0.361557 0.166382 0.682654 -0.844944 2.153324 0.715488 0.629039 1.451997 0.378950 -0.691305 -0.408334 1.824661 -1.245257 1.070769 0.856611 -0.587937 0.951762 -0.282291 
此 -0.436056 0.610348 0.364323 -0.570845 0.804609 -0.552835 0.661117 -0.764091 -0.066788 -0.117722 0.479172 -0.081565 0.868277 0.743078 -0.550507 -1.083151 -0.866206 -0.600456 0.675607 0.140535 -0.238069 0.074499 0.258494 -1.160616 0.461890 -0.487834 0.507727 0.237017 -0.433020 0.348935 -0.888428 0.098725 -0.610296 0.256018 0.408708 -0.307650 1.069691 0.771281 0.648292 0.002364 -0.368418 0.687468 1.554953 -0.226911 0.769871 0.573511 0.864293 -0.143148 0.705066 -0.801401 
着 -1.062446 1.173874 -1.501144 0.339484 -1.011593 1.081949 0.210863 -0.823067 -0.043402 0.402639 1.320033 -0.651388 -0.219925 -0.884980 1.507411 1.319881 0.343770 1.965980 0.288815 -0.561202 -0.365869 -0.343096 0.780094 -0.599156 -0.972376 -0.047524 0.176008 0.031696 -0.965573 0.063660 0.844684 1.417245 -1.190672 -0.823010 0.050985 0.067953 -0.340627 0.401023 0.346108 1.602596 -0.087746 0.795862 -0.763335 0.426526 -0.347293 0.245408 -0.925320 0.213434 -0.869391 0.243158 
从 -0.311145 0.223204 -0.337550 1.312093 0.235162 -0.263710 -0.135757 0.148222 0.008910 0.457556 -0.383556 0.227708 -0.102222 -0.356247 0.125531 -0.129088 -0.865131 -0.151146 -0.401136 -0.448972 -0.087042 -0.506259 0.776203 0.342778 -0.115095 -0.484236 -0.014511 0.820788 0.043040 -0.370152 -0.209066 0.072957 -0.369156 -0.816604 0.182466 -0.111340 -0.002938 0.302202 0.434569 0.078760 -0.374564 -0.263600 0.636848 0.910261 0.558967 0.245251 -0.248744 -0.106994 -0.093382 -0.221477 
但 0.326889 0.853789 0.245633 0.050718 0.333109 0.882730 0.666486 -0.594051 -0.185496 -0.122423 1.041043 -0.262699 0.132362 -0.568585 0.813615 0.042719 -1.263510 -0.473161 0.216929 -0.129449 -0.922168 0.984633 1.002314 -1.116944 0.205705 -0.980186 -0.526954 0.452532 0.302110 0.226624 -0.709107 0.787550 -0.843906 0.535833 0.491776 0.307629 0.335667 0.344346 0.194262 0.310566 0.709540 0.815691 1.602210 -0.148757 1.465262 -0.743944 0.096016 0.954238 0.304460 -0.532612 
已 0.145333 0.226340 0.008594 -0.656915 0.427143 -0.470393 0.759302 -0.445350 0.197762 0.239556 -0.762221 -0.076997 0.269168 0.101475 -0.229244 -0.890811 -0.746376 -0.965660 -0.101881 -0.292736 -0.116194 -0.843851 0.504469 0.635308 0.321917 -2.192642 0.682201 0.789318 -0.507611 -0.567348 0.663134 0.147156 -0.916372 -0.326773 -0.067444 0.277392 0.244301 -0.337595 -0.112796 -0.600567 -0.379347 0.065931 1.368174 0.871968 -0.267763 0.134383 -0.257000 1.040306 0.323697 0.083679 
展 -0.969896 0.775529 -1.429206 -0.778051 -1.464515 -0.826924 -1.137453 -1.789919 0.190357 1.381579 -1.532233 0.500303 0.824822 -1.513875 -1.017645 -1.048886 0.183326 1.046463 1.199533 -2.194302 0.509477 -2.133512 0.349973 1.354900 2.644609 1.304090 -0.621410 -0.025771 -0.621272 0.187928 -0.235276 -0.301277 1.140111 1.680283 -0.895088 1.667295 -1.186235 -1.363953 -1.007013 -1.174114 -0.115125 -2.913842 0.133022 -0.705201 -1.065616 0.715185 -0.375771 -0.725513 0.210501 -2.907445 
示 -2.087838 -0.775924 -0.048559 -0.110798 0.793421 0.621316 -2.053576 -1.421254 0.343861 -0.061213 -0.946749 0.988836 1.375178 0.675432 -0.466511 -0.355119 -0.225491 -1.801700 0.040927 0.396720 1.061141 2.100320 1.488166 -0.910323 0.172524 0.129613 -0.213843 0.916374 -0.801126 -0.101374 -1.617332 -1.059150 -0.439462 -0.204989 -0.290901 -0.128940 0.333388 0.870919 0.382037 0.037930 -0.412082 0.828296 2.282148 -1.063231 1.348060 1.629393 -0.864334 0.290015 1.742334 -0.159474 
入 0.527644 -1.157954 -0.174607 0.045373 -0.344287 -0.017159 -0.461106 -0.004919 0.783346 0.467422 -0.218770 -1.230229 0.728895 -1.425216 0.412576 0.304696 -1.117500 -0.123342 -0.050752 1.124421 -0.417040 -0.687379 0.229983 1.628952 1.712891 -0.107644 -0.737042 -1.306102 0.615436 -1.928701 0.982868 -1.076058 0.270050 0.069153 -0.826768 0.743019 1.407898 -0.455502 -1.547987 -0.696160 -0.301535 -0.046375 0.019756 0.333051 -1.229906 0.482576 -0.558119 0.528211 1.138328 -1.027238 
省 -1.022364 -0.925130 -0.437975 2.699037 -0.972708 -0.374115 -0.623066 1.635419 1.355676 0.224008 -1.930111 1.567407 -0.064066 0.692794 -0.224588 -1.255869 -0.525452 -2.559129 -1.651992 -1.952933 1.705692 -1.201788 -0.701605 0.445948 0.875245 0.099983 0.500631 -0.621315 1.091691 -1.488948 -1.228170 -2.836177 0.436258 -0.800011 -2.132494 -0.303783 -2.555436 0.062721 1.561333 0.335961 -1.736154 -1.983597 -0.549610 0.223861 -2.226673 1.259498 -0.268800 0.140261 2.594901 -0.614592 
美 1.156029 0.235200 0.558082 -0.032652 0.480099 0.388448 0.857746 0.782216 -0.474296 1.381772 0.445025 -0.135928 1.382230 -0.702264 -1.169695 -0.230406 1.589571 -0.090468 -0.066201 -0.555400 -0.103257 -0.121569 -0.182709 0.177610 0.772558 -0.147050 0.001608 -0.273629 0.156649 1.735185 -0.725475 -0.443558 1.062844 1.691212 0.068754 0.383004 1.368599 0.640958 0.353540 1.002778 -1.326337 0.767317 0.279465 -0.813845 0.627394 1.382037 1.067069 0.830499 -0.378938 -0.667252 
路 -0.519246 1.050489 -2.584927 0.978141 -0.097955 -1.024922 0.744634 -0.138771 -0.166993 0.114430 0.095665 0.706167 0.552644 -1.345453 1.069301 -1.363645 -0.974501 -1.679927 0.616648 0.327610 -0.906654 0.277139 -0.081728 0.305799 -1.267475 1.079185 -0.693366 1.156438 0.333400 -1.165928 1.270628 -0.682078 -1.073359 -1.771839 -1.523814 -0.389756 -0.058748 -1.865334 0.049658 0.907288 1.230409 -2.745434 0.183888 2.385604 -3.087041 0.779302 0.485385 -2.135247 -1.109244 0.998258 
性 0.813660 0.019708 0.428854 -1.244670 -0.442659 0.450812 0.133439 0.025750 -0.001749 -0.725438 1.628479 -0.046559 0.381147 -0.524182 -0.458774 0.894091 -0.510159 0.748731 -1.018516 1.291507 0.021696 -0.133651 0.259003 -0.523667 2.535028 0.263729 0.318610 0.122050 0.699721 1.608059 0.230414 0.473963 -0.431806 1.812495 -2.285851 1.119654 -1.991827 -0.475894 -1.192177 -0.040225 0.469923 0.105286 -0.541546 -1.115401 1.020433 -0.506021 0.351666 0.541982 -0.362629 -1.633739 
去 -0.716874 1.138486 -0.268002 1.252193 0.648437 -0.417065 0.450548 -0.379242 0.664064 1.174226 -0.727815 -0.413679 -1.362863 -0.486129 1.493106 -0.059027 0.017907 -0.380632 -0.348915 -0.047539 0.194827 -0.802524 0.290884 -0.519665 -0.608795 -1.464362 0.196490 0.157884 -0.191231 -0.891431 -0.394431 1.009673 -0.429673 -0.187511 0.868331 -0.237337 0.316172 -0.130509 0.087982 0.548022 -0.582672 0.603334 0.408541 0.713146 0.610770 0.012957 -0.423359 0.486218 0.139826 0.227544 
两 0.045774 -0.468347 0.202357 0.243933 0.018367 -0.423135 0.507635 -0.547470 0.023105 0.300480 0.557998 -0.002150 -0.193209 -0.147194 -0.352924 -0.167954 0.337380 -0.443132 0.018569 -0.192134 -0.114076 -1.486331 0.634663 -0.447330 -0.484161 -0.918619 0.218854 0.177013 -0.777978 -0.502393 0.230523 -0.019063 -1.183413 -0.294498 -0.040794 0.478047 0.099791 -0.691989 0.722742 0.932446 -0.040707 0.616537 -0.477821 0.717515 0.062718 -0.668428 0.285995 1.125246 -0.075969 0.568347 
没 0.161000 0.986174 0.059755 0.249211 -0.141532 0.421520 0.438132 -1.002152 -0.543119 -0.668724 0.530178 -0.869554 -1.711609 -0.200138 1.567302 0.324941 -1.334519 -0.293175 0.486566 -0.302894 -1.480103 0.944961 1.111900 -0.787866 -0.825911 -0.637618 -0.616298 -0.048321 0.346794 -0.387009 -0.447331 1.474261 -0.963064 -0.470180 0.333156 -0.826471 0.450410 0.137423 0.446744 0.902263 0.207214 1.374527 1.364151 -0.205035 1.649916 -0.514029 0.079845 0.959281 0.427592 -1.126941 
并 -0.835829 -0.094877 0.441012 -0.863821 -0.652576 0.175611 0.694393 -0.714480 0.070213 -1.058475 0.755308 -0.278953 -0.016144 0.042347 -0.588635 -0.002056 -0.509234 0.200802 0.465114 0.059772 -0.829108 0.795523 0.700631 -0.414593 0.312423 -0.542711 0.179883 -0.275469 -0.344659 0.258760 0.245540 -0.637727 -0.971848 -0.087194 0.479994 -1.045401 -0.009182 0.416880 0.384353 -0.264512 -0.155278 -0.358449 1.405659 -0.215439 0.322055 -0.484330 0.224479 0.328877 0.838669 -0.410278 
明 -1.418265 -1.144823 0.311015 -0.464164 -0.130538 0.854067 -0.933860 -0.343911 0.726720 -0.034452 0.019495 0.661263 1.609542 -0.273750 0.612182 -0.132816 -0.747557 -0.679381 -0.184477 -1.078211 -0.095559 2.173102 0.622050 -0.414221 -0.989860 0.652842 0.341247 0.698163 0.093434 0.485349 -0.366458 -0.718741 0.016111 0.209450 -0.558684 0.253496 -1.408612 0.333767 0.572126 0.405174 -0.551367 1.668989 1.555048 -0.617363 0.952786 0.338389 -0.032057 0.072389 1.257081 -0.322103 
里 0.123882 1.762020 -0.467731 1.263134 0.470660 0.430069 -0.862187 -0.010901 -1.173096 0.956105 0.117828 -0.419634 -1.075374 -0.371318 1.123398 0.408806 0.264472 -1.118355 0.924558 0.495850 -0.276260 -0.875419 0.450585 -0.245490 -1.682127 0.766773 -0.774866 -0.496898 0.002681 -0.326486 0.954910 0.792377 -0.936550 -1.109887 0.274379 -0.017206 0.844332 -0.444654 -0.224268 0.214984 -0.652791 1.013902 0.097765 0.795255 -0.655308 -0.286751 -0.859706 1.110501 -0.254180 0.942647 
三 -0.335161 -0.700076 1.398771 0.134748 -0.342780 0.076068 0.727358 -0.439694 0.927370 0.499585 -0.055096 0.842377 -0.198462 0.091284 0.141608 -1.089707 0.609305 -0.944553 -1.117324 -0.869955 0.575727 -2.068071 -0.694034 0.387735 -1.044539 -0.247814 -0.088658 0.061726 -0.651101 -0.495734 0.210704 -1.007523 0.240960 0.210130 0.009435 0.587957 -0.619548 -1.113583 0.541225 0.165663 0.509561 0.244169 -0.997039 1.528241 -0.761258 0.217787 0.397995 0.095792 0.624019 0.534565 
. 4.329459 -2.427445 -0.215648 2.063029 -0.912491 -2.263340 0.642496 1.277496 1.482165 0.128068 -1.693249 0.317363 0.051309 -2.457545 -0.809058 1.047931 0.861272 -3.729041 1.362717 1.413275 1.350138 0.554453 -0.499638 -0.340834 1.197587 -1.972738 -1.157403 -0.524761 0.982595 -1.108929 0.369339 -1.704250 -0.505536 0.587070 -1.803161 1.161775 0.362034 -0.872276 0.069420 -3.150738 0.458868 -0.270954 -1.717613 -2.579719 0.114626 1.962506 -1.942532 0.980541 -2.667348 1.002871 
万 3.044613 -2.409231 0.393987 1.686206 0.242840 -0.455115 1.297138 1.363118 0.967997 0.446789 -0.651877 -1.058017 -1.835440 -2.514912 -0.300143 -0.038041 1.064321 -2.653389 2.665102 0.991541 -0.011216 -0.681095 -0.371298 0.698745 0.969945 -2.795698 -0.194437 -0.802298 -0.384496 -1.045197 1.104714 -0.451008 0.303304 -1.165805 0.229291 0.654105 1.213286 -1.484970 -0.448439 -1.821556 -0.653533 -0.004859 -0.941309 -1.891555 -0.026375 0.104931 -0.989825 0.716791 -0.585956 2.810225 
委 -2.561548 0.029989 -0.224371 2.452808 -0.431248 1.593568 -2.239491 0.122179 1.516360 -1.260113 -2.871164 0.872403 -0.406833 2.458182 -0.404920 -3.831770 -0.265595 -0.847024 -1.962263 -1.612780 3.243092 -0.674241 -0.719029 -1.702623 -0.231553 0.840430 1.703300 -1.537729 0.872465 -0.886913 -0.915679 -3.194086 1.594239 -1.163915 -1.339969 -1.055936 -1.579816 0.201325 2.487736 -0.173810 -0.820490 -1.768975 0.186894 -0.023160 -1.271759 1.882430 -0.757769 1.577745 3.805790 -0.653191 
正 -2.001798 -0.510207 0.333820 0.233521 0.324007 -0.171243 -0.176098 -0.287610 -0.616997 -0.471708 -0.810045 -0.822576 0.059524 0.078466 0.308952 0.274690 -0.831647 0.620420 0.138347 -0.370784 -0.249665 0.423450 0.075791 -0.913186 0.265343 0.480397 -0.027047 -0.260075 -0.614538 0.953037 -0.259024 -1.111106 0.018541 0.238290 0.168711 0.121016 -0.746945 -0.793605 -0.206211 0.513202 0.428300 -0.584547 0.590571 0.458783 0.284675 -0.522161 0.724719 0.495714 0.048526 -0.744022 
金 1.567971 -1.682808 0.850823 0.429657 -1.882344 0.303449 0.304906 0.496434 -0.134284 0.051058 -0.501171 -0.831984 0.072723 -0.490442 0.042199 -1.652745 0.531664 -0.878127 1.519286 -1.322299 -0.171949 -0.293078 -0.722626 2.209880 1.199646 -0.249157 -0.137574 -0.609446 -1.190040 -0.695355 0.817905 0.257116 1.827520 0.748501 -0.706175 -0.329289 2.016021 0.281243 -0.718890 -0.463104 -0.092417 1.111198 0.807952 -1.786065 -0.262446 -0.560954 -0.460692 0.176607 1.755489 2.042701 
平 0.215446 0.216388 0.180142 1.130047 0.031300 -0.195061 -0.483037 -2.766289 -0.616179 0.086038 -0.438913 -0.160975 0.730497 -1.287157 -0.443333 -0.365007 1.011845 -1.335628 0.714381 -0.601354 0.928221 -0.032273 0.443599 -0.568827 3.108863 1.479970 0.162489 0.344091 1.322065 -0.801789 0.814284 -1.501441 -0.073736 -0.247322 -0.940303 0.704218 0.584339 -0.876062 0.507982 -0.742235 1.108967 0.440455 -1.270798 -0.343703 -0.016063 0.664913 0.263346 0.762445 -0.140878 0.546819 
设 -1.287089 -0.890139 -0.089659 -0.539601 -1.541893 -1.684900 -0.491252 -0.434373 -0.224439 0.451225 -0.381449 -1.307798 -0.884630 -0.662167 -0.340366 -0.730107 -0.659929 -0.425549 2.543691 -1.328605 -0.370455 0.302994 -0.915094 3.514549 2.458635 3.822093 0.033086 0.643073 1.369836 -0.172643 1.616688 -2.595700 0.195275 1.193829 -1.338093 0.834160 -1.167295 -0.893334 -1.231087 -0.298832 0.793603 -1.007226 -0.963216 1.109066 -3.076111 0.149232 -1.723871 0.429505 0.088810 -0.726861 
相 -0.269909 -0.200917 1.383998 0.076077 -0.243568 -0.061664 0.108921 -0.580252 -0.076828 -0.804156 1.513797 0.747224 0.893475 1.233174 -0.132989 -0.945739 -1.123381 -0.171442 1.099102 1.184929 -0.236710 0.454507 1.566634 -0.933311 0.891012 0.054419 1.393460 0.652454 -0.370585 0.107761 -1.412145 -1.081057 -0.905088 1.318667 -1.458379 0.387869 0.278792 0.244336 0.406004 0.873794 -0.208286 -0.631338 -0.351473 -0.702694 0.299506 -0.289614 -0.786745 -0.184569 1.161864 -0.900007 
因 1.339650 0.401374 0.464785 -0.880475 0.406129 0.556039 1.105386 0.945581 -0.206907 -1.095116 0.543379 -0.825316 0.490614 0.068684 0.372246 -0.663649 -0.847640 -0.282385 0.417195 0.075792 -0.739744 -0.080702 0.542826 -1.663758 0.647816 -0.345482 -0.450289 0.173532 0.537802 0.045864 0.406877 0.971495 -0.409005 0.384336 -0.616811 0.233456 0.020261 1.157810 -0.205189 -0.323572 0.486871 0.646335 1.280787 0.455697 1.522104 -1.051471 0.416096 0.300039 -0.456443 -1.460016 
资 1.235059 -1.811756 0.637260 0.354529 -2.450522 0.376487 0.468013 0.132721 0.700650 0.165799 -0.425256 -2.349397 0.241407 -0.198186 0.024748 0.132371 -0.295569 -0.126154 3.753019 -0.800410 0.324496 0.414153 0.620660 3.498752 3.123591 -0.709596 -2.400937 0.112103 1.002766 -1.966981 -1.481719 -1.166689 2.846581 1.075140 -1.975138 -0.117059 2.062902 -0.416276 -0.489552 -1.682797 -0.223736 -0.847509 -1.391190 -1.918657 -0.192991 0.381388 -0.626123 -0.299262 2.339642 -1.072037 
门 -1.356964 0.499480 -1.623059 0.748094 -1.287940 -0.597172 0.159674 -0.174647 0.260490 -0.414330 0.487208 0.147210 0.083345 0.957653 -0.291028 -1.529311 -1.194811 -0.760416 -0.033690 -0.050506 0.366289 -0.152264 0.702504 1.886666 -0.948365 0.875304 0.795248 -1.553076 -0.353636 0.243317 0.172850 -0.868070 -0.663423 -1.188101 -1.254728 0.087651 1.253365 0.583283 1.206185 0.341620 0.308717 -0.721189 -0.153457 1.635551 -1.792173 0.603093 0.209779 0.845630 1.829624 0.257468 
老 -0.978440 -0.131519 -0.456121 0.791798 0.397599 1.420679 -0.551252 0.302867 1.444120 1.228462 0.123554 -1.005427 -2.498283 1.443051 1.256740 1.420390 0.255515 -1.111749 0.376318 -0.011598 -0.109118 -0.013152 0.380776 0.721457 0.198834 0.336864 0.240638 -0.126388 -0.155961 -0.424437 0.450179 3.177048 0.193060 -1.561475 -1.884139 -0.347664 -0.152517 -1.768561 -1.308342 0.630999 0.660651 1.076888 -0.638641 0.366424 1.014304 -1.122912 0.873594 0.842921 0.391280 1.024519 
院 0.139270 0.853495 -0.944900 -0.299175 0.441581 -1.177350 -1.780218 1.791888 0.436000 0.143071 -2.341685 0.028458 -1.457337 2.146872 -0.149023 -0.207045 -0.803245 -0.931158 -1.710083 -1.399679 2.661821 -1.839800 0.429372 -0.213803 3.327935 0.316429 0.159236 -0.279840 -1.541680 0.955660 -0.813336 -1.325781 -0.911634 -1.788888 -2.141092 -2.969919 -0.733594 0.501118 1.330890 -1.055055 0.673532 -0.298471 0.539946 0.922397 1.300130 -0.009888 0.632417 0.391240 2.479299 1.514444 
如 0.844933 -0.244820 1.613925 -0.174921 -0.696333 -0.624067 -0.088261 -0.681129 -1.776717 -0.880321 0.040900 -1.129200 0.469588 -0.138345 0.626044 -0.406537 -0.554878 -0.920540 -0.553714 -1.323404 -0.972510 1.066573 0.135815 -2.028826 -0.476383 0.345226 -0.779714 0.232359 1.571369 -0.002324 -0.823961 0.747242 -1.291821 -0.761234 -0.838769 0.103337 -0.653360 -0.172930 -0.495213 0.205894 0.567859 0.740050 1.101254 -0.201317 1.768377 -0.566824 0.575502 -0.031692 0.447493 -2.057492 
题 -0.837464 1.666948 2.767868 -1.972044 -0.527804 -1.732642 -0.497035 0.689292 1.899747 -0.619404 0.367754 0.519846 -0.223520 -0.575439 1.009403 -2.489054 -2.006263 -0.518779 -0.164112 1.059433 -0.114629 -0.813102 -0.628947 -0.293704 1.321180 1.704277 -1.250056 -1.262429 1.233051 -0.435902 1.616820 1.716943 0.860841 1.058616 -0.817861 -0.617415 0.133985 -1.719199 1.330922 0.487208 -0.581145 1.596807 -1.459194 0.350246 1.656542 0.594922 -0.445338 -1.321291 1.387699 -2.636880 
文 -0.188340 -0.494922 0.731155 -0.356277 0.125338 0.545882 -1.736182 -0.290478 0.449183 1.024208 -0.965674 2.284779 -0.357208 0.270232 -1.813898 -0.189824 1.152378 0.870153 0.353968 -1.085058 -0.412458 0.771466 -1.275828 0.361491 1.502384 2.228948 -0.959820 0.300783 0.354437 0.649356 0.973026 -0.720255 1.596298 0.175689 -0.388715 -0.131011 -1.834589 -0.208219 1.236887 -0.670071 -1.501980 1.249756 1.571187 -0.200680 -0.906783 0.851757 1.314527 -0.972134 0.268059 -0.129874 
北 0.017437 0.461058 -0.491727 1.917565 1.527888 -1.257147 0.395875 1.997138 -0.317327 0.560340 -0.226009 0.068382 1.852437 0.352255 1.505908 -1.272023 0.275567 -1.112825 -0.907432 -2.476221 1.413302 -0.855983 -0.005185 2.068367 0.795316 1.710918 -0.566166 2.137296 0.901368 -0.674295 -1.128133 -1.240125 -0.381186 -2.223484 -1.215352 0.163518 -0.471133 0.657919 2.742668 1.459697 0.176811 -1.265162 0.280465 1.182483 -2.173064 -0.060153 -0.485535 -0.491642 1.569885 0.775970 
手 -0.743620 -1.532551 -0.058843 -0.837944 -2.020365 -0.106205 1.161678 -2.125714 -0.763917 0.415381 0.994887 -0.885660 -0.129959 0.160483 0.813651 1.498942 0.324951 1.787003 -1.795921 -0.142690 -1.011520 0.007734 1.220772 0.027799 -0.526981 0.019467 -1.104554 -0.384337 -2.490047 0.196767 -0.329691 -0.299109 -0.925799 -0.893405 0.781450 -0.280750 -0.168451 0.653976 0.642777 0.855385 0.955006 -0.012530 -0.940317 -0.641308 1.714450 -1.057752 -0.563561 -0.921537 0.213739 1.314939 
看 -0.616956 1.246437 0.039816 0.519532 0.575134 -0.196680 -1.294134 -0.209554 -0.000057 0.466084 0.464878 0.513846 -0.900265 -0.828899 1.152671 0.995552 -1.512024 0.520509 0.675250 -0.417310 -0.619836 1.009027 0.684495 -0.638783 -1.945753 0.013413 -1.024134 0.316268 -0.696104 -0.313079 -0.603606 1.304155 -0.341947 -0.262055 -0.014788 -0.167331 0.520276 -0.232383 0.166006 1.645413 -0.327982 1.217530 0.288304 0.348906 1.422921 -0.306919 -0.554597 1.963414 0.546105 -0.351414 
意 -1.659933 1.656533 0.439522 -0.626413 -2.299274 0.272684 -0.217501 1.134818 -0.219441 -2.416287 1.237079 0.284438 -1.132278 -1.614869 -0.913801 -0.597333 0.443428 1.062518 1.240158 -0.433107 -0.842219 0.791817 -0.952596 -2.141530 0.315082 0.767443 0.449362 0.630282 0.398735 0.227947 0.425649 1.926887 -0.562466 1.001028 0.302701 1.397053 -0.483744 0.254234 0.869813 1.195792 -0.940053 -0.122655 0.894941 -1.228831 0.100577 0.202498 -0.001955 0.114209 0.269203 -1.153871 
水 0.934368 0.518747 -0.942774 -0.568573 0.313003 0.483436 -0.553214 -1.645939 -1.877937 -1.259363 -0.903607 0.583210 0.503254 -2.121247 0.547594 1.391224 -0.109150 -0.560658 0.821469 -1.073464 0.684334 -0.701319 -0.276872 0.913207 0.796935 0.489957 -1.335877 -0.120842 2.981303 -1.424854 1.342517 -0.229157 0.431633 0.651405 -1.460219 0.453485 1.760851 1.056919 -0.418955 -1.030977 1.552838 -0.280271 -2.066920 1.392505 -0.866567 -0.563083 -0.107319 -0.583943 0.477529 0.110648 
品 0.905876 -0.802088 1.528021 0.202324 -1.937829 0.568682 0.038872 0.278848 -1.931102 -0.892127 1.311947 2.812707 0.489488 0.121554 -0.466369 0.246196 1.231388 -1.601598 0.364233 0.524516 1.078544 1.918616 1.376415 2.190008 1.684153 -0.047733 -1.533629 -1.829600 -0.569249 -0.849675 1.236157 1.089897 2.800284 1.473293 0.593620 -1.900999 -1.806018 0.094775 -1.776183 -1.486932 -0.824984 -1.102577 0.230175 1.358554 1.270226 0.634081 -0.829975 0.625267 0.447057 -1.936309 
交 -1.269717 1.073728 -1.189708 0.249569 -0.577735 -0.315670 1.203758 -1.015388 -0.711063 0.309287 0.497161 0.360698 0.174818 0.253310 -0.669238 -1.595952 -0.520507 -1.988505 0.780556 2.099676 -0.234436 -0.138116 0.948913 0.747656 -0.139788 -0.484858 -0.810916 0.170830 -0.107515 -0.018061 -0.112848 -1.757676 -1.420942 -1.207276 -1.707526 -0.337507 -0.486686 0.241507 0.617095 0.118024 0.314256 -2.180102 0.347986 0.012898 -2.055674 0.134943 1.347189 -0.818310 1.005893 0.245635 
期 0.283485 -0.005369 1.114163 1.483578 1.467725 -0.925126 2.041557 -0.327288 0.232648 -0.587615 -0.817341 -0.335328 0.528142 -0.828742 0.109513 -0.756050 0.052460 -0.013889 -0.081935 -0.127172 0.198177 0.483678 -0.252848 0.194523 0.671883 -2.027389 -0.055629 0.762561 0.348148 0.171723 0.475845 -1.003726 -0.523241 0.801042 0.234521 1.323140 -0.926796 0.117939 -0.697538 0.137110 1.292742 -0.429954 0.135886 1.638631 0.478236 0.607591 -0.259889 -0.295207 1.673376 -0.117072 
第 -0.089582 -1.321535 2.672011 0.184101 0.162441 -0.245488 1.680686 -0.437765 1.124802 0.847213 0.289731 0.606867 -0.960438 1.101701 -0.381631 -0.790752 0.312888 -1.092606 -2.639450 -1.284079 1.804170 -3.274827 -1.435631 0.400407 -2.003388 0.169754 0.498055 1.081508 -1.054923 -0.986643 0.262684 -2.362113 -0.704212 0.585747 0.590685 1.525020 -1.381902 -0.516612 0.310001 0.346141 0.218763 0.153818 -0.576457 0.724972 -0.020449 0.791802 0.253099 0.153630 0.881811 0.844858 
城 -0.022440 1.940259 -0.768134 0.844159 -0.891292 -0.830362 -1.285898 -0.340155 1.288763 1.340560 -0.556760 1.313950 1.041921 -0.313246 0.526680 -0.341955 1.691939 -2.103922 0.423619 -2.279245 0.589268 -1.196498 -0.319674 1.767521 0.733335 1.750518 -0.855202 1.362233 2.019791 0.233947 0.586973 -0.656901 -0.322371 0.347057 -3.099468 1.136881 -0.252830 -0.353430 -0.702807 -1.311711 -0.215777 -1.426305 -0.988892 2.276218 -2.388547 0.530991 -0.755371 0.946215 0.398137 0.168182 
问 -1.698955 1.802190 1.448020 0.272884 -1.956505 -1.235296 0.223432 0.226320 2.570498 -0.859686 -0.594094 0.331955 -0.958172 -0.301971 -0.788513 -0.887088 -2.325102 1.170633 0.401915 1.067832 -0.975486 -0.891254 0.349779 -1.468801 -0.633985 0.742363 -1.301924 -1.604555 0.758298 1.102469 0.517089 2.258778 0.489884 0.358664 -2.279445 -0.576842 1.592663 -0.961364 0.285481 -0.089468 -0.590537 0.377789 -0.597043 -0.216017 1.150723 0.744413 2.803171 -0.674059 0.512912 -2.281811 
然 -0.451566 1.525270 0.438384 -0.528949 0.269900 2.682383 -0.069170 -0.341401 -0.797131 1.260429 1.763139 0.670310 -0.772321 0.112085 2.934199 -0.027416 -0.812420 0.317267 -0.207444 0.011441 -0.057936 1.605933 2.426069 0.819660 0.205011 -3.210536 -0.014139 1.806526 0.907693 -0.026325 -1.225206 -0.167373 0.062224 1.403008 0.101882 1.212170 1.573444 1.228298 -0.120961 0.141254 0.759086 0.671107 3.111100 0.513913 0.622637 1.075791 -1.029975 0.651103 -2.272624 0.323240 
调 -2.201051 -0.533071 0.607656 -0.847049 -0.268772 -0.692148 -0.425143 -1.069396 1.294780 -0.833084 -0.632599 -0.502082 1.165326 0.733091 -0.279781 -0.476677 -2.780783 1.520555 -0.299295 -0.697108 0.898710 0.330201 2.548785 0.249894 1.156484 -0.083521 0.408520 -0.192599 1.025977 -0.724729 -0.904579 -1.266517 -0.378844 -0.469743 -0.812064 0.882064 0.538585 -0.414860 -0.277596 -2.899817 -0.298706 -1.311002 -0.381796 -0.420978 -0.184955 0.775945 -0.867054 1.572168 1.849779 -1.584425 
管 -1.052878 0.139980 -1.047746 -0.057684 -1.860313 0.939299 -0.746394 -0.591165 -0.563981 -1.041231 -0.304832 0.017132 -0.859464 2.334382 0.993951 -0.942772 -1.903050 -0.522943 0.915113 0.929790 -0.295292 0.937003 0.811048 2.941679 1.490890 1.219641 0.156580 -0.584405 1.559333 -1.427578 0.148347 -1.788050 0.154762 1.096367 -1.437547 -0.735603 -0.985816 -0.206032 0.306298 -1.424859 1.150918 -1.571869 0.305612 0.925500 -1.773390 0.540292 0.951905 0.781427 2.985804 -0.931785 
很 0.272264 1.694122 0.088034 0.336578 0.647495 1.464113 -0.242739 -0.519144 -0.586235 0.431966 1.185811 0.664827 -0.830584 -1.442177 1.185328 0.748278 -1.262788 0.482039 0.661939 0.344051 -0.639939 0.738575 0.264703 -1.235583 -0.321393 -0.071546 -0.733224 -0.057534 0.540786 -0.126259 -0.403559 1.496697 -0.758258 0.156177 -0.210514 1.390498 -0.099226 0.858106 -0.573040 1.139575 0.428150 0.017274 0.859493 -1.035561 0.778526 -0.942437 -0.320724 0.997519 0.232865 -1.536738 
身 -0.263990 1.140834 0.366394 -0.246884 -0.942813 1.252427 0.593830 -0.778524 -0.261079 -0.856941 0.041067 -0.612463 0.689198 -0.599821 -0.382513 1.798589 0.154583 0.759956 -1.371436 1.013173 -0.056929 0.481991 2.102866 -0.372231 -0.123216 -0.092006 0.746629 0.366743 -1.053039 0.035402 -0.042782 1.834366 -0.469559 1.009324 -0.853054 0.643614 -0.917589 0.990139 0.543262 0.653449 -0.626140 1.122186 0.781246 0.465720 -0.201297 -0.524856 -1.273515 1.112978 -0.788583 0.146351 
任 -0.013326 -1.547677 0.226475 1.737464 -1.956665 0.622501 0.583707 -0.569356 -0.191249 -2.303955 -1.919529 -1.166741 -1.134809 3.340794 0.184230 -3.169837 -1.548603 -0.811695 0.118227 -0.691465 1.388740 -0.074447 -2.107238 -1.325516 0.628814 1.512542 2.597558 0.274479 0.950963 0.855578 0.181269 -0.064714 -0.330284 0.414538 -1.266997 -0.404963 -1.188757 1.178110 -0.194129 0.446839 0.680721 -0.362924 0.267166 -0.441555 0.588452 1.967575 0.707547 1.016623 1.439653 -0.897794 
