5810 50
</s> 0.008005 0.008839 -0.007661 -0.006556 0.002733 0.006042 0.001882 0.000423 -0.007207 0.004437 -0.008713 0.002499 -0.001503 -0.001914 -0.006631 -0.003764 0.005159 0.006051 0.005938 0.003195 0.003090 -0.007605 -0.008192 0.009939 0.007603 0.006180 -0.001208 0.008031 -0.000990 0.001469 -0.000298 -0.005966 0.002625 -0.002675 -0.007651 0.009508 0.008759 -0.002190 -0.000452 0.001018 -0.007275 -0.008014 0.009109 0.000126 -0.005165 -0.006084 -0.006153 0.003394 0.000403 0.002662 
， 0.105958 -0.003749 -0.353845 -0.131244 -0.148050 -0.055342 0.122513 -0.022747 -0.183198 -0.186765 0.308086 0.262972 -0.162935 -0.024390 0.079194 0.202700 -0.264959 -0.051147 -0.074457 0.176311 0.044670 0.011735 0.176095 0.122982 -0.372409 -0.429431 -0.315860 -0.198068 0.011053 0.017637 -0.161915 0.128396 -0.105015 0.046694 -0.166343 0.692673 0.259718 -0.403344 0.005042 -0.111839 -0.453499 0.156053 -0.404794 -0.201108 0.161280 -0.137964 -0.332732 0.289598 0.287400 0.020488 
的 0.019059 0.097055 0.262252 -0.160022 -0.002391 -0.148450 0.059137 -0.080589 0.018154 -0.212453 -0.180491 0.204338 -0.536940 0.033268 -0.112903 -0.118763 -0.429902 -0.054343 -0.038740 -0.114188 -0.677023 -0.105254 -0.138697 0.146031 -0.344657 0.089272 0.097744 -0.751775 -0.038838 -0.049812 -0.299428 -0.133201 -0.009999 -0.310009 -0.034095 0.450988 0.038628 -0.270891 0.185927 0.171203 -0.590681 -0.494209 0.086990 -0.411484 0.200036 0.172065 -0.135742 0.424377 -0.279150 -0.375209 
。 -0.407333 0.024578 0.129978 0.463600 -0.215383 -0.150112 0.187092 0.230824 -0.040366 0.110384 0.376753 0.189495 -0.445448 0.147098 -0.247609 0.112628 -0.168395 0.028070 0.332317 0.358287 -0.322900 0.054703 -0.514227 0.140718 -0.626075 -0.548466 0.253923 -0.417684 0.194328 -0.264010 -0.470217 -0.218622 -0.205937 -0.123420 0.068079 0.257750 0.162890 -0.375121 0.281345 0.341373 -0.456504 -0.156651 -0.387733 -0.027330 0.412413 0.621336 -0.343058 0.163801 -0.440036 -0.137399 
一 0.927576 0.166472 -0.106426 -0.233068 0.276118 -0.274255 0.176500 -0.127385 0.442461 -0.386904 0.085472 0.278731 -1.134063 -0.387697 -0.142630 0.466900 -0.227029 -0.235504 -0.630600 0.433660 0.201500 0.395664 0.578884 -0.041089 -0.793005 0.007575 -0.059376 -0.701940 0.572086 -0.025040 0.056725 0.421147 -0.312552 -0.611653 -0.649494 0.037630 -0.083378 -0.324508 0.307854 0.145630 -0.365014 -0.052576 0.202332 -0.089104 0.379521 0.072548 -0.330601 0.816786 0.425293 0.023781 
、 -0.981597 0.075364 0.427792 0.457473 0.367706 0.382815 -0.575745 -0.084291 -0.050817 -0.147883 -1.088125 0.542579 1.213263 0.160641 -0.030099 -0.536411 0.017254 0.417773 0.238294 0.532675 -0.642398 -0.424994 -1.083353 -0.164362 0.060979 0.274159 0.663543 0.027746 0.029693 -0.591917 0.143687 0.407026 0.060366 -0.622871 1.327471 -0.677768 0.221765 -0.015141 -0.702678 1.540572 1.251721 -1.096251 0.693869 0.168221 -0.629913 -0.798511 1.398272 0.065409 -1.435242 -0.525003 
人 -0.339626 -0.130985 -0.161133 -0.738767 -0.110477 0.265516 0.027565 0.464977 0.276242 1.086401 -0.172720 -0.499872 0.338724 -0.715956 0.401880 -0.065074 0.630178 -0.124564 -0.790079 -0.036643 -0.197443 -0.197131 -0.326375 0.357708 0.009709 0.488559 -0.072711 0.079065 -0.453132 -0.391021 0.048611 0.207520 -0.287134 0.093207 -0.116336 0.831141 1.318174 -0.428775 0.285063 -0.043865 -0.406477 0.591273 -0.167893 -0.640428 0.667867 0.897753 -0.251241 0.329803 -0.204207 -0.419548 
在 0.416627 0.424448 -0.076982 -0.545181 -0.034250 -0.254432 0.045150 -0.149214 0.077438 -0.498673 0.547111 -0.000676 0.190911 -0.204771 0.578444 0.050436 -0.447924 -0.233245 -0.532618 0.072500 -0.050259 0.247658 0.439767 -0.113572 -0.047679 -0.128121 0.426395 -0.581401 0.025168 -0.334441 0.082027 0.358929 0.041253 0.376170 -0.588283 0.229729 0.060067 -0.649231 -0.039013 -0.202301 -0.238552 0.298285 0.009244 0.165758 -0.156141 -0.613439 -0.533646 0.203134 0.516772 -0.215478 
1 -0.210021 0.242050 -0.943877 -1.903125 2.404917 1.186087 0.988877 0.631918 -0.562894 -0.344478 -0.244596 -0.713857 0.553201 0.815896 1.164293 -0.102690 2.138329 1.005190 1.220375 -0.977667 1.828081 0.075772 0.164453 0.064666 -0.631049 -0.394783 1.443067 2.734359 -2.244363 -0.235989 -0.095859 0.864714 1.558824 0.897182 -0.551499 0.133021 -1.036095 0.321929 -1.113390 -1.182570 1.346202 0.970182 0.169149 2.094020 0.387984 -0.276437 -0.044081 -0.056025 0.735362 1.610945 
是 0.868476 0.039313 0.502743 -0.501616 -0.147503 -0.273207 -0.069597 -0.572710 -0.158790 0.102215 0.200620 -0.043155 -0.874561 -0.545791 0.633770 0.412984 -0.088361 -0.422390 0.042151 -0.309771 -0.970494 0.236346 0.802011 0.487277 -0.845522 0.180187 -0.904198 -0.887768 0.470426 0.508322 -0.182347 -0.279644 0.432796 -0.230489 -0.354780 0.932430 0.008188 -0.055564 0.310956 -0.022115 -0.566868 -0.369240 -0.099594 -1.026795 1.125811 0.203142 -0.266288 0.357723 0.201696 -0.378144 
了 0.051301 -0.082431 -0.367898 0.144391 -0.217921 -0.230524 0.226221 -0.513485 0.050625 -0.316350 0.572331 0.340697 -0.781154 -0.343783 -0.096095 0.335247 -0.176430 -0.467878 0.110114 0.489307 0.058871 0.241620 0.291942 0.206439 -0.148780 -0.682341 -0.304852 -0.027578 -0.232769 -0.009635 0.178835 0.075911 -0.416093 -0.033907 -0.801338 0.282087 0.383592 -0.480577 0.090397 -0.010258 0.079480 0.425123 -0.653410 -0.112241 0.587723 0.292582 -0.421212 0.906997 0.654418 -0.155182 
0 0.043499 -0.232653 -0.849612 -1.253482 2.463733 1.049355 1.318762 0.576220 -0.632381 0.320220 0.139884 -0.193279 -0.145894 1.006559 1.485329 -0.643981 1.857952 0.664311 2.351775 -0.755524 1.292060 -0.179401 0.440510 -0.268718 -0.592147 -0.530080 1.041433 2.180780 -2.132386 -0.332377 -0.369999 1.216733 1.376217 0.296694 -0.351673 0.747088 -1.312171 -0.073097 -1.205669 -0.742329 0.908443 1.355975 -0.563709 2.281310 0.837278 0.825045 0.323543 0.248463 0.674006 1.969378 
“ 0.650382 0.429021 0.114735 0.076438 -0.774323 -0.008780 -0.372455 -0.685256 0.270922 -0.072890 0.486639 -0.168102 -0.882969 -0.019162 0.204970 -0.033084 0.353668 -0.039616 -0.226986 -0.577556 0.111654 0.204585 0.520184 0.571339 -0.407848 0.189292 -0.430391 0.079574 0.723412 0.660961 0.675157 -0.156753 -0.805303 -0.419826 -0.209303 0.087303 -0.457900 -0.495690 0.286240 0.051957 0.496376 -0.079241 0.887398 -0.582399 0.937475 0.308267 0.346503 0.116797 -0.051961 -0.368225 
” 0.342314 0.466734 0.361018 0.271367 -0.143341 0.095168 -0.494614 -0.406473 0.440495 0.270054 0.412901 -0.263789 -0.815929 0.003906 0.071694 0.076589 0.405782 -0.085518 -0.073171 -0.428260 0.328515 0.091485 0.125485 0.267215 -0.313453 0.209319 -0.034065 -0.185489 0.873646 0.453601 0.712388 -0.281494 -1.007713 -0.637387 -0.027012 -0.091296 -0.494076 -0.264390 0.557195 0.110626 0.516504 -0.209633 1.177660 -0.666429 0.836958 0.180235 0.383241 -0.107282 -0.307824 -0.145296 
有 0.315550 -0.290033 0.246841 -0.758184 -0.518396 -0.612721 0.364543 0.032603 -0.321618 -0.241468 0.304986 0.603657 -0.561729 0.166173 0.726742 0.348349 -0.445698 0.177731 -0.016242 0.103693 -1.028286 -0.203789 0.370500 0.319158 -0.802472 0.534092 -0.532235 -0.456471 0.103434 0.016319 -0.429615 -0.089090 0.429984 -0.673528 0.301420 1.146739 0.293588 0.124162 0.227100 -0.334099 -0.821421 0.381728 -0.773767 -0.737335 0.469481 0.590600 -0.164978 -0.143336 -0.058770 -0.620387 
不 0.319910 -0.692167 -0.017217 -0.336028 -1.340338 -0.235067 -0.244792 0.152958 0.389624 -0.091750 1.071777 0.246223 -1.102383 -0.180548 0.272880 1.052665 -0.192128 -0.515280 0.294396 0.047414 -1.193359 0.365537 0.339681 0.142173 -0.680641 -1.104996 -1.544100 -0.301593 0.765240 -0.199749 -0.799734 -0.832483 -0.039209 -0.831362 0.099763 0.869742 0.076755 0.129301 0.453354 0.087748 -0.810026 0.011371 -0.940344 -1.420607 1.063312 0.311667 -0.886714 -0.190866 -0.148648 -0.286383 
中 0.393156 0.511346 0.462196 -0.516703 0.248563 -0.093654 0.206538 -0.262609 -0.231361 0.433298 -0.525964 -0.327541 0.805109 -0.196030 -0.031748 -0.647577 -0.389609 0.258749 -0.520510 -0.241450 -0.135359 -0.318291 -0.438895 0.207658 -0.283875 0.895140 0.746492 -0.197636 -0.790029 0.181828 -0.655517 0.414834 0.231668 0.802268 -0.309027 -0.125501 0.473747 -0.510881 -0.408356 0.420473 -0.039643 -0.618600 0.945459 -0.107690 -0.637930 -0.148969 0.243160 0.568244 0.373594 0.134169 
年 1.109825 0.210944 -1.577950 -1.406752 1.938286 0.707433 0.688461 -1.052079 -0.059662 -0.306127 0.197645 0.116401 -0.047073 -0.539414 1.604189 0.142069 0.804084 -0.564195 0.863782 -0.037793 1.317056 0.216413 0.843901 0.946793 0.075106 -0.287382 0.352745 1.922136 -1.575062 -0.110240 -0.956780 1.183782 1.217022 1.643074 -0.495427 0.393289 -1.369986 -0.724144 -0.517922 -0.671412 -0.570850 0.057569 0.579066 0.238250 0.230129 -0.068397 0.016621 0.608858 0.726660 1.539250 
大 -0.053106 0.356401 0.714519 -0.203079 0.232019 -0.291572 -0.052362 -0.980943 -0.312425 0.173115 -0.088541 -0.546127 -0.244954 -0.411772 -0.001487 -0.112288 -0.266998 -0.492773 -0.042226 0.605009 -0.310328 -0.116989 -0.030339 0.147722 -0.263385 0.620467 0.044326 -0.102516 0.173703 -0.334413 -0.201407 0.811035 -0.413294 0.216851 -0.019969 -0.122857 -0.555604 -0.619825 -0.830262 1.162673 -0.538940 0.284082 0.559555 -0.044324 -0.544868 0.231080 -0.049648 0.212603 -0.416521 -0.269660 
国 0.826844 0.584105 1.114803 -0.458528 -0.450100 -0.642218 0.992523 -0.260113 -0.486286 -0.514246 -0.691574 -1.323031 1.053354 -0.481175 0.246948 -0.764715 -1.017533 0.269413 -1.248022 -0.950913 -0.582528 -1.156667 0.119994 0.238498 0.807243 1.642144 1.377442 0.349360 -0.788645 0.026506 -0.650155 -0.629597 1.169737 1.095303 0.955081 -0.096564 0.144514 -0.895532 -0.569115 0.760795 -0.215958 -1.072780 1.212001 -0.487823 -0.794546 0.454806 -0.707119 1.160174 0.484806 0.729852 
2 -0.065691 0.126093 -0.846646 -1.744988 2.441279 1.200179 1.284791 0.521561 -0.836415 -0.010586 -0.175795 -0.668378 0.335161 0.734796 1.298231 -0.251192 2.069592 0.862277 1.470373 -0.787531 1.957791 -0.028704 0.062083 -0.094115 -0.417060 -0.770745 1.336781 2.328921 -2.064418 -0.376764 -0.067161 0.978936 1.593865 0.979156 -0.495526 0.575640 -0.873383 0.044071 -1.201148 -1.076465 1.058519 0.581955 0.003409 2.218935 0.517418 0.076646 0.280793 -0.253691 0.599071 2.115123 
为 0.472219 -0.092544 0.361908 0.053403 0.098743 0.351331 -0.304995 -0.174859 -0.318318 -0.087586 -0.196133 -0.058845 0.166196 0.612775 0.488432 0.451657 0.360747 0.233342 -0.105257 -0.048515 -0.295976 -0.349338 0.146745 0.318330 -0.473094 0.314781 -0.000872 -0.594332 -0.290280 0.434932 0.059051 -0.498094 0.206559 -0.154643 0.260175 0.622771 0.333119 -0.025298 0.288761 0.289555 -0.438343 -0.451871 0.248746 -1.123256 0.177064 0.583853 -0.196819 -0.051148 -0.371280 0.138855 
上 0.484327 0.508904 0.138407 -0.630091 0.041261 -0.570341 0.123394 -0.272809 0.226315 -0.141699 0.113013 0.290011 -0.261233 0.256712 -0.012910 0.338679 0.180956 -0.113136 -0.100490 0.066975 0.429463 0.614524 0.008586 -0.129448 -1.005570 0.015917 0.064905 0.047105 0.009357 -0.250293 -0.226168 0.472747 0.065016 -0.122820 -0.263283 0.146728 -0.365976 -0.989174 -0.111375 -0.059197 0.029608 0.697485 -0.322498 0.890749 0.604514 -0.970194 -0.511183 0.129737 0.906008 0.185053 
和 -0.194633 0.087466 -0.212635 0.230159 -0.192497 -0.147212 -0.002930 0.149855 -0.005834 -0.384315 -1.046535 -0.141175 0.723477 0.235612 0.017710 -0.684797 -0.609520 0.509688 0.114981 0.141518 -0.676457 -0.428559 -0.824852 0.158342 0.303947 0.193610 0.524932 -0.393099 0.031580 -0.130042 -0.513715 0.042172 0.287383 -0.461458 0.628873 0.623734 0.480636 -0.360866 -0.082466 1.134304 0.147656 -0.744567 0.477673 -0.313719 -0.838359 0.326871 0.442591 0.551090 -0.726285 -0.481019 
会 0.334278 0.595189 -0.095380 -0.000585 -0.791004 -1.467882 0.814610 -0.460770 0.085610 -0.102142 -0.460051 -1.401018 1.721823 -1.552547 -0.428940 0.080172 -0.127289 -0.274999 -0.666721 0.430353 -0.210046 0.586581 0.219474 -0.214471 -0.721275 -0.757272 1.405404 0.563448 0.197416 -0.582154 0.356317 0.687675 0.338027 1.149262 0.606193 0.967770 0.197411 -0.854615 -0.418135 2.087669 -0.376928 -1.290993 -0.092015 -1.085095 -0.758536 1.168756 0.254703 0.536078 0.152268 -0.737121 
发 0.567390 -0.091416 0.226610 0.278614 -0.274402 -1.033731 -0.127397 -0.432158 -1.384445 -0.721320 0.674744 0.356708 -0.344335 0.983500 -0.709276 -0.665615 -0.873224 0.197127 -0.582005 0.270114 0.549765 -0.295588 -0.339374 0.464336 -0.075952 -0.836625 1.416944 -0.175598 -1.000256 -1.167442 1.008362 -0.758523 -0.240118 0.820035 0.403172 0.509744 -0.147827 -0.874694 -0.976204 0.623587 -0.704407 -1.116267 -0.195271 -0.090425 -0.911424 0.206492 0.047339 0.520771 0.015778 -0.328463 
到 -0.658284 -0.316932 -0.420934 -0.683197 -0.220645 -0.155891 -0.113997 -0.149254 -0.159671 -0.012073 0.490214 -0.359428 -0.936964 -0.369188 0.444492 0.642740 0.432923 -0.621904 -0.213447 0.392840 -0.044262 -0.017763 0.364202 0.603356 0.040164 -0.938025 -0.537389 -0.278573 -0.189729 -0.486302 0.220570 0.349830 -0.571711 0.697858 -1.231803 0.861182 0.213445 -0.529776 0.023600 -0.817730 0.529832 0.732643 -1.044643 0.581238 0.610629 -0.035830 -0.954084 0.453596 0.406788 -0.852808 
日 -0.137009 0.890359 -0.074291 -1.940286 0.214605 0.715488 0.481744 0.434695 -0.279910 -0.813760 -0.376545 -1.156230 1.707481 0.444496 0.568706 0.242928 1.715022 0.214017 -0.611370 -0.893325 1.749145 0.161253 0.426130 -0.168782 0.004633 0.005811 1.175651 2.067052 -1.429994 0.475500 0.047786 -0.617917 0.928426 2.249465 -1.046104 -1.104207 -0.612059 -0.101917 -0.712322 -0.949848 0.542186 0.595883 0.360230 0.347716 -0.290745 -1.487284 -0.727731 0.671890 1.825045 0.632667 
时 -0.292740 0.411258 -0.452776 -1.215957 -0.282561 -0.493818 0.339504 0.524538 0.313252 -0.241501 1.053810 0.300207 0.239618 -0.228207 0.244778 0.370896 0.423757 -0.354606 -0.261746 0.285669 -0.016769 1.324017 0.984016 -0.382733 -0.785990 -0.830287 -0.288036 -0.087480 0.097182 -0.833631 -0.756528 0.565851 0.403666 0.677460 -0.517894 -0.212283 -0.158113 -0.195047 0.571123 -0.732516 -0.246708 0.626007 -0.985479 -0.167099 -0.157328 -0.813661 -1.676819 0.223820 0.767757 0.236244 
出 0.705314 0.034372 0.815231 0.567728 -0.459697 -0.505470 0.645077 -0.105827 -0.250685 -0.425920 0.146628 0.494476 0.023365 0.276565 -0.370715 0.319927 -0.328482 -0.044885 0.396154 0.318772 -0.075944 0.340268 -0.078391 0.095515 -0.273006 -0.490845 -0.343739 -0.106563 -0.657515 -0.755261 0.886992 0.084195 -0.677500 0.342707 0.172177 0.479906 0.481640 -0.264001 -0.456176 -0.277639 -0.148297 -0.148290 -0.114354 0.640614 -0.046937 0.267589 -0.572909 0.811458 0.804082 0.275540 
这 1.036986 -0.659640 0.279161 -0.783366 -0.577509 -0.717374 0.184979 -0.644859 -0.111394 0.067518 0.567244 0.137054 -1.314280 -0.252410 0.247103 0.509977 -0.449908 -1.042228 -0.581104 -0.533121 -0.327336 0.234904 1.178707 0.463072 -0.706854 -0.268379 -1.106576 -1.328494 1.021114 0.145421 0.105968 0.445255 -0.160358 -0.520852 -0.807633 0.647291 0.406168 0.160935 0.046775 -0.205722 -0.369205 -0.444208 0.217082 -1.098619 1.327653 1.036626 0.142924 0.955808 0.838143 -0.360500 
生 -0.523790 -0.017321 -1.133788 -0.430709 1.429435 0.031402 -0.565183 -0.397974 -0.040738 0.848008 0.515362 0.375368 -0.645638 0.422163 0.475216 -0.385607 0.685911 -0.213428 -0.512410 0.531384 -1.208035 -0.050473 -0.713444 -0.261619 0.047657 -0.156731 0.129344 -1.471435 -1.016040 -0.191605 0.477668 -0.017646 0.405715 0.039075 0.171297 1.545241 0.787746 0.686849 -0.547800 -0.289617 -0.392367 -0.518206 0.260834 -0.957371 -1.190704 0.088329 0.374126 -0.281211 0.133929 -0.742295 
个 0.769065 0.174263 -0.376770 -0.808040 1.041529 0.416884 0.061319 -0.571226 0.756637 -0.392835 0.112937 0.393473 -1.130564 -0.579745 0.402910 0.075430 0.107981 0.434574 -0.142707 0.629105 -0.079791 0.433156 0.680225 -0.381689 -0.978626 0.934426 0.124814 0.110765 -0.138700 -0.046501 -0.246962 1.167964 0.488742 -0.602726 -0.723427 0.782857 -0.529428 -0.583576 -0.100119 -0.206848 -0.100169 0.204807 0.157855 -0.210215 1.063589 0.527862 -0.511339 1.026663 0.382799 -0.544876 
行 -0.527723 -0.814739 0.211475 0.832245 -0.133364 -1.173490 1.495443 0.121568 -0.169045 0.080742 -0.153835 0.425784 1.509276 0.104028 0.325956 1.047189 -0.803237 1.765396 0.447673 0.486477 0.141189 -0.474923 0.293414 0.348455 0.256653 -1.598882 0.961045 0.261475 0.099545 0.248517 -0.328830 0.631243 -0.681918 -0.551415 -0.002834 -1.511425 0.540259 -1.242376 0.275927 0.253532 0.629276 -1.987186 -0.094241 0.237990 -0.392759 -0.005823 -0.562508 -0.224611 -0.284330 0.275105 
要 0.879475 0.194230 -0.276575 0.742659 -0.709058 -0.439644 0.148613 0.848872 -0.312954 -0.891229 -0.466386 0.238007 -0.063932 0.019926 0.320072 0.171368 -0.748496 0.527721 0.857912 1.261901 -1.186924 0.058383 0.290979 0.606001 -0.870776 -0.634286 -0.914100 -0.354888 0.247633 -0.495727 -0.422990 0.366943 0.207671 -0.231518 -0.200504 1.762172 1.495969 -0.135767 0.842980 1.497051 0.530039 -1.254949 -0.500969 -1.316033 -0.322489 0.331096 0.313007 0.541085 0.111753 -0.485248 
家 0.033605 0.110978 -0.766498 -1.219447 0.335255 0.307167 0.392939 -0.480335 -0.173988 0.382973 0.507967 0.286432 0.112058 -0.205697 0.171157 -0.146523 -0.144065 -0.654302 -1.210350 0.113198 -1.484437 -0.627867 0.683179 -0.125855 1.371759 1.034722 0.550625 -0.359276 -0.581208 -0.580357 0.133815 0.989058 -0.110954 0.216433 -0.262792 1.375615 0.686612 -0.873361 -0.279677 0.062554 0.283410 0.306239 0.152633 -1.052205 0.191292 -0.140367 0.219338 0.537254 -0.265885 -0.444049 
对 0.633613 -0.222775 -0.013276 0.099988 -1.040698 -0.539503 0.533693 0.601605 -0.697922 -0.203155 -0.571276 -0.480681 0.877075 0.218716 0.049985 -0.175716 -0.387553 -0.199321 -0.522438 -0.449655 -0.410676 -0.011213 0.002057 0.553364 -0.250176 0.280278 0.243119 -0.286656 0.163573 0.412904 -0.367335 -0.481496 -0.766507 -0.239709 0.137384 0.752006 1.032127 -0.736863 -0.174244 -0.279764 -0.717938 -1.032501 -0.286020 -0.315621 -0.696372 0.481332 -0.803354 -0.007848 0.198316 -0.407729 
来 0.252068 -0.033051 0.236134 -0.467475 -0.184386 -0.543204 0.041538 -0.566411 -0.193218 -0.289944 0.462587 -0.323174 -0.984207 -0.451659 0.283675 0.582892 -0.233125 -0.708631 -0.123269 0.796092 -0.600562 -0.150167 0.597978 0.576831 0.565458 0.157677 -0.852963 -0.426547 -0.179009 -0.706684 -0.302500 0.175295 -0.414884 0.814873 -1.383966 0.421374 -0.139343 -0.588356 0.431214 -0.514395 -0.328375 0.426848 -0.636664 -0.208215 0.225707 -0.841165 -0.290392 1.029443 0.491481 0.028247 
地 0.204847 -0.257805 0.439505 0.375571 -0.520405 0.205027 0.379451 -0.560233 -0.485719 -1.278427 -0.192587 0.478931 -0.158775 0.742811 1.170974 -0.288236 -0.875245 -0.062015 -0.274638 0.642976 -0.554090 -0.708033 -0.311691 0.412761 0.277172 0.406037 0.642682 -0.502058 0.142804 -0.410983 -0.661592 0.350249 -0.513025 -1.096280 -0.242273 0.503469 -0.150321 0.380120 -0.979066 0.855346 -0.251736 0.481939 0.067615 0.589106 -0.389398 -0.423596 -0.305699 0.117136 -0.412358 -0.833510 
以 0.005826 -0.094224 -0.084471 -0.110096 -0.322462 -0.104614 0.657445 0.591829 -0.306312 0.034396 -0.013986 0.170908 -0.035441 -0.007123 0.464888 0.708581 0.265684 -0.411451 0.325441 0.360512 -0.416173 -0.348028 -0.074064 0.341908 -0.494759 -0.406541 -0.242415 -0.160988 -0.117172 0.206213 -0.705760 -0.092694 0.233563 -0.603000 0.539770 0.420208 -0.104972 0.372133 0.155431 0.294223 -0.374468 -0.354859 -0.074383 -0.318720 0.397500 0.197463 -0.367574 0.177826 0.212182 0.003047 
作 -0.368273 0.026981 0.082233 0.493131 -0.149457 -0.360130 -0.565114 -0.384178 0.130016 -0.029143 -1.144156 0.535109 1.495814 0.341466 -0.534455 0.554944 -0.811225 1.061667 0.349717 1.664063 -0.308699 0.327150 -0.749287 0.909809 -0.029708 -0.056305 0.440618 -0.455128 -0.058712 -0.027322 -0.262803 0.788810 -0.115269 -0.239135 -0.470426 0.848753 1.382593 -0.586834 -0.193986 1.663804 0.293133 -1.743849 0.366485 -0.404207 -0.950083 0.856675 0.599486 0.647177 0.252610 0.296553 
3 -0.020112 0.041199 -0.451719 -1.721964 2.326436 1.047654 1.293022 0.476486 -0.684200 0.183345 -0.301777 -0.634858 0.207956 0.956769 1.311046 -0.224413 1.963410 0.751174 1.351809 -0.583718 1.712720 -0.334937 0.048875 -0.226481 -0.698253 -0.626288 1.162913 2.080616 -1.798650 -0.451169 -0.049567 1.111286 1.742331 0.227251 -0.167633 0.494045 -0.917941 0.069142 -0.959059 -1.218593 0.794311 1.036228 -0.081951 2.479473 0.338740 0.270523 0.096673 0.010561 0.376675 1.605182 
市 0.401824 -0.293149 0.602149 -0.403441 0.388316 0.507554 0.807584 -0.474708 -0.913287 -1.032126 -0.677984 -0.295651 1.960463 0.563489 1.004269 0.826459 -0.180206 0.936322 -1.226076 1.317270 0.228429 -0.743967 -0.119616 0.274336 -0.009432 -0.251806 0.344821 0.566406 0.097909 -1.662352 0.813734 1.598038 -0.421947 1.325377 0.625256 0.308740 -0.270755 -0.048676 -2.257856 1.481146 0.470229 -0.548759 0.131949 1.465346 -1.270834 -1.389909 0.995831 0.177080 -1.802008 -0.687554 
公 -1.208253 -0.021216 -0.146873 -1.417274 -1.166448 0.344000 0.537975 1.206720 0.021805 -0.273250 1.258828 0.846248 1.509478 0.519911 1.339177 0.671609 -0.319019 1.970351 0.011217 -0.207459 -0.280825 -1.398986 0.438507 -0.432284 0.442539 -0.477453 1.608494 0.616632 0.264499 -1.217964 0.898323 1.501004 0.286572 -0.510506 1.728825 -0.968659 0.026064 -0.780178 -1.357231 0.608707 0.464945 0.045629 -0.849111 0.591227 -0.258199 0.287203 0.490601 -0.066957 -0.828757 0.138661 
工 -0.944856 -0.500160 -1.188109 -0.102289 0.837660 -0.097927 -0.877443 -0.545267 0.300327 -0.434383 -0.972324 1.399297 1.061831 0.341306 -0.121976 0.508717 -0.423849 1.266095 -0.781436 2.868214 -0.614702 -0.179564 -0.759753 1.043081 0.645038 0.022675 0.821862 -0.266995 0.354726 -0.604446 -0.366062 1.856750 -0.288189 0.487830 0.338514 0.856494 1.025673 -0.728266 -0.208169 1.240834 1.667960 -0.878795 -0.132771 0.101913 -0.857303 1.070846 0.362084 0.560302 -0.746662 0.749624 
后 0.034192 -0.155181 -0.728163 -0.062765 0.008558 0.302727 0.250694 -0.053120 -0.098756 0.413764 0.995144 0.598006 -0.692131 -0.405179 -0.330837 0.481247 0.091475 -0.499807 -0.053376 -0.065705 0.863067 0.383099 0.170687 -0.184667 0.045962 -1.097418 -0.233064 -0.252835 -0.109593 0.144290 0.487355 -0.184367 -0.539993 0.790093 -0.575994 0.192811 0.395206 -0.763379 0.678485 -0.529711 0.231219 0.479422 -0.309029 0.267806 -0.062733 -0.688576 -1.521714 -0.131254 1.002972 0.977037 
他 0.425937 -0.543762 -0.646870 -0.730738 -1.095141 -0.689935 -0.208854 -0.054230 0.367789 0.265852 0.680111 -0.250248 -0.982574 -0.905390 0.223435 0.467447 0.181461 -0.792004 -0.412967 -0.501921 -0.375456 0.344582 0.846187 0.060075 0.226214 0.053156 -1.640726 -0.655045 -0.236125 0.373118 0.126623 -0.103651 -0.565250 0.203187 -0.643205 1.482071 1.128398 -1.067878 1.307594 -0.041999 0.113101 0.741308 -0.964457 -0.868505 0.640348 0.214225 -0.859671 0.162728 0.983532 -0.085175 
成 -0.211188 0.074470 -0.320437 0.266042 1.537872 -0.329158 0.318857 -0.916145 0.011256 0.465176 -0.355786 1.186553 -0.136488 0.575563 -0.038266 0.461209 -0.854310 0.000353 0.452713 0.887449 0.262258 0.239877 -0.382339 0.147176 -0.345800 0.151068 0.757669 0.164253 0.555796 0.643541 -0.509465 -0.413311 1.271580 0.218115 0.681724 -0.315956 -0.244820 -0.184043 -0.667933 0.549064 -0.521497 -0.850935 0.101134 -0.258865 -0.315844 0.853490 -0.312092 1.216620 -0.650371 0.411304 
多 0.571489 -1.185091 0.404840 -1.296193 0.185652 -0.217858 -0.136070 0.149327 0.117938 0.789429 -0.098041 -0.319181 -0.802327 -0.082314 0.568803 0.211000 -0.033751 -1.332273 -0.232609 0.831409 -0.728201 -0.536784 0.475809 -0.225659 -0.230930 -0.546188 -0.113883 -0.383484 -0.754791 -0.302874 -0.711778 0.281733 0.231890 -0.231417 -0.122614 0.405030 -0.246333 0.071821 -0.361428 -0.187959 -1.291015 0.941069 -0.799567 -0.157566 0.616316 0.683072 -0.543821 1.188410 0.288438 -0.601037 
业 -0.470448 -1.614444 -0.337378 -0.300912 0.524201 -0.666840 -0.875941 -1.370618 0.070784 1.147355 -1.208477 2.041409 -0.008010 1.068503 -0.177330 0.245158 -0.599334 1.115744 -0.670592 2.502099 -1.588004 -2.067347 -0.911763 1.385041 0.843361 0.614345 1.751176 0.065674 -1.276265 -0.303394 0.481082 1.796930 0.608384 0.161741 1.731303 1.195320 -0.677925 -1.506049 -2.266339 0.652590 0.140227 -1.811668 0.204827 -1.410287 -0.683164 0.742260 0.573365 0.894987 -2.179853 1.852787 
新 1.013630 0.590212 0.330272 0.369855 -0.236851 -0.926003 -0.524764 -1.609897 0.021181 -1.125415 -0.506179 -0.235848 -0.060130 1.227386 -0.508406 0.668751 -0.275897 0.274953 0.240193 -0.271076 -0.596349 -0.463276 0.102272 1.614404 1.057014 -0.504667 2.319754 -0.071771 -1.078663 0.063007 0.277243 0.124275 -0.041892 0.437780 0.079024 -0.879414 -0.544845 -0.310845 -1.322870 1.126478 0.374866 -0.942459 0.717504 0.340809 -1.386552 -1.067046 0.962856 0.588682 0.328097 0.647953 
部 0.135396 0.021795 -0.627385 -0.509633 -1.408785 0.095754 0.166894 0.906354 -0.702671 -1.225208 -0.662513 0.284113 2.251860 -1.263090 0.805681 -0.542901 -0.411562 1.190067 -0.187738 1.106928 0.552887 -0.879164 -1.308033 0.234196 -0.355881 1.383282 -0.680368 0.189775 0.437078 -0.596737 -1.370572 2.414537 -0.730742 0.034007 0.445658 -0.814812 1.756220 -0.528141 -1.525828 0.525402 1.603241 -0.901669 0.703163 0.314776 -0.115709 -0.060502 -0.141773 1.108249 -0.280065 -0.156111 
方 0.544114 -0.625917 0.143032 0.168550 -0.532738 0.281740 0.427823 0.517249 -0.705165 -0.447392 -0.194077 0.585625 0.800752 0.924714 0.303877 0.174933 -0.325720 0.659971 0.099716 0.458349 1.157069 -0.479596 0.404199 0.586742 0.466372 -0.716769 0.867777 -0.352052 0.031733 0.392525 -0.184982 -0.562794 -1.056182 -1.523942 0.641197 0.628743 1.141876 -0.288373 -0.417582 0.541344 -0.620311 -0.288602 -0.574753 0.583397 -0.242502 -0.033120 -1.573269 0.155324 1.243151 -0.724429 
我 0.939868 -0.185890 -0.411961 -0.926808 -1.052826 -0.971897 -0.602661 -1.316212 0.418735 -0.333937 1.112909 -0.874519 -1.630191 -0.829375 0.381469 0.565294 0.045781 -0.225508 -0.120276 -0.086359 -0.699622 0.573035 0.824308 0.942998 0.282897 -0.115242 -2.299727 -0.417667 0.128739 -0.037301 -0.055707 0.048647 -0.173867 0.329363 -1.082339 1.518942 0.563627 -0.577034 0.961679 0.745102 -0.013309 -0.153142 -0.573830 -1.255210 0.528816 0.359241 -0.124502 1.222887 1.075593 -0.484302 
民 0.111525 0.466659 0.257438 -0.413653 0.185198 1.819481 0.073983 0.375481 0.262545 -0.319217 -1.268209 -1.152093 1.295013 0.236828 0.374714 0.275169 0.365582 -0.352645 -0.685959 0.736555 -0.024540 -1.795544 -1.719574 1.084001 1.468080 -0.575425 0.932745 0.589654 -1.053787 -0.992934 0.471008 -0.143318 -0.234600 -0.030405 0.012689 1.206847 1.560356 -0.595635 -0.976043 1.867707 1.001415 0.243903 -0.054228 0.172022 -0.405390 0.213068 0.552318 1.730003 -0.358509 -1.529707 
现 0.764680 -0.714073 0.092836 0.304685 -0.115794 -0.110457 -0.126455 -0.263831 -0.519054 -0.248688 0.594465 0.437397 -0.427916 0.338733 -0.413374 0.170855 -1.525077 -0.448263 0.007436 0.189113 0.215736 0.166919 -0.052757 0.927047 -0.667175 -0.579257 0.414108 -0.984158 -0.147131 -0.057338 0.038375 0.228791 0.355546 0.405877 -0.482119 0.594280 0.633679 -0.257283 -0.408787 -0.546526 -1.209350 -0.389319 -0.357353 0.401344 0.232255 0.212971 0.255963 0.803403 -0.246826 -0.637243 
全 -0.091521 0.411718 -0.546959 0.420302 0.733427 -0.012779 0.754181 -1.219815 0.322444 -1.317755 -0.201858 -0.391780 0.789383 0.264668 0.338488 -0.242835 -0.119883 1.389703 0.098907 1.189380 0.666695 -0.704678 -1.424672 -0.064651 -0.386827 -0.438645 0.876323 0.498202 0.151526 -0.827841 0.252733 0.855705 0.948887 0.748162 1.510036 -0.014024 0.705405 0.561711 -0.719465 1.038877 -0.607721 -0.509414 0.510156 0.263447 -1.060036 0.699672 0.021101 1.353708 0.232344 -0.251612 
经 1.080344 -0.393620 0.079785 0.617953 1.281459 -0.543444 0.505833 -1.565699 -0.788362 -0.005497 -0.057852 1.219436 0.970643 -0.207379 -0.690265 0.244367 -1.221471 0.073342 -0.561584 0.704708 -1.859821 -1.285339 0.616094 0.543877 0.478773 -0.631030 0.657598 0.707129 -1.118719 -1.098020 -0.367832 -0.894621 1.840028 0.456111 0.041794 0.453487 0.815242 -1.484606 -1.011704 -0.191653 -0.877796 -1.101760 -0.403381 -0.472412 -1.220052 -0.958910 -0.970110 0.375018 -0.302483 0.082704 
月 0.063885 0.279068 -1.227624 -2.282909 1.739523 1.391289 0.978258 0.293807 -0.016259 -0.917066 0.377934 -0.602930 0.985462 0.344797 1.348080 1.014671 1.854798 -0.183084 0.397289 -0.691059 2.548347 0.145729 0.194783 -0.495083 0.436764 -0.358519 1.407782 3.569898 -1.147702 0.097011 -0.064123 0.335884 2.076502 2.181599 -1.062369 -0.078863 -1.445993 -0.351771 -0.710372 -1.205631 1.365876 0.340662 0.429722 1.297648 -0.452323 -0.873361 -0.230299 0.024472 2.028523 1.039274 
进 0.221133 -0.501680 -0.076349 1.509629 0.441894 -0.766268 -0.225754 -0.449032 -0.012925 -0.909376 0.290805 0.785251 0.125526 1.204771 -0.723382 0.577931 -0.642033 1.347927 -0.142906 2.397442 0.960930 -0.465192 -0.495696 0.188724 0.508982 -0.853735 0.995738 -0.990796 -0.334966 0.490460 -0.075446 0.158337 -0.333446 -0.708758 0.091507 -0.115985 0.683905 -0.824032 -0.347872 1.685582 -0.145735 -1.833466 -0.178685 0.449880 -2.123677 -0.291198 -0.722276 0.424256 -0.481123 0.328474 
开 0.025041 -0.351225 -0.787294 -0.874853 -0.070751 -0.501707 0.760803 -0.711919 -0.049104 -0.508683 1.222518 0.558564 -0.603562 -0.319836 -0.224651 0.150737 -0.276614 -0.126230 0.792770 1.140964 1.407664 -0.373877 0.134916 0.571898 0.918011 -1.605206 1.213679 -0.304915 -0.489259 -0.531201 1.196366 0.691745 -0.559699 0.720341 -0.289681 -0.278207 -0.692387 -1.148642 -0.926064 1.960693 0.201179 -1.681247 0.801915 0.854872 -0.948723 -1.128243 -0.993386 -0.149761 1.035510 -0.029574 
过 0.326626 -1.404078 -0.413855 0.080393 0.479413 -0.075334 0.088037 -0.353317 -0.060769 0.813381 1.253909 -0.152147 -0.626979 -0.060182 0.055244 0.005946 0.176696 -0.437768 -0.168430 0.644519 -0.090786 0.885475 0.766644 0.291228 -0.193627 -0.715970 -0.619770 -0.207616 0.335561 -0.450582 -0.629785 0.364866 0.730052 0.425303 0.114635 -0.697192 0.211652 -0.933657 0.625124 -0.667976 0.359282 -0.347143 -0.997923 0.047921 0.224253 -0.110136 -0.548453 0.471681 0.428615 0.019120 
能 -1.215634 -0.639804 -0.424427 -0.095986 -1.073132 -1.151986 -0.470809 -0.865917 -0.637899 -0.168090 0.589924 0.093642 -1.249050 0.729719 0.420035 0.472905 -0.523282 -0.007657 0.917590 0.887843 -1.434046 0.012223 -0.474531 0.299210 -0.677914 -0.866753 -1.750613 -0.685522 0.848316 0.608625 -0.910130 -0.710017 0.629021 -0.586089 1.239344 1.148596 -0.249160 0.546654 0.894862 0.529558 -0.590459 -0.561616 -1.194313 -1.076714 0.108060 0.316240 -0.797856 0.308229 0.188108 0.437527 
者 -1.092627 -0.240613 0.220461 -0.350050 -0.800131 -0.911101 -1.001094 0.560821 0.091823 0.813244 0.099348 -0.620824 1.644832 0.457889 -0.119325 1.260428 0.407399 -1.506632 -0.818873 0.414907 0.042696 -0.385943 0.069778 0.017607 0.538507 -0.054827 0.348506 1.177553 -0.728330 1.680337 0.279707 -0.644603 -0.609722 0.822160 -0.003155 0.554196 0.786534 -0.071403 0.645982 -2.392760 1.293503 0.115853 -0.917148 -0.053781 -0.446761 -0.905362 0.451689 0.477139 1.656037 -1.052513 
于 0.320388 -0.298009 0.361344 -0.789468 -0.122522 0.408608 0.557001 0.189313 -0.883574 0.098726 0.141573 0.418540 0.069166 -0.044132 0.972350 0.036876 0.050418 -0.156390 -0.394630 -0.059138 0.515690 -0.217345 0.269210 0.169850 0.323026 0.050025 0.240511 0.634656 -0.164375 0.436292 -0.843579 0.226524 0.506381 0.108747 0.323130 0.401238 -0.143032 0.125647 0.043782 -0.077787 -0.768806 -0.246632 0.051562 -0.717870 -0.756504 -0.047762 -0.635814 -0.387448 0.117119 0.458451 
前 0.521851 -0.131928 -0.386162 0.196699 0.844100 0.043920 0.977837 0.268722 -0.219908 -0.332663 0.350082 -0.070686 0.064154 -0.114648 0.884636 0.277024 -0.675533 0.154412 -0.649800 -0.179004 0.108841 0.707634 0.606327 0.258947 0.213837 -0.373148 -0.112556 -0.418769 0.009628 -0.053709 0.219854 0.021039 -0.276470 0.844839 -0.620151 0.056801 0.443335 -0.273212 -0.727376 -1.046205 -1.041050 0.233611 -0.306544 0.939911 -0.508758 -0.795446 -0.919396 0.696608 1.325728 0.777533 
也 0.313407 -0.557428 0.196321 -0.715204 -0.765042 -0.573672 -0.009614 -0.250448 0.066762 -0.015387 0.588727 -0.257554 -0.810148 -0.302306 0.054838 0.522951 -0.226643 -0.557384 0.010788 0.164310 -0.857643 0.399171 0.331685 0.440055 -0.123578 -0.368560 -0.966253 -0.788977 0.613750 -0.078286 -0.410301 -0.323635 -0.179450 -0.124272 0.062616 0.969764 0.010200 -0.260843 0.479297 -0.105743 -1.039249 0.183925 -0.999198 -0.721752 0.667270 0.180849 -0.534707 0.316491 0.208723 -0.156760 
子 0.611037 -0.808605 -1.432520 -0.220614 1.343392 0.143985 -0.284485 0.226930 1.316370 0.122952 -0.178034 0.774598 -1.589698 -0.596615 -0.790866 0.482167 0.382787 -0.883773 0.192496 -0.751284 -0.291539 1.423576 -0.211923 -0.978854 0.664718 0.961697 -1.186922 -0.564336 0.508034 0.184143 1.565495 0.440292 -0.422175 -1.344207 -0.591989 1.114709 1.613284 -0.563105 1.582328 -1.312976 0.155685 1.704982 0.251621 -0.116423 0.229245 -0.901047 -0.679242 0.185561 0.710788 -1.094175 
下 -0.156683 0.532292 -0.461044 -0.208503 -0.234997 -0.225126 0.057404 0.662924 0.270428 0.069690 0.084159 0.582581 -0.761277 -0.228718 0.332387 0.771178 -0.035986 -0.060698 -0.181980 0.662383 0.482219 0.551622 -0.469785 0.114269 -1.069513 -0.281933 -0.313456 0.312055 -0.032275 -0.430759 -0.946649 0.611355 -0.189941 0.018932 -1.238729 0.817956 -0.314183 -0.490484 -0.193555 -0.005039 0.328060 1.037500 -0.399023 0.702891 0.441420 -1.205025 -0.891943 -0.276002 0.070147 0.679500 
就 0.503275 -0.087889 -0.619946 -0.483383 -0.502956 -0.588797 -0.165360 -0.539260 0.251035 0.008591 1.134164 0.439976 -1.224255 -0.376074 0.219223 0.604581 -0.335052 -0.322223 0.364363 0.563030 -0.565210 0.542597 0.131376 0.212446 -0.396296 -0.346036 -1.091431 -0.592479 0.496698 -0.049802 -0.003382 0.203395 0.092618 -0.142363 -0.888141 0.910732 -0.417317 -0.662575 0.166240 0.073424 0.173578 0.336392 -0.298432 -0.889457 0.936375 -0.162788 -0.710707 0.822048 0.685627 -0.043190 
实 0.343018 1.075889 -0.752248 0.477378 0.326071 -0.298398 -1.250530 -0.624995 -0.676699 -1.285214 -0.207000 0.949867 0.339582 0.546172 0.147356 0.771240 0.044396 1.191481 1.024312 1.160697 0.134350 -1.031687 0.039074 1.655165 -0.276029 -0.625145 0.684535 0.411372 -0.309205 0.199905 -1.499989 -0.365629 0.746731 -0.912857 0.594220 0.606462 1.027581 -0.313454 1.171245 0.862456 -0.450565 -2.785400 0.025932 -0.446899 -0.377074 0.342656 -0.153236 0.582873 0.004405 -1.046144 
自 0.102341 -1.401178 -0.988705 -1.534955 -0.429304 -0.518232 -0.969470 -0.619684 1.194260 -0.404661 -0.713237 0.275824 -0.167414 0.769010 0.661402 0.942694 -0.830136 -0.556844 -0.316404 -1.404827 -0.442377 -0.534315 -0.792167 0.020806 0.440598 0.382631 -0.545240 -0.109839 -0.479268 0.452687 0.278501 -0.191484 -0.319678 -0.850256 0.144642 1.499740 1.063947 -0.672397 1.722583 0.026977 -0.832646 -0.446189 -0.104066 -1.269401 0.676771 -0.490502 -0.290679 0.354742 0.886260 0.828303 
： 0.726515 0.553891 0.473405 -0.124649 -0.672453 0.033591 -1.488853 -0.190065 -0.354234 -0.095260 0.319052 -1.026461 -0.653237 0.350145 0.170051 0.073031 0.844081 0.243177 -0.582209 -0.840705 -0.642947 0.936396 1.138029 0.328579 -0.554898 0.398588 -0.629789 0.543403 0.843922 1.167077 0.455622 0.218105 -0.220012 0.453817 -0.031482 0.750939 0.259977 0.351192 -0.263686 -0.718978 0.941420 -0.056076 0.186095 -0.661092 0.394288 -0.083348 0.800865 0.186345 0.831729 -0.688626 
学 0.810084 0.692257 -0.190637 -0.915961 1.437908 -0.809431 -2.793491 -1.183786 0.144933 2.363955 1.829118 0.251455 1.492595 -0.506097 1.096395 -0.668662 0.117358 -0.436554 -0.799653 1.466221 -1.594706 1.146985 0.176974 -0.499318 -0.040784 0.853183 -0.405047 -1.608848 -2.720860 0.653100 -0.803994 0.302887 0.021794 -1.050254 1.163734 1.054168 0.198729 -0.213256 -0.807147 1.287636 0.857080 -1.269385 1.241208 -1.279487 -1.380453 0.465586 0.028248 0.506779 1.350311 -0.526630 
用 -1.293045 -0.930950 0.332847 -0.373652 -0.152416 -0.768914 0.544350 0.776414 -1.039402 -0.388770 -0.030691 1.742684 -0.125624 0.910938 -0.614476 0.524153 0.196932 0.624727 0.440900 0.948188 -1.486033 -0.989235 -1.114164 -0.082713 -0.181616 -0.409638 0.180314 -0.754582 0.318197 0.428092 -0.692307 -0.052077 -0.509194 -1.491850 1.484956 0.027328 -0.991372 0.588177 0.472723 0.680165 1.091588 -0.260192 -0.693614 -0.984742 -0.012966 0.374606 0.109734 -0.195688 0.957444 0.706216 
动 -0.599404 -0.379572 -0.471343 0.241606 -0.831857 -1.329243 0.828036 -0.254631 0.595820 -0.172086 -0.424918 -0.375473 -0.427927 0.943949 -0.671131 0.979094 -0.025829 0.117343 0.427254 1.251892 0.785147 -0.409039 -1.948213 0.156083 0.488460 -1.280862 1.295080 -2.582698 -1.204580 -1.345555 0.167008 -0.767006 -0.468144 -1.049959 0.404465 -0.296679 0.007559 0.164512 0.033042 1.057195 -0.572578 -1.772128 0.671879 -0.484666 -1.663508 0.184048 0.465194 -0.028138 0.227208 0.721569 
车 -1.363836 -0.544445 -0.260223 1.671363 0.051113 -0.272496 0.810618 2.747164 0.452116 -1.606693 1.357924 -0.391747 -0.922035 0.463770 0.936006 1.695843 -0.310153 1.416254 0.749995 1.088087 0.547684 -0.904950 0.946988 1.086230 -1.933015 -1.704905 0.144853 -1.376517 -0.401777 -1.141734 2.266944 2.347447 1.777115 -0.558571 0.549563 -2.122187 -0.909528 -2.102291 1.291338 -1.644617 0.536860 1.913846 -0.638223 0.766628 1.001672 -2.674116 -0.841195 -0.311707 -0.587605 0.706493 
4 -0.366794 0.013326 -0.680459 -1.227461 2.397962 1.289785 1.741472 0.508325 -0.617968 0.057656 -0.412728 -0.642177 0.087559 1.012434 1.214309 -0.105585 1.885927 0.726974 1.502264 -0.774222 1.296891 -0.002061 0.154798 -0.062148 -0.552069 -0.699366 1.310470 1.727117 -1.646180 -0.400432 -0.213047 1.386602 1.477738 0.024062 -0.361756 0.303920 -0.748193 0.298594 -0.938875 -1.316460 0.772991 0.650299 -0.133025 2.168517 0.289018 0.190864 0.332417 0.037117 0.381280 1.775374 
法 1.031485 -1.396026 -0.821033 0.256690 -0.116913 1.620086 0.516971 1.408395 -0.039846 0.330822 0.914530 -0.071324 2.023551 -0.523257 0.931916 1.022305 -1.191270 1.887638 -0.479696 -0.872519 -1.391764 -1.097938 0.710119 0.732907 0.118826 -0.240447 0.388544 0.479493 0.488706 -0.103032 -0.768793 -1.445317 -0.883597 -0.768166 0.360426 -0.918266 1.968475 -0.433843 0.543107 1.109558 1.367494 -2.335714 0.405695 -0.047164 -1.069600 1.282823 -0.050036 -0.649935 -0.241468 -0.171678 
5 -0.366591 -0.094853 -0.390799 -1.033046 2.542819 1.266979 1.699174 0.835176 -0.332636 0.801703 -0.427393 -0.326791 -0.163183 0.940791 0.828391 -0.194279 2.326764 0.461526 1.363555 -0.565862 1.114164 -0.437295 0.274152 -1.009940 -0.843642 -0.273015 0.725416 1.526102 -1.557329 -0.429490 -0.700074 1.329831 1.516491 -0.560699 -0.064073 0.933761 -1.016765 0.266326 -0.940742 -1.014355 1.005376 1.659391 -0.442879 2.317729 0.382963 0.774826 -0.078176 -0.076018 0.012037 1.502481 
们 0.035493 -0.023021 -0.931364 -0.929526 -1.274402 -0.974982 -0.306054 -0.804065 0.527271 0.216544 0.596454 -0.891398 -1.467875 -0.725346 0.402386 0.417417 -0.045017 -0.804661 -0.725497 0.020650 -1.068401 0.450965 0.282776 0.882013 0.247410 0.211615 -1.604728 -1.119179 0.255824 0.159537 -0.389187 -0.223261 -0.415209 0.030901 -1.091738 1.604211 0.754580 -0.844184 1.063124 0.868171 -0.629892 0.338929 -1.160917 -0.992626 0.434707 0.568574 0.215040 0.898890 0.903207 -0.480432 
小 0.302781 0.242830 -0.048673 -0.669786 0.675440 -0.004408 -1.325338 -0.136931 1.250871 0.551016 0.003999 0.190564 -0.757722 -0.172256 0.082969 -0.614919 -0.242697 -0.664057 0.027989 0.285768 0.126432 0.842334 1.552256 -1.167250 -0.329587 0.205671 -0.603700 -0.046494 0.374346 -0.256068 0.476761 0.849857 -0.443723 -0.783202 -0.770148 0.706263 -0.096478 -0.618310 0.106670 -1.375961 0.941165 1.183292 0.381042 -0.461806 -0.599064 -0.593507 0.067975 -0.197240 -0.278559 0.003430 
高 -0.034591 0.541173 0.639324 0.072155 0.336911 -0.340263 -0.806568 -0.041294 -1.672439 -0.278158 0.232152 -0.096327 0.272340 0.803761 0.568974 0.725458 0.363014 0.204630 1.499306 0.771580 -1.066307 0.554236 -0.506653 1.093559 -0.905279 0.413689 -0.817120 0.335922 -1.305224 -0.419690 -0.976238 1.314757 0.002193 -0.141868 2.100963 0.127443 -1.323852 0.520443 -0.406495 0.674551 -0.784829 0.244619 -0.338108 1.606219 -0.980097 0.052486 -0.095187 0.422195 -1.369307 -0.287836 
分 -0.867859 1.073447 0.539059 -1.256741 1.144204 0.486407 -0.078058 1.633026 -0.464672 -0.467464 0.223247 0.248025 -0.438208 0.277468 1.022206 -0.726024 -0.098056 0.284096 0.077407 0.392707 -0.273931 -0.247791 0.481949 -0.922495 -1.572024 0.824458 -0.088320 1.219059 -0.305011 -0.168264 -0.361684 0.734080 -0.137816 -0.078939 0.067556 0.416968 1.112387 0.765549 -1.006590 1.067949 -0.490409 -0.262143 -0.939231 1.152768 1.076752 1.181954 -0.555112 1.243933 -0.839658 1.228719 
说 0.961962 -0.112122 -0.219540 -0.290437 -0.717358 -0.702773 -1.237741 -0.514722 0.098303 0.505924 0.487514 -0.243957 -0.741202 -0.437394 0.313921 0.553345 0.332416 -0.982036 -0.758549 -1.953104 -0.439245 1.190865 1.227070 -0.067097 0.038655 0.039128 -1.788119 -0.291305 0.804311 0.556167 0.173481 0.117437 -0.435539 0.566623 -0.547233 1.122910 0.973559 -0.613975 -0.005938 -0.259845 0.884927 0.578976 -0.501350 -1.021885 0.662796 0.212125 -0.039176 0.418059 0.705785 -0.587266 
政 2.008593 -0.442430 0.536135 1.109417 -0.845906 -0.401494 2.128113 0.794805 0.283972 -1.197873 -1.888796 -0.059475 4.096565 -0.328228 0.422813 1.244236 0.530681 0.267564 0.269628 0.955149 0.749092 -0.838683 -1.476244 0.102599 0.709020 -0.151960 0.725440 2.507366 -0.242050 -0.553062 -0.206066 0.604990 -1.490586 0.617432 0.505693 2.376222 2.540287 0.587030 -0.645967 2.852313 1.306985 -3.428727 0.581935 0.619757 -0.572181 -0.090539 -0.537141 0.822277 -1.401937 -0.298901 
天 -0.790875 0.721091 -0.061045 -1.934814 -0.486791 0.063864 -0.264444 -0.731654 -0.073290 -0.256392 1.346851 -0.054596 -0.132357 -0.434061 1.148286 -0.023674 0.574439 -0.031881 -0.836387 -0.038515 0.448310 1.332345 0.824175 -0.506868 -0.988819 0.103870 -0.562953 0.538419 0.805108 -0.005380 -0.382159 0.804901 -0.229316 1.435222 -1.179027 -0.162055 -1.954653 0.480017 -0.299726 -0.300217 -0.348859 1.037936 -0.297969 0.120354 0.378015 -1.791408 -0.361171 0.004728 1.163493 0.733434 
关 0.841265 -0.311333 0.555938 -0.040524 -2.142915 0.581856 1.404853 1.349332 0.167816 -0.278999 -0.882558 -0.629126 1.000377 -0.434572 0.135137 -2.101043 -0.205582 2.437221 -0.623349 1.292476 0.552763 0.030762 -0.493135 0.564788 -0.097802 0.758865 0.961282 0.180220 0.141529 -0.960047 -0.581332 -0.846515 -0.412739 0.479533 0.371627 1.104042 1.997851 -1.117198 -1.076275 0.329487 1.003009 -2.002704 -0.751557 -0.613055 -0.364075 0.345773 -0.507124 0.111749 0.596446 -0.543693 
等 -0.716841 -0.255368 0.559248 0.359692 0.262701 0.188718 0.084984 0.641944 -0.500736 0.315845 -0.699013 0.706130 1.044919 0.355493 0.034121 -0.395921 -0.056683 0.380444 -0.059816 1.357847 -0.959423 0.048231 -0.567546 0.043703 -0.309564 -0.054786 1.145360 -0.332923 0.198884 -0.162853 0.254186 0.555385 -0.316613 -0.696655 0.962972 -0.600886 -0.264575 -0.085484 -0.164425 0.453674 0.529217 -0.787719 0.390480 0.009774 -0.190405 0.144102 0.531962 0.186150 -0.498900 -0.440739 
将 -0.145117 0.110818 -0.412511 -0.050743 0.029747 -0.182989 1.551856 -0.068392 -0.410222 -0.539438 -0.128526 0.529816 0.078023 0.060183 0.215436 0.632267 -0.293007 0.398277 -0.262895 0.579561 0.603913 0.122628 0.025791 0.374813 0.458521 -0.634408 0.639447 0.178018 -0.267797 -0.210312 -0.077571 0.357741 -0.548877 0.414951 -0.031747 -0.256336 -0.282955 -0.551356 0.410898 -0.019315 -0.112439 -0.089910 -0.069945 0.239376 -0.712545 -0.480824 -0.482009 0.003880 0.558478 1.372601 
长 -0.569514 1.150865 -0.555185 -0.329105 0.742022 -0.668600 0.285359 -0.284633 -1.092332 1.258135 -1.465541 0.043665 0.938794 -0.640565 0.780591 -0.351323 0.524575 -1.130918 -0.332904 -0.583116 -0.238649 0.078969 -0.130394 -0.840044 -0.374956 -0.626569 -0.786171 0.141673 0.375383 -1.353364 -0.968139 1.312564 0.448547 0.369008 1.591566 -0.039814 0.785827 -0.821011 -1.658340 0.157309 1.118771 -0.146325 -0.441376 0.003666 -1.327567 -1.173607 0.326488 -0.372824 -0.906479 0.535474 
事 1.028765 0.032406 -0.508389 -0.016614 -1.467939 -0.165489 -0.272149 -0.629370 -0.834075 1.758615 0.192690 0.757757 0.839498 0.164002 0.309761 0.947083 -0.288795 1.390213 -1.492592 -0.459077 0.277263 -0.425938 0.400256 0.675964 -0.466289 -0.525473 0.536175 -0.056645 0.573091 -0.911487 -0.076242 -0.118180 -0.109412 0.541509 -0.739569 0.014128 2.487820 -0.171801 1.115884 -0.111445 -0.208034 0.271908 0.077339 -1.263911 -0.498098 0.602020 -0.542920 0.303204 -0.645215 -0.538157 
区 -0.277442 0.181352 0.584836 0.066700 1.340889 0.103155 0.509119 -1.026478 -0.246013 -0.714941 -1.004603 -0.157423 1.942214 0.635740 2.152278 -0.822210 -0.630932 0.726559 -1.387807 0.973752 -0.397103 -1.495367 -0.460214 0.263442 0.358835 0.296760 1.158456 0.086866 -0.206021 -1.642312 -0.469534 1.281780 -0.420722 -0.680518 -0.214607 0.321981 0.061202 0.568443 -2.364642 1.791109 0.918739 -0.393330 1.431184 1.326161 -1.382857 -1.686680 -0.015935 0.041115 -1.937904 -1.449358 
可 -0.826140 -0.874798 0.036251 -0.912988 -0.432497 -0.540878 0.531589 0.361002 -0.449871 -0.156324 0.648042 0.211528 -1.459609 0.582892 0.210855 0.747989 -0.021661 0.117410 0.460441 0.336363 -0.965195 -0.000083 0.036854 0.098392 -0.661435 -0.791069 -1.436777 -0.547390 0.263295 0.792149 -0.532963 -0.918834 -0.201591 -0.560544 0.527142 0.698863 -0.337633 0.599751 0.968467 -0.083686 -0.790564 -0.121058 -1.028830 -0.854243 0.925613 0.043760 -0.880727 -0.210822 0.123464 -0.321006 
员 -0.547671 0.471408 -0.984482 -0.670821 -0.094901 -0.883369 -0.125391 1.287938 0.432688 0.976478 -0.370396 -0.467683 2.503963 -1.144604 0.173705 -0.014259 -0.364020 0.233048 -0.790548 0.932788 0.131432 -0.544406 -0.664972 -0.144568 -0.485406 0.579627 0.294635 -0.073660 0.106499 -0.357180 -0.309419 1.679970 -1.059656 0.830663 1.655965 -0.034210 2.469649 -0.957718 -0.695899 0.765150 1.332597 -0.093578 0.074661 0.092108 0.394296 1.379338 -0.009101 0.960548 -0.677670 0.691360 
理 0.221759 -2.147221 -0.001394 0.354819 -0.803269 0.449351 -0.566532 0.484392 -0.082768 0.347784 0.681572 1.213401 1.774122 -0.150475 0.749128 0.682475 -0.872977 2.494809 -0.411158 0.957704 -0.641181 -0.353014 -0.306639 -0.026499 0.333261 -1.161844 0.190274 -0.638855 0.772773 0.312046 0.162662 0.880549 0.742804 -0.702196 0.374078 1.138388 1.505366 0.347547 -1.136612 1.658806 1.054416 -2.088475 -0.678523 -0.647587 -1.474073 1.175811 1.209843 -0.334698 -0.737780 -0.046653 
机 -1.436793 -0.533977 -0.247570 -0.631472 -0.455006 -0.861775 0.579295 1.100374 -0.985566 -0.843983 0.835662 0.059312 -0.334860 1.255607 -0.392684 0.302817 -1.779358 1.294232 1.040240 1.096251 0.286968 -1.348647 -0.547906 -0.308294 0.342019 -0.273789 1.413789 -0.898740 0.338906 0.722469 0.245841 0.585779 0.105553 -0.823048 0.596234 -1.092999 -0.053172 -1.164657 0.890380 -0.238258 1.805263 -1.042600 0.035366 -0.085648 -1.266370 0.165961 -1.309376 -0.054916 -1.327016 0.823656 
报 0.205762 0.356216 1.270136 -0.511438 -0.817182 -0.411904 -0.417810 2.003183 -0.682938 -0.283691 -0.236898 -0.294422 2.391551 0.184741 -0.548391 1.393671 0.575102 0.481267 -1.642826 -0.870491 0.067435 -0.011911 0.474152 2.055266 1.376296 0.370659 1.358191 2.439507 -0.681507 0.567430 1.106242 -0.412664 0.607156 2.035011 -0.407399 -0.792346 1.335572 -0.073249 -0.957947 -1.855708 1.220918 -0.020456 0.359252 1.474957 -0.435990 0.037885 0.410967 1.638408 3.041845 -0.478007 
主 0.525404 0.603806 1.274408 0.397605 -1.340422 -0.616736 -0.111507 -0.117407 0.819887 0.422440 -1.464307 -0.459693 1.733106 -0.314871 0.606261 -0.093117 -0.210821 -0.305942 0.952647 -0.341579 -0.465254 -0.059476 -0.232259 -1.137710 -0.435023 0.331836 0.832266 -0.365917 0.110559 -0.602319 1.273994 0.958370 0.339398 0.382796 0.797541 0.807369 2.012892 -0.321579 -0.998885 1.601897 0.777411 -1.152833 -0.012070 -1.304970 -0.866507 0.245381 0.114561 0.677605 -0.264254 0.281970 
建 -0.935543 0.657679 -1.508084 1.168329 0.224954 0.654156 -0.790522 -1.916713 0.168709 -1.652043 -0.405351 -0.089399 1.366458 1.671906 1.475081 0.746362 -2.239047 1.281732 -0.101784 0.956529 0.603742 -0.001190 -0.102437 1.034034 0.112935 0.325100 2.517936 0.211418 0.321944 0.113373 -0.264864 1.955703 0.406040 -0.776877 1.112258 1.444251 -0.118493 -0.192310 -0.933448 3.155658 0.925184 -0.501186 1.129728 0.973708 -1.871790 0.963343 1.213546 0.096592 -1.374810 -0.984640 
记 -0.851741 0.623546 1.030539 -0.756412 -0.554559 -0.975262 -0.957645 -0.749695 0.333166 -0.423817 0.017644 -0.926555 2.253476 -0.196211 -0.346617 2.042677 0.122477 -0.951259 -0.718166 -0.831144 -0.098261 0.116402 0.680720 -0.346598 -0.620714 -0.341893 0.579121 0.872581 -1.565787 2.036227 0.198333 0.419454 -0.638766 2.028576 -0.739277 -0.264746 1.105559 -0.955650 -0.579880 -1.963262 3.240772 0.699968 -2.310414 -0.756391 -0.653356 -1.937090 2.068609 -0.113747 1.926910 -1.408620 
定 0.461220 0.251687 -0.062169 1.789982 -0.555835 1.277487 2.037253 -0.148702 -0.820269 -1.074246 -0.649266 0.115299 1.228510 0.538206 1.138983 1.118125 -0.968264 1.586268 0.326056 0.663511 -0.689416 0.473026 1.237652 -0.615405 -0.838179 -1.487024 -0.882528 1.151561 0.928302 0.552212 -1.286311 0.449897 0.084395 -0.894585 0.495411 1.470239 1.078892 0.082817 0.902704 0.578949 0.094854 -2.667750 0.682885 -1.773339 -0.360773 0.479579 0.337959 -1.069051 1.098441 -0.164466 
面 -0.297714 -0.042925 0.166430 0.464170 -0.091182 -0.578264 0.464386 0.010585 0.951824 -2.204347 -0.048030 0.871746 0.053741 0.280649 -0.184889 -0.658138 -1.327763 0.374852 0.357868 0.495581 -0.059310 -0.183179 0.303260 -0.379181 -1.125510 0.589099 0.999010 -0.217301 -0.442405 0.294760 -0.830487 0.223711 -0.353862 -0.835721 -0.664143 1.016839 -0.000616 -0.795110 -0.387244 0.676032 -0.991640 -0.611697 -1.038808 0.624393 -0.044375 0.063835 -0.414177 -0.046587 -0.087226 -0.878631 
还 0.233197 -0.482560 0.234714 -0.351504 -0.482943 -0.395536 0.095310 -0.046063 -0.002961 0.219009 0.547061 0.367558 -0.790748 -0.051347 0.362075 0.338608 -0.005800 -0.372963 -0.054595 0.321056 -0.442085 0.179199 0.912513 -0.023323 0.048307 -0.586091 -0.983045 -0.264508 0.643228 0.040346 0.105014 -0.096865 -0.240922 -0.661514 -0.321094 1.231728 0.235250 -0.083972 0.386879 -0.390886 -0.295963 0.329331 -0.878876 -0.693737 0.867159 0.107650 -0.256356 0.323368 0.605755 0.218807 
同 0.027215 -0.177105 0.161159 -0.266650 -0.081805 -0.123702 0.402798 0.578493 0.808591 0.138320 -1.876283 -0.682163 0.931033 0.325588 0.179603 0.097994 0.138232 0.062679 -0.369048 0.018578 -0.010872 0.216985 0.949977 -0.207901 -0.429923 0.312393 -0.060874 -0.936397 -0.134953 -0.125493 -0.429604 0.533634 0.677705 -0.457448 0.026271 2.073946 1.093791 -0.612333 0.569188 0.911770 -1.073879 -0.095498 -0.857717 0.060011 -0.259119 0.167676 0.145043 0.441021 0.160468 0.177516 
体 -0.378311 1.573788 -0.555600 -0.401432 -0.633503 -1.191477 0.057142 0.637461 -1.443894 -0.963905 -1.688369 1.400158 0.599724 0.399382 -0.560531 -0.428495 -0.988768 0.981916 0.490983 0.917370 -0.886477 0.255769 -1.640327 1.260350 -0.178503 0.686549 1.728407 -0.796215 -0.455668 0.306238 -0.807736 -0.736967 1.293775 -0.630935 0.509330 0.993868 0.918305 -0.085424 -1.318951 -0.294695 -1.510731 -0.624094 0.386235 -0.422009 -0.782484 -0.084746 0.129372 -0.108792 0.451442 -1.220115 
力 -0.831386 0.193955 -0.009528 0.887953 -1.723457 -0.978455 0.078853 -1.060115 -0.764830 -0.744462 -0.907913 -0.160746 -0.190474 1.603565 0.539315 -0.246408 -2.044850 0.120949 1.165256 1.714038 -0.048240 -0.432949 -2.478888 1.402974 0.626045 -0.361309 -1.065415 -0.872515 -0.205226 -0.130304 -1.400361 -0.906418 0.577063 0.223811 1.180537 1.220218 -0.021682 0.284040 1.129540 2.630327 -0.928621 -0.038484 1.015888 -0.733465 -1.636408 1.219914 -0.271620 0.701648 -2.090200 0.818072 
都 0.255999 -0.578829 0.143386 -0.995362 -0.154734 -0.520832 -0.046981 -0.414565 0.368790 -0.171605 0.529597 0.033745 -0.771000 -0.622533 0.158690 0.342178 0.211030 -0.450888 -0.632043 0.402068 -0.481123 0.571179 0.463409 0.146020 -0.369738 0.321212 -0.666453 -0.431218 0.809712 -0.421380 -0.039957 0.614842 -0.018683 -0.289585 -0.554288 0.678647 -0.153078 -0.194906 0.199765 0.088620 -0.328378 0.770169 -0.716334 -1.043634 1.071531 0.059407 -0.194678 0.653235 0.492842 -0.593037 
加 -0.371422 -0.183281 -1.197556 1.082419 0.842310 -0.747835 0.369027 0.238523 -0.530646 -0.987190 -2.244088 -1.750206 0.693632 1.035151 -0.770170 0.302968 -0.689363 0.107482 0.201645 2.089851 0.226657 -0.024934 -0.637367 0.537342 0.316428 -0.735015 0.645714 -0.510890 -0.029871 0.211882 -1.995001 0.203046 0.149688 -0.507397 0.509686 0.601265 -0.660432 -1.351401 0.128530 1.174347 -0.734826 0.271436 -0.169534 -0.042106 -1.735041 0.097939 0.556072 -0.011682 -0.898071 0.571693 
重 0.022602 -0.099982 0.914324 1.186289 0.004544 0.138913 -0.823787 -0.517456 -0.792823 -0.553870 0.044015 -0.593873 0.805721 0.246792 0.091161 -0.801598 -0.420292 1.049935 1.593464 0.731172 -0.431846 -0.566122 -0.920111 -0.032006 -1.173275 0.154793 0.334582 -0.120591 -0.077860 -0.947797 -0.474708 0.917189 0.465211 0.498994 -0.918565 0.812876 1.390161 0.159257 -0.389056 0.693429 -0.931242 -1.279848 0.383672 -1.464758 -1.097849 0.491769 -0.090270 0.081903 -0.263798 -0.592889 
与 -0.027721 -0.023513 -0.339618 -0.501097 -0.095196 -0.057376 0.607959 0.295334 -0.018815 -0.039894 -1.534305 -0.853721 0.886315 0.007944 -0.149188 -0.426331 -0.551236 -0.203125 -0.682363 -0.409653 -0.311118 0.523129 0.304789 0.115069 0.538445 0.481982 0.570569 -0.885012 -0.169204 0.054925 -0.075080 -0.626897 0.056985 -0.437170 0.869110 0.573275 0.192766 -1.235878 0.014362 0.494458 -0.587086 -0.501263 0.010665 -0.547302 -1.226294 0.153727 -0.449092 0.180477 -0.602614 -0.346738 
场 0.284764 -0.000377 0.443483 0.371905 0.261126 -0.661408 1.285167 0.071343 -0.202865 -0.828069 0.274317 -0.406852 0.069539 0.428545 0.458649 0.985146 -1.588710 0.026978 -0.026351 1.658703 -0.652323 -0.290757 -0.007364 0.263586 -0.201032 -0.326585 0.867594 -0.768054 0.384339 -1.528539 0.978848 -0.031141 -1.046505 0.286864 0.040157 -0.602243 -0.012078 -0.921282 -1.695125 -0.055404 -0.855109 0.285269 -0.340474 0.744683 -0.456259 -0.228312 -0.279649 0.191558 -0.330437 0.270023 
安 -2.380501 0.517469 -0.981940 -1.195378 0.548849 0.039465 0.922467 0.161574 -0.605518 -1.548359 -0.901505 -0.807494 1.793400 -0.083982 1.518114 0.368384 -0.874773 2.371431 -0.367307 -0.398282 0.325435 -0.913760 -0.643152 -0.076999 -0.804813 -1.315957 -0.130390 0.158484 0.024962 -0.565928 1.112703 1.366062 -0.132684 0.908013 1.095677 0.138837 0.862924 1.210152 0.815566 0.687300 0.618454 0.552101 0.579336 -0.204687 -1.394191 -0.940642 0.250641 -0.217187 -0.363969 -1.455546 
本 0.612490 1.038041 0.560150 0.083251 -0.042927 0.248147 0.770864 -0.538472 -1.520396 -0.705766 -0.910944 -0.066533 0.194367 0.211927 -0.046501 0.530433 0.018844 -0.873595 -1.079306 0.227057 -0.550658 -0.709713 0.222748 -0.014150 0.214741 0.427738 1.126766 0.689766 0.037432 0.722622 -1.288057 -0.362614 0.301676 -0.246390 0.635255 0.810439 0.203281 0.706326 -0.624023 -0.070271 0.518305 -0.456674 0.433971 -1.025474 -0.352466 0.446509 0.093754 0.287948 1.443574 1.203473 
表 0.530165 0.498106 0.311899 -0.903798 -0.787615 -1.037004 0.221163 0.030450 -0.337907 0.169825 -1.212720 -0.177413 1.399953 -0.485506 -0.399793 0.612791 -0.766930 0.092367 -1.484140 -2.229596 0.590940 1.320824 1.200196 0.159866 -0.536575 0.734325 0.200204 -0.139194 -0.226391 1.378029 0.178791 0.142067 -1.459948 1.480013 0.549082 1.518234 0.919758 -1.249764 -0.517334 1.158844 -1.498718 0.009010 -1.983122 -0.058076 -0.785860 0.941757 1.354085 0.624552 0.024539 0.112685 
其 -0.015833 -0.797561 0.634614 -0.424641 -0.105331 0.417278 0.393570 0.716588 -0.636412 0.609504 -0.116749 0.410812 0.275309 -0.380657 0.647858 0.378667 0.206891 -0.033799 -0.283119 0.134801 -0.236077 -0.715560 0.220339 -0.299331 -0.497504 0.963430 0.109116 -0.633943 -0.257887 0.835697 -0.341776 0.205001 0.312084 -0.949288 -0.043967 0.278856 0.798339 0.350135 0.692677 -0.598817 -1.109972 0.129720 -0.609948 -0.265940 -0.055905 0.296835 -0.249576 -0.198259 -0.097475 0.272662 
6 -0.108616 0.133054 -0.326851 -1.409671 2.117568 1.071561 1.319456 0.541126 -0.683543 0.213516 -0.296348 -0.755954 0.394640 1.046092 0.868673 0.148840 2.256575 0.568054 1.178039 -0.636970 1.288793 -0.183673 0.222479 -0.470680 -1.070634 -0.567403 0.982967 1.588898 -1.950297 -0.483594 -0.251185 1.302073 1.853813 -0.202146 0.124828 0.264408 -0.610876 0.296870 -1.016371 -1.407506 1.106128 1.228861 -0.410214 2.651078 0.577315 0.370459 -0.199441 0.073516 -0.083642 1.673169 
名 -0.002549 1.243420 0.539089 -0.535027 1.409360 0.245732 -0.046026 0.687665 0.306890 1.498250 -0.579490 0.081249 0.622706 -1.035870 0.361640 0.775012 0.366189 0.735753 -0.901967 0.189217 0.367749 -0.054663 -0.317111 0.175883 -1.009485 1.996999 0.458323 -0.187005 -1.637780 1.089478 0.462060 0.621179 -0.497048 -0.500171 0.743125 -0.251992 0.121845 -1.011407 0.264739 -1.317930 0.299099 1.718039 1.438505 -0.024986 1.146172 0.745008 -0.335452 0.363359 0.153725 -0.470046 
得 -0.449262 -0.871004 0.433897 -0.288860 0.776548 -1.468434 -0.232106 -0.935732 0.006413 -0.557200 0.914752 -0.419806 -0.422303 -0.271183 0.504220 1.322506 -0.570477 0.512984 0.900773 -0.233803 -0.011937 -0.026343 -0.024195 0.134680 0.093814 -0.407879 -1.739383 0.254370 0.136623 0.137713 -0.701113 -1.516867 -0.821185 -0.180310 -0.162489 0.785316 -0.115102 -0.225835 0.726587 0.396933 -1.256908 0.358360 -1.372655 -1.662431 1.803646 1.434483 -0.298977 1.008176 0.098294 -0.605956 
9 0.434244 0.151851 -0.842072 -1.599944 2.679461 1.351882 1.165080 -0.047163 -0.558944 0.625028 -0.702506 -0.630502 0.541064 0.285395 1.312240 0.018906 2.496005 0.045420 1.335804 -1.236259 1.246510 0.096906 0.365554 -0.374459 -0.807521 -0.185669 1.222637 2.011173 -2.069838 -0.176647 -0.659884 0.923806 1.929191 0.589455 -0.390100 0.349454 -0.531307 0.651666 -1.096270 -1.048179 1.487775 0.931401 0.003244 2.203257 -0.028930 -0.031470 -0.214026 -0.253754 0.149493 1.995030 
当 0.148095 0.227536 -0.030254 -0.894976 -0.374542 0.043357 -0.202576 0.620189 -0.199498 -0.068071 0.196303 0.074367 0.039140 -0.172298 0.676054 0.555277 -0.071001 0.031109 -0.834474 -0.391416 -0.197612 0.189567 0.641542 0.133097 -0.236683 -0.402214 -0.375386 -0.478045 0.316257 -0.195230 0.062866 -0.019226 -0.729049 0.879287 -0.440992 0.859587 0.702549 -0.412800 0.056259 -0.160402 -0.454543 0.574847 -0.556354 -0.583290 0.111517 0.027714 -0.783510 -0.288694 0.539292 0.551485 
最 0.495984 0.538977 1.087224 -0.677058 1.000970 -0.331156 -0.251289 -0.852040 -0.899656 -0.463127 0.769037 -0.439349 -0.746228 0.030957 0.321079 0.414993 0.313810 0.017412 0.488439 0.828955 -0.502350 1.013643 -0.213736 -0.345079 -0.106262 0.121862 -0.438293 0.101823 -0.472966 0.478326 -0.710225 -0.105672 0.333461 0.833107 -0.244329 -0.416534 -1.386758 -0.252771 0.435815 -0.412775 -1.805714 0.285629 -0.189143 -0.594290 0.191260 0.629328 -0.046077 0.447285 -0.142131 0.586813 
次 0.421192 0.830009 -0.090153 -0.450831 0.762375 -0.341253 1.496204 -0.936514 -0.509055 -0.337798 0.119200 -0.605971 0.548983 -1.290555 0.106189 -0.195455 0.608285 -0.200194 -0.240143 0.546213 0.765460 0.973144 0.492048 -0.383805 -1.392897 -0.085253 0.592063 0.440182 -0.077859 0.659331 0.334652 0.787764 0.140492 1.031347 -0.567281 -0.443516 -0.194553 -1.341580 0.808703 -0.022400 -0.295760 0.186561 -0.614173 0.486974 -0.270035 1.315543 -1.026802 0.606671 0.993580 0.979228 
通 -1.398906 -0.638450 -0.278224 -0.358698 0.347376 -0.185433 -0.015473 -0.200280 -0.985386 -1.420184 0.180969 0.174168 2.341660 0.292064 -1.237412 0.950884 0.883378 1.572663 -2.027368 0.253119 -0.228072 -0.198040 0.177573 1.231150 -0.541382 -1.205879 -0.210885 0.290803 -0.979739 -0.488118 0.149935 0.131114 0.128547 -1.437641 1.211005 -1.780031 0.615866 -0.735581 -0.747815 -0.012174 0.974535 -0.432303 -1.799602 -0.309339 0.012620 -0.841919 -0.307577 1.047924 -0.132481 -0.362247 
化 -0.031208 -0.051602 0.531360 0.537452 0.175360 0.492942 -1.352256 -2.281492 -0.066000 -0.410551 -0.771206 2.395115 -0.117405 1.724777 -0.900815 -0.997402 -0.344179 0.721075 0.153028 1.203797 -0.279975 -0.916076 -1.523893 1.228140 0.106016 -0.446362 1.331007 -1.505177 -0.999225 -0.405341 -1.630567 -0.110754 0.511624 -0.005087 1.811486 -0.215280 -0.391034 -0.021345 -2.243266 2.234812 -1.000824 -2.283820 1.201175 -0.794663 -0.911421 -0.139423 1.042173 0.216852 -1.047297 -1.400117 
网 0.024557 -0.473504 1.464628 -2.435326 -1.468508 0.615532 -0.255322 -0.960876 0.364577 -0.979428 0.671510 -1.913809 0.886820 2.311221 -1.408933 -0.311124 1.679340 0.241732 -2.003023 -0.460908 1.764295 0.088473 -1.060552 1.453775 0.040487 -1.327407 0.117041 0.659880 -1.194877 -0.447605 2.136893 -0.552688 -0.032847 -0.359898 1.995607 -0.327770 -1.377136 -2.187672 0.278638 -2.416208 0.947976 0.897304 -0.782545 1.070703 0.470354 0.947659 1.083352 1.051178 1.275136 -1.170441 
好 0.167254 -0.170625 -0.987775 -0.412154 -0.422139 -0.087286 -1.058595 -1.051304 0.091572 0.007932 -0.602296 -0.234150 -1.236160 0.120401 -0.430782 -0.036449 -0.433960 0.406058 0.999071 0.691267 -0.534915 0.788228 -0.111395 0.717057 -0.275550 -1.370761 -1.143663 -0.709593 1.332916 -1.382853 0.040016 -0.888377 -0.192673 0.117780 -0.335509 2.104715 -0.063278 -0.279202 -0.075902 1.786976 -0.337010 -0.589298 -0.543807 -1.288232 0.798295 0.391976 -0.364609 1.474667 -0.186601 -0.775754 
被 -0.178117 -0.057028 -0.219264 0.358953 -0.242024 0.850441 -0.164193 0.886265 -0.092184 -0.073217 0.967248 1.507756 0.181310 -0.856543 0.413608 0.326049 -0.154074 -0.410584 -0.255128 -0.183328 0.375657 -0.428060 -0.596030 -0.467325 -0.454558 -0.022406 -0.239254 0.274266 -0.693676 -0.038984 1.192202 -1.203817 -1.115429 -0.147515 -0.757532 -0.129945 0.924561 -0.898619 0.876339 -2.743423 0.026256 1.156367 0.055501 0.307641 0.507191 0.901954 -1.096198 -0.642913 -0.111273 0.058202 
而 -0.023064 0.027079 0.390424 -0.358603 -0.513968 0.037189 -0.010789 -0.500064 -0.519716 0.129429 0.249868 0.286076 -0.742417 -0.259923 0.006759 0.826631 -0.101748 -0.916847 0.239195 -0.524378 -0.647067 0.102673 -0.193481 0.518303 -0.620126 -0.102943 -0.652151 -0.506680 0.027221 0.187348 -0.801524 -0.675441 -0.481200 -0.692656 0.179054 0.571113 -0.335360 -0.144215 0.701374 -0.662521 -2.067076 0.281444 -0.828408 -1.183176 0.007845 -0.044757 -0.720309 -0.514614 -0.853224 0.519018 
心 -1.158877 0.339101 -0.368982 -0.300573 -1.347573 -0.992750 -1.060338 0.253166 0.067175 -0.229485 0.977935 -0.224485 -0.713958 0.035243 -0.594352 -1.206915 -0.185673 -0.749524 -0.080278 -0.515765 -0.622938 -0.072056 -0.343842 0.072732 0.336420 -0.358351 -0.643938 0.295632 -0.056864 -0.598861 -0.139475 0.250784 -0.106332 0.332496 -0.148236 1.230650 0.677121 -0.363916 0.127659 1.529410 0.048222 -0.683014 0.685886 -1.438087 0.101375 0.676152 0.362764 -0.124868 -0.423195 -0.721615 
元 -0.670337 -1.159104 0.963497 0.253799 2.518673 1.841870 2.794773 0.238407 -0.774934 1.832224 -0.946487 -0.123198 -0.172720 0.158691 1.322504 0.292804 1.349759 -0.287708 3.470666 -0.602979 0.017188 -1.929267 1.785901 -1.381674 -0.078624 -0.178321 1.304864 2.761780 -1.617695 -0.450951 -1.411369 0.453851 0.718989 -0.750249 0.368097 1.684460 -2.473192 -0.395135 -0.330996 -0.766645 1.179431 1.719724 -2.553761 1.727794 1.013294 2.275028 1.213537 1.118892 0.049616 1.019360 
务 -1.389796 0.157565 -0.604496 0.304191 0.096031 -1.064334 0.017004 0.989211 0.438515 0.776136 -1.092101 0.585705 2.051556 1.063076 -0.467738 -0.038207 0.888545 2.101579 -0.191805 1.872235 -1.285658 -1.580742 -1.582915 0.500417 0.838408 -0.490192 1.110291 0.508537 -0.329693 -0.645625 0.269011 1.756603 -0.207195 0.692059 2.840693 0.729148 1.866299 -0.814732 -0.966941 1.807531 1.699528 -1.781642 0.110119 -0.095271 0.335268 0.599021 -0.209478 1.350439 -0.979888 0.512618 
8 0.036243 -0.102917 -0.537207 -1.241838 2.702643 1.257217 1.216621 0.454313 -0.315072 0.246006 -0.589420 -0.720286 0.126269 0.647864 1.208698 0.100939 2.545464 0.589195 1.462612 -0.673610 1.018496 -0.371638 0.139827 -0.730254 -0.820058 -0.448399 1.374708 1.787228 -2.013137 -0.392100 -0.452110 1.235127 1.491394 -0.191315 -0.340501 0.307637 -0.784587 0.371371 -1.104999 -1.335280 1.314567 1.551032 -0.406742 2.417498 0.481081 0.452847 0.159587 -0.292809 -0.082600 1.542057 
合 0.206431 -1.280334 -0.129187 -1.318998 -0.310571 0.944677 0.762355 -1.245305 -1.060157 -0.951982 -2.600519 -0.364221 0.206137 0.143524 -1.703289 0.180137 -1.285331 2.544700 -0.970845 2.323993 -0.531526 1.376884 0.530300 0.166961 1.145195 1.388623 1.433574 0.717535 -1.978568 -1.867062 -0.955124 -1.319198 -0.109157 -0.560804 3.084528 0.312931 0.450600 0.785686 0.824219 1.407282 1.769689 -1.745582 0.502880 -0.041126 -1.263114 0.326905 -0.665736 0.051881 -1.030578 0.603307 
目 0.365575 -0.912758 -0.079693 0.126267 1.073945 -0.254166 0.258805 -1.224067 -0.278335 -1.357404 -0.057803 -0.524194 -0.389101 0.509292 0.699864 0.643637 -1.457128 0.960568 -1.261787 0.854100 -0.376635 0.078732 0.034479 0.302837 -0.005273 -0.273647 0.857242 0.049156 -0.249762 0.571985 -0.354548 1.533362 -1.988995 0.004501 0.307043 0.039073 0.481530 1.275347 0.257599 -1.117547 -1.718251 -1.480273 0.361518 0.257982 -1.517857 0.704899 1.649592 -0.253316 0.501429 2.822017 
道 0.425442 -0.156255 0.551395 0.351951 -0.435670 -1.306087 -1.283499 -0.987767 -0.818422 -0.652195 -0.053345 -0.492335 0.547882 -0.197725 0.826021 0.700900 0.843494 0.788812 -1.194169 -1.449148 0.097899 -0.537920 0.349243 2.286394 0.032257 0.361758 0.873410 0.471245 0.725286 -0.662588 0.011500 -0.782658 0.895423 -0.921251 -0.113101 -1.203584 0.756030 -0.000133 -1.156973 -0.862357 1.027947 0.988654 -0.658089 0.168807 0.190710 -1.389624 -0.296768 0.186660 1.230566 -0.976515 
女 1.111393 -0.023350 -1.541210 -1.007057 1.570070 -0.187500 -0.857507 0.493798 2.163189 1.070226 -0.754554 0.068540 -1.383816 -1.075843 -0.628365 -0.723322 1.276429 0.006520 -0.562729 -1.100582 0.002909 1.481283 0.470649 -0.839740 0.036918 1.045130 -0.789728 -0.627682 -0.503159 0.205389 2.070400 -0.868523 -1.114373 0.084335 0.040967 2.063288 0.686217 0.281302 1.505188 -2.410300 -0.549916 1.280471 0.888218 -0.512720 0.006042 -0.029056 -1.485314 0.748886 -0.754530 -0.589865 
之 0.426856 0.312695 0.706431 0.189171 -0.262380 0.380266 0.810771 -0.422457 0.255994 0.103342 0.472487 0.033535 -0.406722 -0.290773 0.259086 0.132864 0.388787 -0.715956 -0.235356 -0.653266 -0.006877 0.611498 0.055214 0.104925 -0.229442 0.027393 0.234352 -0.576870 -0.013221 -0.115704 -0.462977 -0.858001 -0.058888 0.279637 -0.207260 -0.324332 -0.286059 0.151348 0.107949 0.214829 -0.703021 -0.049423 0.005318 -0.722718 0.138894 -0.361171 -1.298999 0.064158 -0.376500 0.287485 
产 0.594398 -2.205692 0.130482 0.581040 1.736083 0.757172 1.494081 -0.780524 -0.646363 -0.848813 -0.571790 1.695934 -0.438220 1.609177 -0.292697 -0.286221 -0.930858 0.823542 0.435650 1.596871 -2.016613 -1.899552 -1.481606 -0.186598 0.449992 1.386452 1.413800 0.179415 -1.124503 0.744923 0.314760 0.552760 0.878545 0.230999 1.441638 0.349931 -1.109505 -0.821095 -1.131144 0.660689 -0.885990 -0.804976 -0.329652 -1.539593 -1.545158 0.155764 1.556015 0.127933 -1.593403 0.207702 
度 -0.569372 0.597394 1.414218 1.075783 0.152296 0.364716 -0.537576 0.358829 -1.020840 -1.252943 0.008841 -0.681508 -0.407653 0.287991 -0.640364 0.022662 -0.145995 0.897595 1.033334 1.306563 0.174697 -0.672750 -0.350563 0.616649 -0.377731 -1.683140 0.354765 0.153254 0.168775 -0.301235 -2.535047 1.418865 -0.026750 0.154043 0.974033 0.410713 -0.650707 0.707152 0.116217 0.055006 -1.392706 -1.474550 0.425094 0.364940 -1.128690 1.386424 0.793085 -0.419013 -0.517098 0.583089 
制 -0.692192 -1.259015 -0.010564 1.155946 -0.505963 0.806537 0.577043 1.032783 -0.571358 -0.703456 -0.395489 1.810376 0.641600 1.897211 -1.505364 0.984628 -1.264116 2.842261 1.146991 0.773052 -1.104708 -0.611950 -1.311629 0.862321 0.151540 1.073397 1.473633 0.319821 1.557221 1.124691 -1.113766 0.262281 0.374822 0.217371 0.986155 -0.614159 0.203153 0.173379 0.513058 0.974345 0.512688 -2.255984 0.533013 0.071518 -1.824376 0.715956 0.371611 -0.034952 -0.689422 0.490135 
》 0.243693 1.698259 1.214058 0.779461 -0.359108 0.890356 0.480638 -0.672596 0.584420 -0.163363 -0.167344 -0.633832 0.776718 -0.741353 -0.745471 1.420498 0.909146 1.344248 -0.394912 -1.715219 -0.797265 1.610309 1.307184 1.825069 0.212447 1.372893 1.238751 0.919260 -0.341174 -0.398106 0.749210 -1.091183 -0.516125 0.441381 -1.005523 -1.095832 0.261512 1.685703 0.532682 -1.148768 0.638693 -2.112536 2.211109 0.698107 -0.637329 -0.092260 1.810889 0.565627 2.465662 0.665499 
提 0.160534 0.913339 -0.275327 0.276931 0.171833 0.056043 -0.531672 2.005953 -1.040079 -0.376236 0.111615 -0.246593 0.976982 2.261105 -0.876375 1.410151 0.489565 0.434680 -1.581444 1.993390 0.173194 -0.371348 0.207149 0.991893 -1.276996 -0.837178 0.010194 -0.110417 -0.715141 0.743504 -0.329825 0.510806 -0.615450 -0.974995 1.728094 1.514839 0.029479 -0.358883 0.149345 1.592587 0.560757 -0.532145 -0.724529 0.092479 -0.792511 1.107821 0.590297 0.689071 -1.588595 0.394091 
外 -0.280037 -0.314746 0.683940 -0.255769 -0.154266 -1.034093 1.146387 0.737441 -0.082004 -0.234939 -0.533659 0.046435 0.647254 -0.096789 0.063491 -0.442952 -0.506504 -0.237495 -1.457338 0.031737 -0.758254 -0.519100 0.341507 0.362900 0.350329 0.140310 1.042173 -0.935365 0.213926 -0.279616 -0.312957 -0.286864 -0.399347 -1.170456 0.550753 0.138583 0.373747 -0.325753 -0.877920 -0.782018 -1.048926 0.484514 -0.531229 -0.262740 0.509075 -0.675689 -0.936658 0.401427 0.964889 0.489625 
《 0.021204 1.523522 1.259786 0.370589 -0.552810 1.015969 0.486440 -0.559229 0.436493 -0.344160 -0.485615 -1.037315 0.805017 -0.721994 -0.903888 1.487370 0.626102 0.818337 -0.028995 -2.289195 -1.182132 1.337499 1.246662 2.034512 0.809409 1.473185 1.128791 1.172081 -0.702245 -0.901649 1.351367 -0.798986 -0.167516 0.961555 -0.901636 -1.145645 0.251344 1.304590 0.078068 -0.354417 0.846702 -2.209158 2.611707 0.954179 -0.573001 0.010411 2.238642 0.831229 2.124218 0.908805 
点 1.026177 0.096721 -0.052792 -0.374267 1.008393 0.100840 -0.965550 -0.581026 0.634575 -1.233179 0.415846 -0.894046 -0.484472 0.867928 -0.188515 -0.544182 0.146561 0.501945 0.730640 2.155310 -0.339412 0.360217 -0.370524 0.121384 -1.217385 -0.635627 0.498605 0.796597 0.148167 0.275564 -0.782660 0.806761 -0.686800 0.230953 -0.732075 -0.719624 -0.103246 -0.053196 0.089770 -0.118792 0.140818 0.278445 -0.260270 0.542817 -0.010733 0.422709 -0.422876 1.067534 -0.468271 -0.633829 
保 -1.670617 0.412931 -0.200138 0.688883 0.348548 2.282969 0.724577 1.968665 -0.566893 -1.894010 -0.083754 0.629630 -0.552786 1.241781 3.697257 -1.298047 -0.298795 2.028688 -0.164683 1.775374 -0.858718 -0.691305 -2.290742 0.363876 1.462618 -2.291256 0.227518 -0.866831 0.732930 -0.798771 1.410320 -0.094010 1.300163 -0.034516 2.657791 2.829852 -0.747358 -0.009546 0.245363 0.003436 0.438527 -1.889537 0.750977 -1.614257 -0.612826 1.084568 1.722182 -0.894764 0.391157 -0.692007 
展 0.297553 -0.242746 0.035406 1.183299 0.802594 -0.970629 -0.036253 -2.392015 -0.592335 -1.019786 -0.245389 -0.577786 0.070582 2.653752 -0.596271 -1.026489 -2.020277 0.778665 -0.286261 1.110760 0.176670 -0.418684 -1.087652 0.406258 0.303634 -1.369767 1.888286 -0.196085 -1.691398 -1.156103 0.727548 -0.006635 0.013154 -0.226051 0.444634 0.725174 0.100792 -1.881540 -1.619867 2.831585 -2.028875 -2.609343 0.092913 -0.975119 -1.889581 -0.323087 0.854368 1.108508 -1.164854 -0.445173 
起 0.235888 0.176069 -0.435124 0.066561 -0.692896 -0.406192 -0.900280 -0.161634 0.249094 -0.268982 0.349128 -0.337624 -1.262531 0.201439 0.016798 -0.004387 -0.045528 -0.565882 -0.004231 0.553949 0.008684 0.324017 0.065251 0.036887 -0.526694 0.037771 0.482261 0.268596 -0.303296 -0.801980 1.100239 -0.406022 -0.636270 0.332010 -1.316824 0.177546 -0.118205 -1.002744 0.242670 0.063129 -0.037155 0.665894 -0.423221 0.408579 -0.422722 0.319100 -0.639902 0.507251 -0.111637 -0.100152 
电 -1.876541 0.273348 0.553480 -2.452080 -1.838101 0.019540 -0.426662 -0.984511 -0.028842 -1.846891 1.334555 -0.447011 1.082180 0.321592 -1.688332 0.979081 0.812228 -0.861145 -0.318269 0.154222 -0.494885 0.391929 -1.669281 -0.512163 0.266387 0.716654 0.629587 -0.540486 -0.651193 -1.625813 0.795138 0.521876 1.187436 -0.174556 0.869628 -0.831385 -1.782664 -0.927778 0.157483 -1.699805 3.124258 -0.036390 -1.140629 1.572823 -0.955547 0.421240 0.679588 0.992438 1.168706 0.321732 
情 -0.196016 -0.734659 -0.762004 -0.152513 -2.012467 -1.040949 -0.677535 0.986851 0.248740 0.672905 -1.400384 0.031701 -0.841814 -1.753413 -0.325593 -0.634775 -0.138917 -0.696901 -0.689073 -0.827030 -0.465280 1.047189 1.350812 1.517503 0.298635 -2.399370 1.975669 -0.635643 0.475375 -1.100881 0.183708 -0.645583 0.170663 0.398146 -1.453791 1.104378 1.874131 1.436512 -0.349579 -1.421213 -2.166785 -2.391675 -0.894869 0.886837 0.264525 0.473938 0.598313 0.415493 -0.963599 -0.268362 
7 -0.150176 -0.048237 -0.442833 -1.361043 2.284066 1.496000 1.670593 0.511655 -0.538592 0.409552 -0.711080 -0.688973 0.190417 0.378655 1.202509 -0.045205 2.075562 0.693785 1.081625 -0.861453 1.262513 0.000865 0.256161 -0.652756 -0.800838 -0.214065 1.123219 1.702897 -2.109830 -0.411290 -0.607821 1.205326 1.748348 -0.111547 -0.221765 0.391747 -0.586168 0.487645 -1.329402 -1.267397 0.901425 1.069280 -0.161620 2.315243 0.274618 0.267046 -0.022379 -0.191106 0.139898 1.629029 
所 0.234872 -0.752542 -0.027009 -0.666899 -0.301826 -0.739628 0.835237 0.788964 0.167736 0.726049 0.780459 0.655666 0.645448 0.071841 0.962474 0.517329 -0.700281 -0.082695 -0.550299 -0.041419 -1.059509 -0.325773 0.423401 0.141733 -0.128273 0.437607 -0.203134 -1.091655 0.142657 0.191184 -0.108140 0.076845 -0.723469 -0.705577 -0.096888 0.294025 1.126499 0.139473 -0.670645 0.136131 -0.272538 0.338127 -0.602625 -0.376189 0.095074 0.008253 -0.488904 0.016156 -0.448625 -0.462410 
内 0.032120 -0.256899 0.903410 -0.326644 -0.096351 -0.259881 -0.226108 0.048243 0.466688 -0.006306 0.306689 0.766605 1.035458 0.431308 0.454277 -0.407718 -0.351229 0.673114 -1.187364 0.496737 -0.174707 -0.736555 -0.415944 -1.394016 -1.128755 0.084820 1.614274 -0.500803 0.178182 -0.180290 0.104806 0.737970 -0.198103 -0.929447 0.794263 -0.503457 0.348069 1.211058 -0.548468 0.060241 -1.201143 0.263969 -0.074812 1.018229 -0.452219 -0.467443 -0.058745 0.403008 0.395011 0.426978 
从 0.315290 0.001400 -0.404556 -0.717837 0.532015 -0.164378 -0.243864 -0.389664 -0.504482 -0.097382 0.614903 0.246299 -0.052064 -0.129884 0.580621 0.492116 -0.361066 -0.287667 0.001276 0.245809 0.264798 -0.203658 -0.031995 0.561415 -0.118431 -0.586936 -0.123457 -0.002275 -0.407252 -0.006625 0.067058 0.411964 -0.133665 0.469093 -0.809896 0.322310 0.077328 -0.601644 -0.662594 -0.551787 0.304568 -0.005983 -0.084900 0.259259 0.272067 -0.840543 -0.291554 0.482689 0.626647 0.065991 
位 0.833606 -0.204103 0.313651 -0.917047 0.666444 0.318335 -0.039607 1.402100 1.107329 0.738304 -1.158307 0.602984 0.346253 -0.842965 1.090207 -0.065676 0.012835 1.064530 -0.459617 1.280045 -0.213598 -0.099635 -0.026499 0.412528 -0.297647 1.433683 -0.040417 -0.366757 0.421291 1.355323 -0.304241 2.366609 -1.241596 -0.976451 1.048524 0.763783 -0.616036 -0.971888 0.042613 -0.295452 0.279312 0.859600 0.121847 -0.023502 -0.279186 0.055461 -0.968393 0.905197 -0.201009 -0.048830 
美 0.456876 0.639883 0.727988 -0.343248 -0.208327 0.122702 0.291323 -0.433960 -0.560872 0.142992 -1.330539 -1.280074 0.402522 0.311218 -0.505214 -1.176308 -0.479784 0.291516 -0.525498 -1.181629 -0.517666 -0.782855 0.752815 -0.498816 1.050653 0.806417 1.158337 0.116833 -0.095938 -0.309448 -0.512669 -1.584549 0.308063 0.358468 0.375793 0.591696 -0.416921 0.036370 -0.456380 -0.133134 -1.312726 0.404398 1.321258 -0.455181 0.509160 -0.039558 -0.595065 1.171553 0.550128 0.891090 
间 -0.879320 -0.253667 -0.408578 -1.484933 -0.430108 0.934675 0.941335 0.571174 0.644002 -0.539895 0.783702 0.234945 0.003764 0.325257 0.612616 -0.239462 0.629497 -0.515682 -0.563359 0.283345 -0.078543 1.488701 0.169892 -1.078460 -0.899300 -1.233927 0.471151 -0.553709 0.819781 -0.695010 -0.779667 1.057606 0.809244 0.132744 -0.356256 -0.677012 -0.995147 0.361959 0.148623 -0.151749 -1.096932 -0.107189 -1.324892 0.585798 -0.198415 -1.472895 -2.034548 0.513237 0.194852 0.910932 
着 -0.513012 -0.264796 0.042882 0.443873 -0.622984 -0.455594 -0.224566 -0.350945 0.827000 -0.892258 0.846138 -0.411512 -1.769802 -0.180377 -1.319231 -0.921111 -1.050094 -0.719830 0.641672 -0.267456 -0.045451 0.446613 0.089119 -0.617133 0.499204 0.447802 -0.723147 -0.564766 0.318457 -1.257532 0.107048 0.272168 -0.811888 -1.118437 -0.904166 0.838492 1.326447 -0.473627 1.299172 0.382357 -0.604122 0.481630 -0.461234 0.429768 0.696426 -2.277617 -0.286561 0.620286 0.281022 -0.255614 
海 -0.889580 -0.010853 1.480065 -1.386283 0.146121 -0.491327 0.702517 -1.119237 -0.958176 -0.508698 -0.633892 -0.486356 0.317550 1.257612 1.393970 -1.510507 -0.288826 0.224890 -1.084904 -0.089663 0.994481 -1.982982 0.286785 0.258468 0.963063 1.449007 0.363398 0.140597 -0.387941 -0.079785 -0.595070 -0.114344 -0.870918 0.617810 -0.385865 -1.332434 0.089609 -0.587789 -0.218525 0.183047 0.666979 -0.149128 1.303666 1.714567 -0.494184 -2.527001 -0.392390 -0.965353 -0.401391 -0.418776 
此 1.183995 -0.935066 0.422593 -0.515171 -0.798926 -0.154784 0.296549 0.522893 -0.416441 -0.248344 0.342706 -0.363022 0.538497 0.160830 0.561364 0.065260 0.114991 -0.504076 -1.353721 -0.560026 0.199273 0.510147 1.550507 0.849294 -0.259820 -0.451864 0.163931 -0.438457 0.097157 0.403797 -0.120968 -0.623245 -0.869031 1.153174 0.483694 0.080714 0.469161 -0.148409 -0.072549 -1.153958 -0.924663 -0.295087 -0.759755 -0.424584 -0.150897 0.395315 -1.034025 -0.342202 0.427748 0.338764 
据 1.658753 0.811009 -1.018422 -2.102452 -1.153062 0.971058 0.920816 0.488957 -3.852194 -0.819637 1.082575 0.076434 1.275413 0.016677 0.001692 0.395901 -1.263873 0.214842 -2.422052 -0.944162 0.935105 -1.156585 0.642276 2.084423 0.762952 0.740176 1.387519 1.078260 -0.004412 0.522746 -0.598740 -1.125018 1.040056 0.252681 1.718233 0.135367 0.944215 1.337529 -1.549462 -2.220538 1.048539 -0.349027 0.773469 1.695581 0.364516 -0.681686 1.010273 1.512279 1.988190 0.455479 
已 0.143731 -1.025021 -1.083270 0.199321 0.887378 0.516017 0.962915 -0.401841 -0.590150 0.240778 0.949729 0.679253 -0.360915 -0.016184 0.455681 0.982986 -1.017553 0.145142 -1.188943 0.054809 0.970821 0.515272 0.102155 0.145830 -0.221257 -0.166051 0.915813 0.135630 -0.553581 -0.266620 0.017722 0.088195 0.469653 0.761414 -0.137311 0.199388 0.499823 -0.432316 -0.786480 -0.834775 -0.859743 0.341667 -0.642788 0.183229 0.126128 -0.470384 -0.911940 0.139781 0.090824 0.280561 
入 -0.680026 -1.596150 -0.153734 0.358391 0.294106 0.366557 -0.229454 -0.424430 -0.260542 -0.136224 -1.864483 0.334490 -0.914337 0.123595 0.640630 -0.433689 -0.207463 -0.176294 0.509084 2.115837 -0.001516 -0.776134 -1.153044 0.293915 1.104116 -1.487428 1.295371 -0.020702 -1.008771 1.093610 -1.045033 1.720261 -0.570743 -0.640003 0.765416 -0.242085 -0.860665 -0.681431 -1.262177 -0.833704 -0.584626 -0.860808 -0.022371 1.068966 -0.160364 0.448481 -0.168918 0.633900 -0.076774 -0.808232 
但 0.933682 -0.726379 0.249533 -0.547712 -0.615854 -0.202166 0.472328 0.041088 -0.556957 0.121633 1.107118 0.276583 -0.722170 -0.268329 0.372188 0.318854 -0.842017 -0.531020 0.201469 -0.224295 -0.962946 0.524599 0.723834 0.355269 -0.191711 -0.812917 -0.743094 -0.608672 0.546346 0.071778 -0.966075 -0.838993 0.142965 -0.048030 0.157782 1.081343 0.230610 0.331616 0.198390 -0.941776 -1.434754 0.467741 -1.246314 -0.955232 0.715744 0.041951 -1.258726 0.108006 0.225920 0.186373 
两 0.605084 -0.169100 -0.225707 -0.249509 0.783092 0.046870 0.989708 -0.173835 -0.041497 -0.004496 -0.710706 -0.323467 -0.712576 -0.403309 0.193760 -0.099613 -0.139178 -0.234112 -1.013005 0.349255 1.013429 0.379849 0.726467 -0.483199 -0.665101 0.191633 0.303060 -0.325711 0.360603 -0.298740 0.410828 0.364869 0.307354 -0.683737 -0.254592 0.303901 0.049068 -0.761269 0.223085 -0.080971 -0.331856 0.715690 0.164177 0.124548 0.029382 -0.063886 -1.438643 0.746535 0.679840 -0.217961 
里 0.151619 -0.392246 -0.920925 0.120157 -0.142098 -0.233217 -0.660012 -0.367734 0.677821 -0.607822 0.929342 0.455950 -1.227193 -0.970579 0.921677 -0.286333 0.260235 -0.536407 -0.427036 -0.356445 -0.668681 -0.208355 0.932773 -0.935309 -0.081376 -0.040487 -0.003482 -0.920121 0.000478 -1.047945 0.005524 0.570665 0.154614 -0.342488 -1.136855 0.029657 -0.696579 -0.311608 0.105605 -0.124262 0.658511 1.898850 -0.262075 1.097744 1.272484 -0.928408 -0.185447 0.369833 0.734367 -1.117163 
明 1.151336 0.666753 1.053786 -0.542963 0.128312 -0.062723 -0.535021 0.522356 0.309868 -0.092181 0.459989 0.455871 -0.044692 0.765801 -0.109674 0.163769 -0.912147 -0.165173 -0.660314 -0.516907 1.036492 0.327247 0.561272 0.526512 -0.307656 -0.871604 -0.454724 -0.288562 1.174948 0.186571 -0.601888 -1.014273 -0.946129 1.371156 2.406907 1.064310 1.331625 1.300634 0.154979 -0.268070 -0.589109 -1.399971 0.809197 0.539888 0.475487 0.219248 1.063569 -0.127452 0.893398 -0.194470 
性 0.103836 -0.445585 -0.498950 0.264134 -0.225523 -0.358896 -0.792731 -0.013926 -0.543956 0.272991 -0.836066 0.214190 -0.460030 0.397843 -0.358889 -1.178609 0.617429 0.220113 1.492030 0.209730 -1.224200 0.449856 -0.899235 0.446364 -0.826661 0.200315 -0.236594 -0.427117 -0.513228 0.761394 0.000433 -1.110729 0.969618 -2.032593 1.017270 1.448869 0.302727 1.287974 0.000765 -0.743196 -2.207427 -1.640531 0.672067 -1.399279 -0.923878 0.573678 -1.166452 0.128126 -1.009696 -1.112546 
平 0.406427 -0.045819 1.595817 -0.541648 0.341910 1.357439 -1.177647 -0.686896 0.033963 -0.495440 -1.060826 0.133556 0.921383 1.500405 0.670305 -1.218184 0.486615 -0.045674 0.053968 0.631468 -0.318878 0.138525 0.029823 -1.362881 -1.089440 -0.310246 -0.685944 -0.260233 0.247263 -1.373160 -1.224532 0.529928 1.709021 -0.186592 0.905308 1.912396 -0.706559 -0.619396 -0.294897 1.547346 0.114304 0.419071 -1.143313 0.720551 -2.028611 0.245323 -0.054178 -0.042168 0.283091 -0.537447 
万 -0.872710 -1.429714 -0.076401 0.877367 1.954630 2.517050 2.429834 0.254920 0.462850 1.475029 -0.386576 -0.229732 -0.801419 0.781107 1.115263 -0.552949 1.463336 -0.828789 1.538541 -0.720357 0.318797 -2.059911 0.751305 -1.226959 0.205400 -0.009174 0.823519 1.282911 -2.169259 -0.199307 -1.037417 1.364039 0.554204 -0.556430 0.204400 0.823303 -1.461462 -1.003435 -0.871737 -0.726193 0.814614 2.133494 -1.261524 1.977837 1.374436 2.590811 0.593988 1.550992 -0.273069 0.542587 
并 -0.196401 -0.450898 -0.132225 -0.239017 -0.810106 -0.414078 0.481984 0.645773 -0.343461 -0.252805 0.054276 0.951801 0.634264 -0.136796 -0.747452 0.810820 -0.639703 0.498520 -0.466628 -0.095632 -0.551881 -0.082366 0.465070 0.688541 -0.070352 -0.314352 -0.007908 -0.462489 -0.247406 0.321206 -0.017582 -0.540163 -1.184236 -0.226862 0.427117 0.356428 0.733591 -0.739819 0.818867 -0.274839 -0.785869 -0.574813 -0.952752 -0.178900 -0.270637 0.886917 -0.248423 -0.103473 0.225174 0.300474 
省 0.193222 0.081665 -0.037206 -2.308818 1.565983 0.002497 0.254833 -1.369016 -0.751270 0.120824 -0.720927 -0.785127 3.649741 -0.812967 2.352459 0.089767 0.131998 1.153850 -0.369775 1.177469 0.914983 -0.835672 -1.067787 0.744170 -0.562643 -0.206362 -0.400622 2.670679 -0.559014 -0.992018 0.379493 2.889597 -0.579044 1.208297 0.790902 0.496619 1.082050 -0.018972 -0.878348 1.939699 1.626748 -1.871436 1.225647 1.619975 -1.800079 -0.906370 2.111202 0.081957 -0.102173 -1.227145 
去 0.143008 -0.539342 -0.750435 -0.095304 0.598825 -0.140924 0.744458 -0.906773 0.159563 -0.035271 0.890727 -0.245471 -1.138616 -0.735030 0.408077 0.944772 0.470926 -0.605270 -0.101836 0.789694 0.290868 0.103614 0.575785 0.117718 0.500618 -0.477498 -1.087487 0.247738 -0.260740 -0.444072 0.198814 0.309000 0.489618 1.639034 -1.361487 1.086208 0.101367 -0.878722 -0.124808 -0.299448 0.007137 0.628764 -0.697356 -0.176962 0.693676 -0.804506 -0.473345 0.291795 0.687711 0.541602 
金 -1.340778 -0.729304 1.250541 0.220525 0.057872 0.953178 1.469730 -0.824260 -1.106382 0.571280 -0.789646 0.724578 -0.471518 -0.579044 0.448581 -0.739012 -1.019950 -0.389120 -0.094184 -0.242863 -0.095594 -1.599752 0.777233 -1.723177 1.961311 0.810027 2.797465 0.666545 0.222144 0.909754 0.114888 0.355171 -1.536584 -0.801996 1.191996 1.490487 -1.074715 -0.191503 -1.628531 -0.086578 0.758618 -1.124757 -0.800910 -0.050540 1.074840 1.261993 0.987890 0.722187 -1.057201 1.415284 
三 -0.098504 1.199441 0.728387 0.318440 1.701879 1.354042 1.052255 -1.104822 0.438086 -0.227437 -0.452957 -0.650828 -0.337923 -1.225710 0.132736 -0.231129 0.455015 0.193265 -1.443407 0.980367 0.724920 0.124314 0.288686 -0.316131 -0.984787 0.098163 0.178082 0.465975 0.824983 0.099503 0.171225 1.665895 -0.229583 -0.048066 0.568920 -0.793262 -0.294816 -0.386828 0.058019 0.974001 0.206905 -0.087170 1.251075 -0.004621 -0.484886 0.107596 -0.572010 0.632622 0.233471 0.367369 
路 -0.896964 -0.160887 0.253907 0.961806 -0.515687 0.336057 -0.936227 -0.360479 -0.119808 -1.351921 0.298283 -0.370227 -0.395826 0.206392 2.350309 0.670322 0.101015 0.234028 -0.779504 0.951362 1.488083 -0.040934 0.601413 2.078207 -0.850192 -1.654809 -0.220188 -0.280340 -0.270911 -2.108203 0.771203 0.857489 1.159758 -2.034240 1.366424 -2.963954 0.221237 -0.966386 -0.803256 0.391303 1.142752 0.292686 -0.839077 1.476335 -0.032443 -3.105668 -0.584341 -0.128830 -0.997998 -1.199438 
委 0.598789 1.614681 0.180585 -1.285092 -0.095059 -0.633040 0.544677 -0.774363 0.596642 1.104629 -1.513961 -1.385070 4.977915 -3.142565 0.446000 -0.195735 0.269656 0.317304 -0.247019 0.986392 0.815143 -0.921149 -0.103378 -0.706791 -1.075263 -0.242622 -0.184484 2.223207 0.444713 -1.406613 -0.633698 2.827077 -0.599499 3.319120 1.197579 0.534833 3.848685 -1.122661 -2.009531 2.811990 3.183460 -1.864278 0.902320 1.030816 -1.919617 0.258209 2.215976 -0.325354 0.349028 -1.573829 
资 -1.190741 -1.106263 2.097039 -0.028147 -1.430710 1.028855 0.650403 0.395819 -0.369155 -0.127551 -2.017046 2.101467 -0.142582 1.827280 1.276217 -2.110564 -2.266266 0.833902 1.693605 2.312590 -2.265873 -1.179206 0.059207 0.587754 2.305942 -0.194480 2.427757 1.932544 -0.739149 0.833765 -0.672767 1.168500 0.935179 0.263900 1.526886 1.963613 -1.216900 -0.112753 -1.131945 -0.351652 0.056701 -1.288946 -0.985154 0.698893 -0.221716 1.431881 0.808832 1.768249 -1.247556 1.137301 
示 0.896818 -0.478513 0.393168 -1.343460 -1.196813 -0.757996 -0.601805 0.636956 -0.305417 -0.291121 0.043721 -0.603377 0.857766 0.879655 -0.093746 0.387680 -0.610181 -1.519063 -0.734221 -1.220974 1.475424 0.199757 0.646949 1.528788 0.331370 -1.072752 0.743805 0.070191 -0.034144 0.671276 0.124425 1.107483 -1.356664 1.888263 3.218898 1.139875 2.037840 0.044348 -0.409538 -0.622157 -0.737066 -0.193462 0.235400 1.697483 0.412002 1.044395 1.034988 -1.374552 1.102826 0.927437 
正 -0.003158 -0.155459 -0.323541 -0.131660 -0.672791 -0.140283 0.253013 -0.263850 -0.157099 0.142918 0.222831 0.081461 0.862928 0.009804 -0.104320 0.745183 -0.546781 0.422065 0.756951 -0.473261 0.449577 -0.117692 0.842940 0.479093 -0.208581 -1.269187 0.381876 -1.327118 0.756170 0.426742 -0.035196 -0.024931 -0.344671 0.017849 -0.135989 -0.180511 1.216550 0.051308 -0.047836 0.803562 0.014919 -1.197374 0.017839 -0.476540 -0.755996 -0.442069 -0.911620 -0.017469 0.373112 -0.526675 
设 -0.885894 0.722166 -1.440204 1.473958 1.291077 -0.263194 -0.096725 -0.999947 0.650862 -2.063582 -0.421939 1.534239 1.272605 2.902655 0.717811 -0.626707 -0.863476 1.440888 0.384895 1.001914 -0.478321 -0.449734 -0.193501 1.600417 0.195462 -0.680999 2.120409 -1.389030 1.587501 -0.978004 -0.667981 1.973540 0.380357 -1.772540 1.191673 0.618602 -0.613299 -0.084918 -1.126814 2.090513 2.061013 -1.768409 1.245715 0.624285 -2.064870 0.599544 0.356488 0.899095 -0.335761 0.021808 
文 0.935549 0.351781 1.697276 -0.045873 1.423600 0.473274 -1.766213 -0.797450 0.619182 1.021957 -0.819795 0.965638 1.458202 1.035609 -0.598281 0.561221 -0.655088 0.194422 -1.617791 -1.871809 -0.559814 0.411758 -0.532338 1.045584 -0.765267 0.345217 1.267477 -1.235599 -0.734258 0.775556 -0.481214 -0.650072 0.837090 -0.180575 0.379557 0.104869 0.651804 -0.310930 -0.230677 1.826717 0.019847 -1.232904 1.299018 -0.441158 -0.459462 0.417931 2.663997 0.030941 0.909681 -0.352378 
没 0.680575 -0.908040 -0.474510 -0.753849 -1.073009 -0.487973 0.291256 -0.394607 0.235801 0.279015 1.479111 0.804839 -1.505914 -0.621138 0.589850 0.774994 -0.563549 -0.055214 0.138550 -0.252277 -0.858743 0.268190 0.978181 0.279637 -0.349728 -0.866348 -1.405958 -0.703605 1.202654 0.034676 -0.260250 -0.225385 0.097038 0.166433 -0.306684 1.383280 0.598934 -0.081226 0.437629 -1.007116 0.334889 0.561813 -1.253058 -1.045132 1.206689 0.627673 -1.055817 0.216508 0.757210 -0.505588 
北 0.240792 -0.300854 1.510974 -1.924387 0.488234 0.037738 0.468756 -1.207498 -1.340454 0.116233 0.229177 -1.155388 2.137664 0.766515 2.579082 0.102043 0.636474 -0.855583 -2.287787 -0.016306 0.706391 0.159115 -0.354304 1.378051 0.093844 0.510424 0.378941 0.326710 1.460479 -1.023198 1.442909 1.695746 0.306244 0.704724 -0.211204 -0.247278 -1.338242 0.256654 -1.298969 0.818273 1.929192 0.083644 0.599516 1.693024 -2.786157 -2.189772 0.040848 0.028598 0.409045 -0.043838 
题 1.863899 0.973115 0.537164 1.514005 -0.072980 -0.249037 -1.163233 -0.060101 -1.468127 -1.620742 -0.395096 -1.910119 0.165273 -0.294497 -0.639953 -1.923866 0.891912 -0.723552 -0.835826 1.402770 -2.506348 0.481593 0.902632 0.113490 -1.643692 -1.569093 1.828858 0.144623 0.490089 1.625573 -1.385891 1.352224 -0.596138 -0.461328 -0.783554 1.275388 1.266707 0.246598 -0.452455 -0.805659 0.869126 -1.317147 -0.740694 -3.052476 -0.376465 1.189985 0.253497 -0.058088 0.092052 -1.353653 
因 0.229871 -0.190109 0.255460 0.259250 0.237817 -0.157436 0.241749 0.062372 -1.202141 0.031003 -0.359474 1.147406 -0.101948 -0.281717 0.584239 -0.511688 0.272809 -0.908336 -0.056048 -0.206823 -1.477281 0.480145 0.286922 0.643246 -0.561063 -0.162701 -0.761561 -0.339057 0.789034 0.384601 -0.413452 -0.822852 1.036353 -0.093830 0.120670 1.013874 1.005322 0.352914 0.140881 -1.744161 -1.280985 0.760864 -0.504560 -1.814743 -0.145591 0.282051 -1.164663 -1.130401 0.351251 -0.156828 
门 -0.206894 -0.553674 -0.508050 -0.595585 -1.057927 -0.952394 0.583786 0.593073 -0.176984 -1.534038 -0.084527 -0.026666 1.826845 -0.992609 0.036172 0.783596 -0.772337 1.606862 -1.333253 1.346641 0.219665 -0.457534 0.220605 0.620551 -0.283560 1.101736 0.594575 0.135173 0.900952 -1.259439 0.823686 1.740016 -2.041928 -0.642837 -0.017181 -0.176143 0.901325 -0.347983 -1.064412 0.474047 1.329654 -0.077811 -0.004834 1.296809 -0.230408 -0.979848 -0.675536 -0.217390 -0.963720 0.655040 
相 0.963078 -0.336084 0.262751 -0.791226 -1.664045 0.122820 0.945604 0.679907 -0.454098 -0.600186 -0.590147 -0.285023 0.055061 -0.256514 0.296882 -0.954239 -0.237763 1.420025 -0.666945 -0.095001 0.589850 0.688285 0.588177 0.548872 0.358187 -0.002877 -0.095372 -0.168434 0.328169 -0.643333 -0.961291 -0.190730 -0.664334 -1.096675 1.833321 0.249569 0.387171 -0.882936 0.784311 -0.812673 -1.568355 -0.764602 -0.913530 -0.600543 -0.893249 0.495734 -0.080206 -0.376148 -0.079329 0.241096 
如 0.163358 0.106929 -0.598819 -1.078767 -0.758646 -1.037324 -0.606842 -0.255869 -0.796305 0.077853 0.837150 1.261205 0.015992 0.984814 1.508289 0.024342 0.249605 -0.786761 0.663089 -0.594512 -0.530484 0.422177 1.682368 0.481985 -0.579524 -1.205828 -1.200772 -0.190873 2.610341 0.106505 -0.007474 -1.684651 1.189365 -0.551561 -0.039992 0.953936 -0.429051 -0.488200 -0.706727 -0.714887 -0.477872 -1.014613 -0.820044 -1.152103 0.592165 0.344687 -0.271401 -0.725630 1.289636 0.785517 
院 0.115197 -0.042363 -1.467539 -1.065629 1.570537 1.424806 -0.324047 1.823582 -1.377148 2.302917 2.759695 -0.094843 2.036597 -1.196206 0.963653 -0.886244 0.194686 0.257559 -1.708150 -0.418577 -1.393486 0.368064 -0.811492 -1.221534 1.051778 0.868362 -0.192963 0.759937 -1.667342 0.024810 1.552243 1.120160 -0.687125 1.257725 -0.259770 0.663310 2.033866 -0.935960 -1.208827 1.387835 1.497336 -1.119610 0.874511 1.489333 -2.713226 0.186664 0.458489 -0.091120 0.085293 -1.639815 
水 -1.543542 -1.480019 0.633256 0.032778 0.948907 0.102849 -0.360685 -0.741345 -0.641594 -0.150881 -0.309796 2.146140 -0.362408 0.941896 0.624125 -1.508003 0.071414 0.421507 -0.394320 2.382198 -0.663264 -0.184916 -0.861709 0.491335 -1.259210 -0.005068 -1.133927 0.264937 0.501623 -0.771847 -1.208247 -0.952981 0.392861 0.084357 0.245562 0.524034 -1.746906 0.928370 -0.793339 1.721793 0.129029 1.401512 -1.077366 1.757771 -0.878336 -1.061783 0.295455 -1.003097 -0.831437 -0.605129 
意 -0.387700 -0.081352 -0.332899 0.350844 -2.184072 -0.823808 0.946205 -0.541951 1.124684 -0.703571 0.072709 -0.507744 0.657380 1.502039 -1.219818 0.031818 0.172808 -0.674977 0.691164 -0.573546 -0.840350 -0.522188 1.615873 1.729607 -0.225049 -0.143961 -0.193661 0.627007 -0.640002 -0.346661 -1.260074 -1.224513 -0.938674 -1.009687 0.763216 1.072235 2.244343 0.254072 0.664384 1.958547 -0.597066 -0.078658 -0.650300 -1.464676 1.311002 0.726254 -1.031960 0.593401 0.150904 -2.401373 
品 0.001170 -2.134557 -0.358300 -1.308639 0.738508 1.431178 1.419845 0.150560 -0.973119 0.062383 -0.599010 1.438997 0.441664 1.477991 -2.057775 0.640519 -0.050115 0.702074 1.700405 1.322578 -2.902982 -1.900836 -0.671521 0.204875 -0.704024 0.947189 0.815777 -0.156729 -0.174494 0.665994 2.381076 -0.359412 -0.076593 0.454544 1.755638 -0.691411 -1.189386 -0.343329 -0.746355 0.465348 -2.229061 -0.430500 0.589574 -0.469544 0.499854 0.140493 2.490563 0.077689 0.275064 -0.144826 
老 0.937676 0.725973 -1.197270 0.158992 -0.019301 0.893360 -1.227452 0.722258 0.183622 1.143721 0.300223 0.692714 -2.083099 -1.092324 -0.456402 1.003456 0.993900 -1.121484 -0.796351 -0.111025 -0.936348 0.084909 -0.016902 0.358014 1.434872 0.272474 -0.551113 -1.058330 0.996580 0.177918 0.880773 1.501949 -0.157868 -0.681674 -0.130149 2.603644 0.075308 -0.511381 -0.763730 -1.106140 1.212936 1.209037 0.755945 -1.321678 0.311823 -0.597136 0.221579 0.375377 -0.856488 -0.929844 
问 0.915923 -1.027296 1.159547 0.496942 -2.284116 0.237122 -0.323581 1.736978 -1.010889 -2.540818 -1.071294 -1.490877 -0.579319 -0.185774 1.256589 -1.379198 0.204609 0.527321 -0.309141 0.459274 -1.854829 1.219638 1.047103 -0.090970 -0.785940 -0.384404 1.006015 0.203009 -0.991022 2.117777 0.029452 1.601020 -0.490430 0.546012 -2.075507 1.165525 1.991637 -0.179777 0.359047 0.257800 0.647102 -1.834008 -1.436606 -2.585665 0.411142 0.736225 -0.620561 0.002713 0.107953 -3.055655 
手 -0.946938 -0.503671 -0.097120 -0.483459 -0.301301 -0.104772 0.296928 -0.352820 0.378809 0.265107 -0.072836 0.824571 -1.279982 -1.213405 -1.513586 1.135071 -0.045559 0.001288 0.852864 0.693717 -0.129832 1.463132 -1.566173 -1.851016 -0.558765 0.182439 -1.167830 -0.605976 -0.490435 0.312564 1.854339 -0.811206 -1.413226 -1.789023 0.466278 0.419595 -0.144225 -0.340214 1.485918 -0.305969 0.979214 -1.022575 -0.569451 1.080162 0.326273 -0.394091 -1.825242 0.649136 1.236418 2.190344 
第 0.496300 2.271545 0.294067 0.042474 2.312856 1.214540 1.615450 -1.402189 -0.353748 0.514094 0.069317 -1.244904 -0.160469 -2.128542 0.801398 0.322089 1.260385 -0.012640 -0.856824 0.947188 1.151517 0.858377 0.538457 -0.313994 -1.575673 1.120510 0.583611 1.215227 0.558624 0.489203 1.130090 1.689731 -0.574592 0.506234 0.643758 -1.089642 -0.307610 -0.383594 0.813398 1.282007 -0.127650 -0.597831 1.562011 0.628062 -1.284618 1.271973 -0.681350 0.900868 1.100521 1.245494 
看 0.612287 0.193726 -0.073439 -0.663305 -0.383572 -0.722366 -0.278436 -0.434344 0.783485 -0.109371 1.256281 -0.795814 -1.375505 -0.945300 0.070222 0.240427 -0.822664 -0.364636 -0.111978 -0.341525 -0.583484 0.930825 0.578966 0.121385 -0.324632 -0.206405 -1.244262 -1.138198 1.067827 -0.545543 -0.285966 -0.111414 -0.448351 0.154180 -1.090753 0.975887 0.689562 -0.335742 -0.260514 -1.586953 -0.364736 0.362718 -0.941331 0.481539 1.180099 -0.803397 0.335472 0.950229 1.296557 -1.569216 
期 -0.614697 0.604531 -0.202786 -0.302088 0.717888 1.026186 1.611168 0.492719 -0.476074 -0.528738 0.953442 0.130248 0.482922 0.413801 0.842087 0.384646 0.804640 -0.124916 0.237350 0.551130 0.027092 1.259190 0.308262 -0.240204 -0.316868 -0.975632 0.429721 0.590068 0.557756 0.116207 -1.331171 1.673712 1.088896 1.294801 0.293789 -0.975290 -0.502851 -0.115586 0.325370 -0.361204 -1.638535 -1.575268 -0.512621 -0.936093 -0.292236 -0.627802 -0.658477 0.254645 -0.107455 1.375049 
. 0.154775 -1.490247 -0.372754 -0.053303 2.278466 1.136521 2.290729 -0.007397 -1.250801 0.257845 -1.659592 -1.298157 -0.062844 1.403146 0.792603 -0.282537 2.823257 0.116714 2.793428 -0.569502 0.099373 -1.295803 -0.201134 -1.056899 -1.468288 -0.131714 0.349556 2.298551 -1.852424 -1.871416 -2.599190 1.660757 2.705879 -2.233339 1.209471 1.642028 -0.798980 1.350236 -1.087945 -1.624055 0.715439 1.307975 -1.529332 3.591097 -0.326658 1.382127 1.399750 -0.208474 -0.974744 1.171037 
交 0.595004 -1.997181 0.867311 -0.101298 -1.333534 -0.359317 0.720119 1.416395 -0.981748 -0.399074 -0.345144 -0.442454 1.637417 0.409447 1.016086 0.939002 0.051375 1.011659 -1.064647 0.464177 0.964161 0.262811 -0.057174 1.399324 0.179590 0.170916 0.788914 0.308770 -0.324731 -2.115253 0.174914 0.954469 1.303014 -1.485890 2.495978 -1.528222 0.005230 -1.290687 0.445859 -0.194768 0.961987 -0.385278 -1.238838 -0.151263 -0.080673 -1.338782 -0.692226 0.683594 -0.516605 -1.115727 
然 2.237847 0.709619 1.922549 0.886342 0.042483 -0.592536 1.360167 0.821521 0.358343 -0.282447 1.822645 0.806825 -1.046574 -0.939208 0.920004 -0.137462 -3.104488 -0.968485 1.866319 0.816964 -0.564209 2.549195 -1.271538 0.146369 1.399694 -1.173609 -0.360814 -0.358462 -1.094453 -1.792217 -1.736808 -2.972889 0.149443 0.721888 0.963517 1.496527 0.450466 0.873892 -1.253128 -1.516271 -0.184798 2.689533 -0.413151 -0.707626 1.417592 -0.192026 -1.305314 0.223495 0.750077 -0.858586 
社 -0.069502 0.343289 0.620437 0.556147 -0.406576 -0.740773 -0.187238 -1.154194 0.490302 -0.621519 -0.925555 -1.391484 1.959106 0.564236 -0.269460 -0.559748 -0.639127 -0.386339 -0.668321 0.576975 -0.606823 -1.395858 -1.063084 0.934961 0.941865 -1.313170 2.822917 0.918278 -1.036423 -1.077866 0.528137 -0.327577 1.213086 -0.472653 1.257797 1.719625 0.617749 -0.530082 -1.766215 1.867822 0.063360 -1.925046 0.830186 -0.954232 -1.952376 1.136873 1.172795 0.578717 0.393814 -1.712820 
比 0.984621 -0.085083 0.301949 0.295822 1.315181 -0.488079 1.021119 0.481704 -2.003642 0.167345 -1.496727 -1.443391 -0.902796 -0.575483 0.353334 0.512821 1.306330 -0.107703 0.245844 0.073610 -0.268861 0.881919 0.956794 -0.622581 -1.037886 0.248085 -1.393338 -0.148592 0.311754 -1.554325 -2.413150 -0.077261 1.414959 -0.981479 1.891703 0.724132 -1.772212 0.114973 -0.588410 -1.456877 -2.210997 -0.099206 -0.949774 0.851629 0.580999 0.537401 -0.520810 0.956464 0.229130 0.942932 
管 -0.719725 -1.863535 -0.723455 0.233431 -2.677164 0.076098 -0.882218 0.945299 -0.733311 -0.003396 -0.141506 1.246440 1.494967 -0.680149 1.591928 0.269898 -1.672094 3.641853 -0.219949 2.396833 -1.181928 -0.514681 -1.253203 0.259747 0.106818 -0.301085 1.039767 0.323541 0.110830 -0.959039 -0.590065 1.340139 -0.700439 -0.276140 2.132439 0.175151 0.918261 0.479904 -1.170016 0.857275 1.223479 -1.679094 -0.483433 0.375137 -0.475880 -0.334925 1.062806 -0.917009 -1.267655 -0.250340 
任 -0.263256 1.318816 -0.145789 -0.370620 -1.123432 -0.837418 -0.595771 1.245623 0.221685 1.035802 0.141070 0.876186 2.772670 -0.238648 2.717837 -0.056932 0.095285 -0.063021 0.917867 -0.972319 -0.092587 -1.060184 -0.517196 0.322892 -0.495097 0.758744 -0.707663 0.720589 2.417694 -0.090698 0.123099 2.177137 0.667268 1.150033 1.344423 0.538194 3.118985 -1.600482 -0.952600 1.425420 0.928996 -1.600169 0.217689 -2.645763 -0.591352 0.603662 0.405484 -0.768712 -1.055436 1.623203 
城 0.560057 -0.026463 0.325512 0.914030 1.489506 1.199440 0.542775 -1.757207 -0.587652 -1.755028 -0.421497 -0.026406 0.575272 1.680422 1.251196 0.105941 -0.131298 0.432005 -1.867562 0.916933 0.042465 -0.524295 -0.563156 1.094758 0.502829 -0.902828 0.647667 -0.331366 0.522852 -2.532419 0.151663 1.847803 0.612240 -0.379181 0.937320 0.480019 -0.703037 0.602880 -2.015166 1.695399 0.167243 0.768979 1.338980 1.153931 -0.608154 -1.590963 0.858104 0.414349 -1.907798 -2.391768 
强 0.327309 0.485061 -0.545726 1.221253 -0.587712 -0.653246 -1.045506 -0.120125 -0.336455 -0.838601 -2.735675 -0.946067 0.625369 1.118014 -0.838116 0.109076 -0.768342 0.887466 1.042656 0.850616 0.279069 -0.813626 -1.603368 0.419855 -0.144347 0.071934 -0.545927 -0.439507 0.425633 0.028663 -1.636978 -0.784777 0.331339 -0.131715 0.618764 0.718493 2.004065 -1.315552 0.155332 1.518131 -0.531450 -0.738457 0.096940 -0.406460 -2.580235 0.801411 0.256818 -0.305274 -1.169443 0.688402 
